{"layers":[{"out_depth":2,"out_sx":7,"out_sy":6,"layer_type":"input"},{"sx":4,"sy":4,"stride":1,"in_depth":2,"out_depth":32,"out_sx":8,"out_sy":7,"layer_type":"conv","l1_decay_mul":0,"l2_decay_mul":1,"pad":2,"filters":[{"sx":4,"sy":4,"depth":2,"w":{"0":-0.07373943050237963,"1":-0.06550050347155849,"2":0.3562214880013843,"3":0.05034764893239682,"4":0.19706703883984428,"5":-0.11675153840273934,"6":0.1446737608457026,"7":-0.010120432620446778,"8":0.2145046069314991,"9":-0.2874426100522286,"10":0.09786353501254488,"11":0.2262719704121743,"12":-0.2248564241975415,"13":0.07530225943984674,"14":-0.12037985125986901,"15":0.3611726920409789,"16":-0.07706978285327232,"17":-0.1467477425494588,"18":0.11896366995536457,"19":0.16845695483462453,"20":-0.2599185128991276,"21":-0.08505088217711215,"22":0.10476640706541067,"23":-0.16490946565549722,"24":0.2573098357937165,"25":0.20978036110153214,"26":0.22366680567315958,"27":-0.16583519393016058,"28":0.06716891673365809,"29":0.1928720887677517,"30":0.12008602825516525,"31":0.18181382589208242}},{"sx":4,"sy":4,"depth":2,"w":{"0":0.08486274093066058,"1":-0.025532488682785074,"2":0.003966289160375671,"3":0.025900430383297937,"4":-0.05457012949388513,"5":0.04212783788890829,"6":-0.12658689376060708,"7":0.1645513506925676,"8":-0.29900732938910063,"9":0.05167875003378211,"10":0.0643112006998502,"11":0.18891772647571928,"12":-0.005148630537366659,"13":-0.08741754580193584,"14":-0.0040284689728757525,"15":-0.06887071790462759,"16":-0.28483628378668785,"17":-0.10720881609614506,"18":0.17534567416822108,"19":-0.22509612480093966,"20":0.0009916947319590615,"21":0.10754147075628714,"22":0.015327615651243715,"23":-0.010238529489745758,"24":0.31628123342854575,"25":-0.0013540144770027446,"26":-0.024425795120859625,"27":-0.05126158241051771,"28":-0.0018518582038243774,"29":0.04844454147663557,"30":-0.18073274233192582,"31":0.041843433679516706}},{"sx":4,"sy":4,"depth":2,"w":{"0":0.18693694060591637,"1":-0.10927003932823616,"2":0.02907430723537318,"3":-0.0905143418428574,"4":-0.11370770331929284,"5":0.0031980273716446786,"6":0.3956352504751765,"7":0.23125922339843547,"8":0.0066675805624516185,"9":0.10367468037361476,"10":0.5675196220166691,"11":-0.18196837235745134,"12":-0.2249968785577523,"13":-0.2129057949351848,"14":0.07721066134061297,"15":0.2672006221849558,"16":-0.10768921392726417,"17":-0.015300081446968929,"18":0.49483684366894026,"19":0.4548899021516255,"20":0.10372821083905037,"21":-0.006808904146620658,"22":-0.158298436611052,"23":-0.07513597830054718,"24":-0.015134485118382722,"25":-0.07203170234035998,"26":0.22068884714768477,"27":0.07548213503059356,"28":0.0770704902068,"29":-0.05860584799127334,"30":-0.124771709177701,"31":-0.552501381050426}},{"sx":4,"sy":4,"depth":2,"w":{"0":-0.10501831246539652,"1":-0.06346026750810514,"2":-0.12327493163748747,"3":-0.002330402375852938,"4":0.3141244602750321,"5":0.12383102670505973,"6":0.2283567226698882,"7":0.05188493231472127,"8":0.003505228682966636,"9":0.18277211718460074,"10":0.007205500738066058,"11":0.07880941633959072,"12":0.03605617718600191,"13":-0.10980882262864171,"14":0.12149579044473015,"15":0.05689748610686724,"16":-0.028965321063380303,"17":0.2830798911914549,"18":-0.11561811722638467,"19":-0.05560455738174282,"20":0.03988441224473513,"21":-0.25468639335461163,"22":-0.04027692260170856,"23":-0.1358571601748653,"24":-0.12282365265660951,"25":0.04558925595391073,"26":0.24414871929266477,"27":-0.14451288536212953,"28":-0.1460517030956874,"29":-0.0019339462955379018,"30":-0.008980116904179434,"31":-0.05740272939370124}},{"sx":4,"sy":4,"depth":2,"w":{"0":-0.03717673072888339,"1":0.05131348564717962,"2":0.059929220237408126,"3":-0.44525904931290616,"4":-0.419204893220363,"5":-0.2971652691668884,"6":0.23722262714152373,"7":-0.2280817719730808,"8":0.0937102908397547,"9":0.018686157331603646,"10":0.1734787659509646,"11":0.05915485013681557,"12":-0.001992609540351179,"13":0.13053895360302453,"14":0.03003579757563153,"15":0.2513684602013617,"16":0.16768517359634463,"17":-0.12830053046510453,"18":-0.1570898995183433,"19":-0.1513746569809791,"20":0.02903549686265621,"21":-0.2529683403170126,"22":0.3557961204703559,"23":-0.04091221872914488,"24":0.13834425016992366,"25":-0.14037113646205915,"26":-0.33124303510215,"27":0.26366270987910956,"28":0.2658435074673789,"29":-0.035923928147036675,"30":0.0409290876353097,"31":-0.25531538157849015}},{"sx":4,"sy":4,"depth":2,"w":{"0":0.17972627755134016,"1":-0.12446794515052105,"2":0.07552869779345502,"3":-0.14423854389694732,"4":0.06466926096925907,"5":-0.026598277016291978,"6":0.136958199960411,"7":0.1432120583462143,"8":0.17066543035095275,"9":0.10260180884776651,"10":0.03239993903831623,"11":0.2081263644931494,"12":0.49528406235509415,"13":-0.010159756357599074,"14":0.1644576622629083,"15":0.0882929479049111,"16":0.28818543010313674,"17":0.10779460670551344,"18":-0.3122052310541305,"19":-0.024592123701243945,"20":0.05884569253388864,"21":-0.15470001269725653,"22":-0.07410720560731236,"23":-0.06596385358906492,"24":-0.027171224852829558,"25":-0.007995019492830956,"26":-0.2705338978138278,"27":0.04913686053350653,"28":0.2975863936895229,"29":-0.08077380132532946,"30":-0.2949705565864564,"31":-0.43659053664654857}},{"sx":4,"sy":4,"depth":2,"w":{"0":-0.02554843067948404,"1":-0.06167844055834591,"2":-0.33444195894138273,"3":-0.07018295066829043,"4":0.011890678085716972,"5":-0.13510546031980775,"6":0.19386795618683264,"7":0.028920956003341255,"8":0.23901139892331505,"9":0.29739971489361566,"10":-0.13992526070221012,"11":-0.06289006490046273,"12":-0.2636220488706067,"13":0.040104325149577784,"14":-0.12498063957049498,"15":-0.00008440547434205282,"16":0.015415395653352301,"17":0.1689987576826793,"18":0.023510758688105968,"19":-0.13684986362768098,"20":0.15280816476741324,"21":-0.026560499644494563,"22":0.25614644443365564,"23":-0.09054571154940251,"24":0.08005059155153557,"25":0.32180660679513495,"26":0.17043814246780342,"27":-0.0006892740332353176,"28":-0.10961291961366706,"29":-0.02159207688366257,"30":0.16182167679520806,"31":0.17353093706080797}},{"sx":4,"sy":4,"depth":2,"w":{"0":-0.017297756294315965,"1":-0.057027148400950155,"2":-0.20010066663823545,"3":0.1324183635892932,"4":0.29035591944869654,"5":0.08709165672664752,"6":0.019748824844485254,"7":-0.1938785622823174,"8":-0.009252903763958733,"9":0.15644199421194194,"10":-0.11935597101621101,"11":-0.11717726584348329,"12":-0.030232893173439305,"13":-0.2509779693378732,"14":0.26040738914456474,"15":-0.09694605185581749,"16":-0.2862525633465659,"17":0.04402520983965973,"18":0.13915835160514373,"19":-0.13414948245200708,"20":0.16557912650461448,"21":0.15233943212828194,"22":-0.12048809763296797,"23":-0.17967381827204387,"24":-0.14712820443534602,"25":-0.15480049948866828,"26":-0.05361647489252416,"27":0.10435518191312496,"28":-0.015212095820281206,"29":-0.003781515984195089,"30":-0.22318127861615344,"31":0.04550650723475361}},{"sx":4,"sy":4,"depth":2,"w":{"0":-0.006479080938499629,"1":0.023094274844434267,"2":-0.1677426114943111,"3":-0.002643438512709105,"4":0.24709393238947602,"5":0.3235617572700251,"6":-0.5214646389018849,"7":0.007130065558220038,"8":0.33409766445540395,"9":-0.45242543783764066,"10":-0.06545619988450957,"11":-0.1761485351499816,"12":-0.14927906733746765,"13":0.13117529106118547,"14":0.0649870188811931,"15":-0.03450268619003931,"16":-0.11902387847770309,"17":0.10546252477801871,"18":-0.08781400802002405,"19":0.010820888421711897,"20":-0.07169261703844934,"21":0.23760069675393727,"22":0.03179534172572075,"23":0.2210790826660448,"24":0.10571194811432438,"25":-0.01930198524287461,"26":0.2312062911702332,"27":0.01570164225597261,"28":0.16554775010610112,"29":0.03631019795107166,"30":-0.005363855387941079,"31":0.055454702377147794}},{"sx":4,"sy":4,"depth":2,"w":{"0":0.010040031454917114,"1":-0.28174418498837256,"2":-0.16133354030072156,"3":0.06937272736191728,"4":0.22198434123898775,"5":-0.11646404652389895,"6":-0.26415048784022294,"7":-0.023922427864212673,"8":0.26823013983478194,"9":-0.004957150998051358,"10":-0.13399115709413206,"11":0.18285008813155296,"12":-0.12196689020346049,"13":-0.018532290903795042,"14":-0.05641383372945929,"15":-0.23751065051248207,"16":0.08432097904182836,"17":-0.2034612804631467,"18":0.0012027381703328189,"19":0.09658607440185345,"20":-0.1363721631085105,"21":-0.2844459536887559,"22":-0.11103423889348969,"23":-0.07825634004225474,"24":-0.11592817422533658,"25":-0.04355375977957372,"26":0.11605819629842602,"27":-0.12050966917351255,"28":-0.02219066969883568,"29":-0.1902842496184093,"30":-0.18081412699454405,"31":-0.19242599801066165}},{"sx":4,"sy":4,"depth":2,"w":{"0":-0.2268380748834383,"1":0.030887310487446206,"2":-0.12443904796952011,"3":-0.14388398638018512,"4":0.39518846059041474,"5":0.23118288254328997,"6":0.227997399484311,"7":-0.05266139483448163,"8":-0.027120264558246104,"9":-0.04480557899962242,"10":-0.053993575810920326,"11":0.0009172123777344134,"12":-0.0415497619627019,"13":-0.23665006648818196,"14":-0.12667235326519402,"15":0.009716868607061755,"16":-0.17703642354180854,"17":0.2028240090467973,"18":0.027086190403489942,"19":0.018200594758422207,"20":0.0772859414686166,"21":-0.3477926351645904,"22":0.030762633051845376,"23":0.021410532704253797,"24":-0.22369733725194715,"25":0.01969883196788619,"26":-0.005053020933149403,"27":-0.13749068111070295,"28":0.10177942680962175,"29":0.05685510046740662,"30":0.13415971359595566,"31":0.11046944313238086}},{"sx":4,"sy":4,"depth":2,"w":{"0":0.008348962835278074,"1":-0.26338362156744444,"2":-0.06617536225443646,"3":0.062577213384981,"4":0.23645748615248252,"5":0.25653946977674674,"6":-0.18446239013089408,"7":0.3796904757370565,"8":-0.017338344008710507,"9":-0.12643750468415327,"10":0.23818763972797055,"11":-0.0396582622860884,"12":0.20331589905620154,"13":-0.2620326680457168,"14":-0.03526648378739021,"15":-0.08273311820258485,"16":-0.03165186486392375,"17":0.20972099745815767,"18":0.2169466852884957,"19":-0.027289791593526184,"20":0.0017738324074437646,"21":-0.2655106782888962,"22":-0.28797680734522096,"23":-0.16718291011437933,"24":-0.5026046577106368,"25":-0.015412854550703665,"26":0.06860294287582926,"27":0.09189516756309297,"28":0.04577149118016833,"29":0.09539315108171616,"30":-0.05975811236353137,"31":-0.24196604605155272}},{"sx":4,"sy":4,"depth":2,"w":{"0":-0.08069317546327265,"1":-0.19093348741122898,"2":-0.25263981552768533,"3":0.11869406498276082,"4":0.006671802562547394,"5":0.13454035238540588,"6":0.00004218780821727473,"7":-0.004897770462932143,"8":0.0197850831591693,"9":0.4145542034769878,"10":0.09832525864628228,"11":0.02188031232641346,"12":-0.11484347613370408,"13":0.10148964807198063,"14":-0.05885003169425011,"15":-0.017187278061393453,"16":0.20995778819471245,"17":0.08454827630592011,"18":-0.058177466655068746,"19":0.1045228814100388,"20":-0.08270051078776942,"21":-0.17243889372311413,"22":0.05809464096839757,"23":0.030091874351282185,"24":-0.1545095050895125,"25":0.07238703875604485,"26":-0.16728584243974218,"27":-0.07474730703405838,"28":-0.07703159889858649,"29":0.15519090264081495,"30":0.23275578412299847,"31":-0.2603355984061434}},{"sx":4,"sy":4,"depth":2,"w":{"0":-0.03587932034628025,"1":-0.021941155780683425,"2":0.21074973382950868,"3":-0.017942440786365654,"4":-0.043383016359536584,"5":-0.24793044049722326,"6":0.027638264843613685,"7":0.22773842400763852,"8":0.024671698515605005,"9":0.07014877282101264,"10":-0.058287831334227505,"11":0.2498887601119049,"12":-0.08262936486992059,"13":0.044173801876383666,"14":0.19045610642108787,"15":0.3413318709720244,"16":0.0011342405356553164,"17":-0.24033707810471525,"18":0.3895176498877141,"19":0.02725636378572437,"20":-0.05649056684293225,"21":0.20734600067008524,"22":0.0440568112129895,"23":0.19450378747818226,"24":0.21143924677243398,"25":-0.11213737004729935,"26":-0.20197622379196722,"27":-0.311103612838977,"28":0.0452358795469035,"29":0.19543824711524066,"30":-0.1869931763555326,"31":0.15758748564306702}},{"sx":4,"sy":4,"depth":2,"w":{"0":-0.091863105897244,"1":0.5012341146553699,"2":0.38441058364426994,"3":-0.12233425229611557,"4":-0.20622302712113458,"5":-0.10672061246832622,"6":-0.14844068687286005,"7":-0.06636836092088072,"8":-0.024486540802206257,"9":0.1488262494330097,"10":0.06561291301537024,"11":0.040965112259445026,"12":0.13861535350225138,"13":-0.12368511437044062,"14":-0.1462811593208401,"15":0.05745327407040889,"16":0.04353325656404679,"17":-0.1569478743560915,"18":-0.13606568205698252,"19":0.025787837070705675,"20":-0.24721159062922188,"21":-0.03265837641002881,"22":-0.11884703070636901,"23":0.07275671076692461,"24":-0.3819566578320604,"25":-0.13814942915596343,"26":0.09056315646425182,"27":0.17134604794541666,"28":0.01211932576764284,"29":0.1905615134751063,"30":-0.06275466329883662,"31":-0.18767914522068133}},{"sx":4,"sy":4,"depth":2,"w":{"0":0.226119327209679,"1":-0.12276058380902083,"2":-0.021857533632120396,"3":0.1792675645659404,"4":-0.09842229397573633,"5":-0.0033366245459736993,"6":-0.2788572671917756,"7":-0.10597618557694319,"8":0.2882729523608435,"9":0.27719365840605376,"10":-0.3421704855333227,"11":0.18696907607201832,"12":0.018169104861764294,"13":-0.15398211048276988,"14":0.16148149351494648,"15":0.08015152315137454,"16":-0.24396916341447172,"17":0.012414853008390275,"18":0.22502230687801475,"19":-0.0068274612998384734,"20":-0.108467312593593,"21":-0.3077063819417693,"22":0.10417637477406863,"23":-0.38066185490972887,"24":0.10484772926833447,"25":0.34969278616127797,"26":-0.11084052839064923,"27":-0.35361897028997935,"28":-0.031718393532196645,"29":-0.17117132663827517,"30":0.07384654829703628,"31":-0.14040652687818755}},{"sx":4,"sy":4,"depth":2,"w":{"0":-0.1447562259547124,"1":-0.14105648220552502,"2":-0.22288598817332925,"3":0.024043011907551665,"4":0.20854906603144108,"5":-0.3316328482172253,"6":0.12531239900277105,"7":0.3211283089153913,"8":-0.04918890563625796,"9":-0.11289539971054999,"10":-0.00838599305614092,"11":0.18583939253055395,"12":-0.31906546340630115,"13":-0.2927455014898499,"14":0.17139513218677113,"15":0.14450207169770812,"16":0.02451335537326402,"17":0.18774375461365292,"18":0.040680530403475454,"19":0.241747271318884,"20":0.2085898048737918,"21":0.18975437603233297,"22":-0.12233622691842606,"23":-0.08430072200086976,"24":0.16808758367116464,"25":0.2093932764219061,"26":-0.2426326387139656,"27":-0.12290579091788112,"28":0.18809890712201158,"29":-0.35395396847176624,"30":0.1708756428158703,"31":0.09043536064496834}},{"sx":4,"sy":4,"depth":2,"w":{"0":-0.0005068677155004096,"1":-0.06732634455554554,"2":0.07553994116566906,"3":0.055706491189754376,"4":0.1466109034270383,"5":-0.04422957311176515,"6":-0.3079146676226679,"7":-0.5317402329460816,"8":0.09695666661827713,"9":0.11415301600850007,"10":0.28990388142449214,"11":0.06807322190651448,"12":-0.08500461794111186,"13":-0.3114628141306249,"14":0.13108014820869685,"15":0.1821986975102866,"16":-0.05975945093243421,"17":-0.13073998235043233,"18":-0.45972533746046945,"19":0.032397800031749864,"20":-0.21404253091065625,"21":0.0247791584769591,"22":-0.05538419142658974,"23":-0.11785980886889355,"24":-0.18376006423398872,"25":0.03429709476510728,"26":-0.2732117720940809,"27":0.12053627898102316,"28":-0.12226892334733923,"29":-0.021238396153302433,"30":-0.31592053552962646,"31":0.1629053457341245}},{"sx":4,"sy":4,"depth":2,"w":{"0":-0.055834500562062205,"1":-0.13833765823175986,"2":0.06112953129383481,"3":-0.211827005992853,"4":-0.054372895755882965,"5":0.057258620354302174,"6":-0.1801450844726133,"7":-0.40386856954611156,"8":0.06831158437007412,"9":0.20992155044351388,"10":0.04363891548647057,"11":-0.0862279624548462,"12":0.3003079627295871,"13":-0.06765624213193586,"14":-0.3516293689788628,"15":-0.0851842250767181,"16":0.12238452589532675,"17":0.22871088041417342,"18":0.08625471394495603,"19":0.15173558020695788,"20":0.2178607742769391,"21":0.29775913844153035,"22":0.18589951977685493,"23":0.29340241132201594,"24":0.22282657221673938,"25":0.16831621501455363,"26":0.09991759376691095,"27":-0.053784065618208976,"28":-0.060717861270346105,"29":0.38548864128912713,"30":-0.13376092706071774,"31":0.22210840375555851}},{"sx":4,"sy":4,"depth":2,"w":{"0":-0.09562611342796322,"1":0.056686960764115384,"2":-0.09978293571426843,"3":0.25017254285296653,"4":0.10172862132425527,"5":0.23515624380665648,"6":0.017744099282553452,"7":0.13005976960401974,"8":0.07178877007199337,"9":-0.3113653437047015,"10":0.23440451693812903,"11":-0.0926991662919226,"12":-0.23473308043117064,"13":-0.25083859326243874,"14":-0.19190258733251034,"15":-0.06701407495589587,"16":-0.01636145088647428,"17":0.1620011305572655,"18":0.2195180981059287,"19":-0.16774460389773327,"20":-0.012959464827977782,"21":-0.12032362526031397,"22":-0.1695142351057936,"23":0.08450643027827164,"24":0.162719745611714,"25":-0.1549687316487389,"26":0.3354920356557472,"27":-0.2965382235883357,"28":-0.24088900892788417,"29":0.049189627921359266,"30":-0.0071358560683044735,"31":-0.013989975770213001}},{"sx":4,"sy":4,"depth":2,"w":{"0":0.0010455651053890556,"1":-0.12497032565732154,"2":0.14197950355622113,"3":-0.04440510465438143,"4":-0.30201567361097803,"5":-0.27906406951949025,"6":-0.07995105388433849,"7":0.042661068004036906,"8":-0.20491578007349273,"9":0.006408505825336567,"10":-0.10205679558954946,"11":0.12894643543582518,"12":-0.10655480662837012,"13":0.13272821065432758,"14":0.07054794537019922,"15":0.08942488606518136,"16":0.0007306961241111938,"17":0.12608662509043234,"18":0.183201456667012,"19":-0.26327298642913466,"20":-0.4077940573777512,"21":-0.24516035215638113,"22":0.12219834913744503,"23":0.11945042839468455,"24":-0.12674048407770586,"25":0.21109332966622527,"26":-0.28138351700722325,"27":0.08033213621947317,"28":-0.31819275990721696,"29":-0.3702394806885199,"30":0.024777205699494587,"31":0.08904322716756981}},{"sx":4,"sy":4,"depth":2,"w":{"0":-0.06070419844066646,"1":-0.17237943296676733,"2":-0.03434982587818414,"3":0.411820709511597,"4":0.005148442174411487,"5":0.021471345142589568,"6":-0.1543350112676519,"7":0.12232309750540173,"8":-0.3394810980275969,"9":-0.2627501119728577,"10":-0.00534992744678792,"11":-0.030006878183195397,"12":0.010348461384773466,"13":-0.045801710272162705,"14":0.13271561230185314,"15":-0.039005453075513286,"16":0.0570686500030342,"17":-0.28922809405424676,"18":0.15412054800047092,"19":0.375877477295191,"20":-0.2484183180844036,"21":0.011161763626293581,"22":0.3865746781515431,"23":-0.3283153228002903,"24":0.022551277404736305,"25":-0.09354296749474153,"26":0.2388105762839084,"27":-0.21651456686430848,"28":0.35297160191533683,"29":-0.2923573539174281,"30":-0.07822567432490586,"31":-0.25441990901750067}},{"sx":4,"sy":4,"depth":2,"w":{"0":0.27844377742865595,"1":0.03747195968797799,"2":0.2796261483634042,"3":0.10650011303451323,"4":-0.09733299095463753,"5":-0.4129774041217765,"6":0.23035156743866794,"7":0.15124577051619895,"8":0.07991961507109828,"9":0.08372250974463642,"10":0.13230465668127775,"11":0.0914754442169133,"12":0.3997063600820764,"13":0.005884745912194731,"14":-0.26908274012006694,"15":-0.08394604790019644,"16":-0.33620551027283246,"17":-0.15897049877241914,"18":-0.07105420090671957,"19":-0.2218937809548129,"20":0.05038413837838682,"21":0.2403070317936175,"22":-0.23050208766563324,"23":-0.017523869496408717,"24":-0.24032689551007339,"25":-0.10808199603770045,"26":-0.203061250882051,"27":-0.0007145802945746878,"28":-0.19435751391493836,"29":-0.19558598472953506,"30":-0.1450688178198917,"31":0.20822824879162677}},{"sx":4,"sy":4,"depth":2,"w":{"0":0.11469570320331877,"1":-0.13852316689867397,"2":-0.07497293347882503,"3":0.3804533943216853,"4":0.0911618994994132,"5":0.1806614396823207,"6":-0.0808644855893653,"7":-0.1417772951298851,"8":0.052972356362385536,"9":-0.0004318235218662529,"10":0.23503034322397803,"11":0.3414277834229786,"12":0.20768911878335866,"13":-0.1323394022876897,"14":-0.02501009247674009,"15":-0.2659099089052782,"16":-0.3606282508071945,"17":-0.23284034014106153,"18":0.005175236708971665,"19":-0.002951385355148112,"20":-0.44597567741083693,"21":-0.0991276656364091,"22":-0.23235712030933414,"23":0.20587723517941756,"24":-0.46267153932952526,"25":0.009777719613858414,"26":-0.029999046925549624,"27":-0.02525619311560161,"28":0.2730785317364739,"29":0.10061788846085762,"30":0.04995324230361053,"31":-0.13544576403767766}},{"sx":4,"sy":4,"depth":2,"w":{"0":-0.0058996363021905085,"1":-0.0004609850885257925,"2":0.10793359846780547,"3":0.3086109595544373,"4":-0.05877311327720606,"5":0.07612871585403702,"6":-0.12883362725540445,"7":0.020728453323033108,"8":-0.0664771161006378,"9":-0.023598362784822875,"10":0.18155859648641984,"11":-0.13520444779731258,"12":-0.36468439834439215,"13":0.18527176081963254,"14":0.3349779988754115,"15":-0.18640434890198898,"16":-0.026289219251805374,"17":-0.04011529379538958,"18":-0.35248689963350255,"19":-0.09083534002629079,"20":0.02662237564813432,"21":0.1711375308716156,"22":0.11978806189573694,"23":-0.11620202924540578,"24":0.1407141862702127,"25":0.14351618495760762,"26":0.11239774083721044,"27":0.08203769292050632,"28":0.24931274170669113,"29":-0.03628061236439512,"30":0.1638253549841585,"31":0.33949240404069286}},{"sx":4,"sy":4,"depth":2,"w":{"0":-0.060982782338901614,"1":0.00045243605945612765,"2":-0.12870837736771587,"3":-0.10035667396036979,"4":-0.43922624567519775,"5":-0.05821123120257429,"6":-0.04338140818531023,"7":-0.25404163520395895,"8":-0.021086016797579644,"9":0.08011886344192735,"10":0.13921356981814423,"11":0.15340439336587328,"12":0.18834100529412529,"13":-0.007680036373025113,"14":-0.028472322541952786,"15":-0.3304140142733388,"16":0.061809173344222645,"17":-0.05316602218818991,"18":0.018268879801431867,"19":-0.10051119795222765,"20":0.11792755443256284,"21":0.3649431352763047,"22":0.0017288429014470255,"23":-0.35339130111113926,"24":0.017545620072676276,"25":0.03720593358195923,"26":0.03548913265113445,"27":-0.16026305595806345,"28":0.2970874289229518,"29":-0.0012668592341801117,"30":-0.015970011253580982,"31":0.06770384523388583}},{"sx":4,"sy":4,"depth":2,"w":{"0":-0.16130173631657818,"1":0.07751597242721313,"2":-0.1880818346198705,"3":0.32765151868934506,"4":0.04053447447262076,"5":-0.02232449588869475,"6":0.27397668561896904,"7":-0.4796924019668406,"8":0.07654705134070347,"9":-0.26251791133004965,"10":-0.0024407354687746912,"11":0.140279202666371,"12":-0.32313388287690364,"13":0.5325580512039659,"14":0.05741130920717203,"15":-0.2371730202288219,"16":-0.16042674795885015,"17":0.1614869396189767,"18":-0.013017574968009201,"19":0.03880636231783661,"20":0.21092634020201526,"21":0.18924973497869782,"22":0.01910073689644243,"23":0.0862430037731964,"24":0.04269814684274367,"25":0.13364378208831715,"26":-0.35199267986221977,"27":-0.01929136950351873,"28":0.03251749103134787,"29":-0.13424117644287653,"30":0.031726970895397236,"31":0.09399716840345898}},{"sx":4,"sy":4,"depth":2,"w":{"0":-0.005939240678877182,"1":-0.2725071318267458,"2":0.10100042357996467,"3":-0.13636865484677638,"4":0.13073330553540904,"5":-0.04123673514800175,"6":-0.21770238435542413,"7":-0.02020589759764171,"8":0.10892537438496243,"9":0.16976845884507646,"10":0.10808800395843951,"11":-0.15393033585845634,"12":0.0861900104802096,"13":-0.1711212207937676,"14":0.020435349253826552,"15":-0.06570774155312376,"16":-0.22105009321780889,"17":-0.05248279189615316,"18":0.02768078914272962,"19":-0.07370643484349564,"20":0.21641616564645488,"21":0.11691615348141232,"22":-0.0733423929667226,"23":0.08496629590908716,"24":0.12913711883064774,"25":0.2162091722847504,"26":0.15589942021956907,"27":0.1521239761205033,"28":0.21172886776580307,"29":0.09408637392077407,"30":0.09477349363874789,"31":-0.3470162487343086}},{"sx":4,"sy":4,"depth":2,"w":{"0":0.20540368654136693,"1":0.3964466485536115,"2":0.11442721090383466,"3":-0.43348821171572266,"4":-0.044214349638413766,"5":0.027490650218673276,"6":-0.13246376845622745,"7":-0.3548847635099028,"8":0.14148104804012182,"9":-0.09097796044861794,"10":-0.053085659753544075,"11":0.1357756016285544,"12":0.06566411102288051,"13":-0.2215903575614257,"14":0.05901547953139058,"15":0.11389282803076968,"16":0.06020299541144455,"17":0.3156220800115623,"18":0.025449008925293823,"19":-0.07273106790609055,"20":-0.12090205796030487,"21":-0.15570735646136552,"22":-0.07626552379688625,"23":-0.05786142273858888,"24":0.20542474037372366,"25":-0.2387862627885266,"26":0.09702496105209094,"27":0.22643925137875606,"28":-0.07357973499818066,"29":0.18680860120249063,"30":-0.29959582804248613,"31":0.0819186003415078}},{"sx":4,"sy":4,"depth":2,"w":{"0":0.06304881794885167,"1":-0.002273174410196313,"2":0.334448879437561,"3":-0.07111662501271723,"4":-0.22000154241510433,"5":-0.13186360556461274,"6":-0.23416222841723594,"7":-0.18100669396645347,"8":0.3120725511902873,"9":-0.03305160335287469,"10":0.010960984040007015,"11":-0.4107906547579397,"12":-0.2143192820083191,"13":0.05596466381185497,"14":-0.07727696338141904,"15":0.5151874028360691,"16":0.0017881075034561033,"17":-0.13750902664922082,"18":0.17492885151333717,"19":-0.4149393220677202,"20":-0.2503249895079184,"21":-0.033521636935469376,"22":0.02453879257126101,"23":-0.15395297821387574,"24":-0.03533419358161195,"25":0.42803955219993317,"26":0.08790555358538654,"27":0.01788153953615706,"28":-0.26297148147341753,"29":-0.14981813501279512,"30":0.10055939968526101,"31":-0.33568470852561144}},{"sx":4,"sy":4,"depth":2,"w":{"0":0.003895024572175757,"1":0.07309546864680457,"2":-0.11924898455496266,"3":0.3629139575306779,"4":0.28467713950445567,"5":-0.06611509450471155,"6":0.1666103563880132,"7":-0.03564584754043534,"8":-0.1376933665304462,"9":-0.010404052480918791,"10":0.05294683252906805,"11":-0.08786173450310938,"12":-0.13671290612678447,"13":-0.13916301624345695,"14":0.10448063865556556,"15":-0.0705927030315844,"16":-0.0023663441643416785,"17":0.1381238535250725,"18":-0.22942847635320812,"19":-0.15483388253919872,"20":0.6571288367983348,"21":-0.04032637055170724,"22":0.19013098831955813,"23":-0.07907134839847889,"24":-0.139006363055435,"25":0.14844899670501865,"26":-0.15019592769650503,"27":0.010321765505364247,"28":0.04763306711767586,"29":-0.11513374510953113,"30":-0.12773536124601767,"31":-0.28550097721598283}},{"sx":4,"sy":4,"depth":2,"w":{"0":0.015830546482576827,"1":0.13338395997655725,"2":-0.16056944429762204,"3":-0.07860352742394745,"4":0.09384746027203973,"5":0.15002376091689482,"6":0.09236758165826438,"7":0.1884892790617418,"8":-0.041468261063808236,"9":-0.017530725555132423,"10":-0.3037068861993965,"11":0.031004046434862587,"12":-0.0022420465644407608,"13":-0.21364564933957153,"14":-0.19243701512220543,"15":-0.15264220255873295,"16":0.3829460321181964,"17":0.02341830487920538,"18":-0.3190834154491946,"19":-0.08004119895202703,"20":-0.005534412295297014,"21":-0.05888912602528664,"22":0.45637056943374144,"23":0.1881707048364426,"24":0.2748733576722841,"25":-0.3898893440362702,"26":-0.2078104247358125,"27":-0.1591249136223305,"28":-0.420693598701957,"29":-0.03923331576967,"30":0.05090151879480028,"31":-0.13870928629773036}}],"biases":{"sx":1,"sy":1,"depth":32,"w":{"0":-0.15297519464395343,"1":-0.04240417987783602,"2":-0.03924788912018609,"3":0.03562192842564642,"4":0.00006676827270868848,"5":-0.04942339809347321,"6":-0.05803728398587136,"7":0.16846680353983548,"8":0.0002496535999969054,"9":0.3557786382696953,"10":0.022029639638744467,"11":0.03422127177643131,"12":0.05448727014412889,"13":-0.002500816278060077,"14":0.08837022083248051,"15":0.12258923130613238,"16":-0.015868438480768108,"17":0.15084063456951569,"18":-0.12817616854327138,"19":0.19421854277854703,"20":0.1995794535413117,"21":-0.006065986136683394,"22":0.10709117128353333,"23":0.13636669612228178,"24":-0.07329238344516743,"25":-0.015700648302346343,"26":0.06778168690764733,"27":-0.031410147757569735,"28":0.008606865639039046,"29":0.22062365522071095,"30":-0.014693837114801234,"31":0.002623212136445436}}},{"out_depth":32,"out_sx":8,"out_sy":7,"layer_type":"relu"},{"out_depth":60,"out_sx":1,"out_sy":1,"layer_type":"fc","num_inputs":1792,"l1_decay_mul":0,"l2_decay_mul":1,"filters":[{"sx":1,"sy":1,"depth":1792,"w":{"0":-0.05233076409648193,"1":-0.0029363518402074355,"2":-0.04203562856107554,"3":-0.01104528900115182,"4":0.03644599882307853,"5":-0.017595519781050936,"6":-0.013811013460397275,"7":0.021986684297638465,"8":0.005865519398712745,"9":0.01950018807628459,"10":-0.03994178631257652,"11":-0.001739357944084007,"12":0.019699628572500415,"13":0.0011714364957469987,"14":0.00018655211622788318,"15":0.04735767303666201,"16":0.01174993564682761,"17":0.007545787393465287,"18":0.026965353985130218,"19":0.0007569610602295746,"20":-0.02427193285423583,"21":0.005291905597106208,"22":-0.011948573340541505,"23":-0.019037998931151174,"24":-0.010895694393231767,"25":0.019694656218267055,"26":-0.027407311238542738,"27":-0.007747176577413365,"28":-0.041600361122152464,"29":-0.012135001812147344,"30":-0.006936212498602317,"31":0.022663109484220192,"32":-0.0048465638046620895,"33":-0.017089589669655916,"34":-0.0003017587576133339,"35":-0.029532561578789085,"36":-0.019488814696205992,"37":-0.007544664811437596,"38":0.008849124727290424,"39":0.00654320354408836,"40":0.02708085845871066,"41":0.018911572471601818,"42":0.016994463975121155,"43":-0.00971991374273279,"44":0.015067175220587507,"45":-0.01190262976018602,"46":-0.04989836722386911,"47":-0.057860964902331474,"48":0.01909115409364379,"49":-0.0156863062564445,"50":-0.02936161235346393,"51":-0.002371968164700485,"52":-0.027751797127472815,"53":-0.02011656802813999,"54":0.0236673521402576,"55":0.031971819486276865,"56":-0.024056577773489962,"57":0.015212023077574893,"58":-0.02199024862572629,"59":-0.011164475305623188,"60":0.010928730325862081,"61":-0.010050555385785151,"62":-0.032400771025692526,"63":0.01921690479844412,"64":-0.036965546721453524,"65":-0.027324590483856832,"66":-0.0026828191533812213,"67":-0.011527217713992524,"68":0.02328851990761615,"69":-0.002542064045019034,"70":0.029917613573531225,"71":-0.0001353320974979812,"72":0.044094723731757275,"73":-0.05536752819812098,"74":0.03780897308003041,"75":-0.017738727818336898,"76":-0.01996138330192923,"77":0.0008849430243817715,"78":0.019933023140026856,"79":-0.03404802403113569,"80":-0.00797252527370788,"81":-0.03099133383034089,"82":-0.0021651412795818587,"83":-0.02736898435418213,"84":0.006481333524139239,"85":0.005341991682697351,"86":0.015491989903617463,"87":0.024238699915630466,"88":-0.007087723758801955,"89":0.013698452811430886,"90":0.023384191141336656,"91":0.011247375365554958,"92":0.07216397966834812,"93":0.022380815799906542,"94":-0.024941402101689096,"95":0.0050605685670730306,"96":-0.029214136057945744,"97":0.017359655832217262,"98":-0.007682350162082219,"99":0.04397749799102843,"100":0.0016174502870410546,"101":0.00045324607620436354,"102":0.030130942232198532,"103":-0.02263127819529451,"104":0.03755016103823835,"105":0.01814802076767621,"106":-0.020928789731778617,"107":0.00032977166414463493,"108":-0.01815093323722862,"109":-0.004217185419406472,"110":0.04233766330063563,"111":-0.018446051837119316,"112":-0.04158722816311269,"113":0.005896718879302132,"114":0.01141180958999401,"115":-0.015269807953013163,"116":-0.012359774205397741,"117":-0.00034240810848451737,"118":-0.03692154794333439,"119":-0.010918453381415366,"120":-0.0115428060070992,"121":0.001110530334868437,"122":0.045986475177466145,"123":0.022518238580972957,"124":-0.0328631062568555,"125":0.0007980819458726639,"126":0.0252203322229094,"127":0.016356331857528127,"128":-0.02108477957654634,"129":-0.011141486038395406,"130":-0.019611145263949678,"131":-0.00045449518316205287,"132":0.01846011846373519,"133":-0.01532085501870775,"134":-0.015766372380348496,"135":0.005741996307790108,"136":0.0008960323917803618,"137":0.025475200454836814,"138":-0.012454763245306774,"139":-0.020341283953283044,"140":-0.00384142178735195,"141":-0.009558531577461815,"142":-0.01494747379891146,"143":0.01351346244358488,"144":0.05273266644170955,"145":-0.011032492511971314,"146":0.015114123740206698,"147":0.04128400980752929,"148":-0.03020304282440917,"149":0.05867119946032977,"150":-0.015517989808286892,"151":0.0035732818117242392,"152":-0.004542413662968647,"153":-0.0001083381119072588,"154":-0.0061928511374109655,"155":0.014269384117110095,"156":-0.005130986790065002,"157":-0.02472569636533214,"158":0.015413206291351372,"159":0.03558202780801576,"160":-0.009297292692352157,"161":-0.019555461587151244,"162":0.03594464314618289,"163":0.021257600276929405,"164":0.00660490201660702,"165":0.024454632592823402,"166":-0.029232936962467128,"167":0.014446294845556523,"168":0.002528793881132083,"169":-0.003994474442798359,"170":0.021138474485369645,"171":0.029211716256052386,"172":-0.01694452551747745,"173":0.008329476706736127,"174":0.0377166333676468,"175":0.019039460181208032,"176":0.004269600933461139,"177":-0.026611354316564778,"178":0.0003829606545303598,"179":0.015432866803201307,"180":-0.032718601200143096,"181":0.009624909608306781,"182":0.022447434956389338,"183":-0.019201370616316743,"184":-0.020242767960196882,"185":0.003300704228427776,"186":0.007743670159694763,"187":-0.009691593495420469,"188":-0.01953293923273613,"189":0.012752206240905591,"190":-0.008219022614968461,"191":-0.035925451576331924,"192":-0.05505824428415589,"193":-0.011881442815564086,"194":0.034543810210709736,"195":0.0021198009556152265,"196":-0.01901547470013695,"197":0.002762254996769367,"198":0.01931258150646491,"199":0.010371781504032345,"200":-0.013465014198832436,"201":-0.019962852890577233,"202":-0.03157458458154835,"203":0.018239312823952056,"204":0.03249531320864355,"205":0.003745338279941443,"206":-0.026801641055053615,"207":0.02186856478087088,"208":0.0010479358165866267,"209":-0.016913339602936093,"210":-0.03660926172569384,"211":-0.05082809260543023,"212":0.008368721167467452,"213":-0.03317082257024392,"214":0.01623076134668323,"215":0.008575560985676862,"216":0.005076202631569437,"217":-0.002599607059484766,"218":0.021966158522256977,"219":0.04273237548090377,"220":-0.021521650060976,"221":-0.022900599433786296,"222":-0.02550165951075697,"223":-0.018232515954658985,"224":0.014908865037161618,"225":-0.016546117567619083,"226":-0.02044825556331368,"227":0.022258706415241882,"228":-0.010486892213633933,"229":0.026651329634142032,"230":-0.00037935449559266216,"231":-0.00957747777861059,"232":-0.03740848214987985,"233":0.008272590146342764,"234":0.025673439964893883,"235":0.034670263538927715,"236":-0.006652709923994105,"237":0.031720130802601554,"238":-0.03133294648312208,"239":-0.008042260411760576,"240":0.015893384370556866,"241":0.06687649691036275,"242":0.0018615155301747364,"243":-0.013326039758600937,"244":-0.019573957220745994,"245":0.04934222073601652,"246":0.011574326820552198,"247":0.024545472170500675,"248":-0.0007248919929319986,"249":-0.028262171030745874,"250":-0.005232081038235408,"251":-0.028113138710855256,"252":0.021758703743051572,"253":-0.02625638950678575,"254":0.013984255538967897,"255":-0.005532039786440503,"256":0.005576111000426829,"257":-0.027342369567071926,"258":0.016735988508238236,"259":-0.01838759904748618,"260":0.02547310790405934,"261":0.030382513805629823,"262":0.028262259899663057,"263":0.034089901789320726,"264":0.013565437549372028,"265":0.014100489025063794,"266":0.006790990152951859,"267":-0.010236344171657714,"268":-0.0011872837706232483,"269":0.0494532537345748,"270":0.02662869395203998,"271":-0.02878152072882374,"272":0.024152432524339087,"273":-0.049315221520666766,"274":-0.021246772410305356,"275":0.0036814557955136312,"276":0.05183473461894837,"277":0.026485961358346678,"278":-0.04910602112402122,"279":-0.017434468190914727,"280":0.011379752232202016,"281":-0.009097331697149345,"282":0.014622268871639659,"283":-0.011670738961793454,"284":0.024948187735442783,"285":-0.024925311169073924,"286":0.007754187563018587,"287":0.01175393081271779,"288":-0.011605079888158605,"289":-0.00020822145417190695,"290":-0.016666701461516255,"291":-0.020110721367931825,"292":-0.0075800296477545855,"293":0.0095859561424207,"294":0.030721593006282834,"295":0.018026323806320257,"296":-0.029578460833918026,"297":0.011760061475945471,"298":0.007555606252188489,"299":-0.002377112167330172,"300":-0.006636552913308305,"301":0.0007461978979760449,"302":0.018031722937514504,"303":0.03310347695339015,"304":-0.006063137116765597,"305":0.009245495413240368,"306":0.009401843007117406,"307":0.022263559875288882,"308":0.01092985933644365,"309":0.029920227485606268,"310":0.009471181768069178,"311":-0.012166850108340326,"312":-0.0021339027005969607,"313":0.018928608763851103,"314":0.02444571195341975,"315":-0.006658196180394118,"316":-0.031710642343374534,"317":-0.015838248609745524,"318":-0.04776837599555293,"319":0.001855830423576781,"320":-0.007490905106133206,"321":-0.029676531808376167,"322":0.05536304186021899,"323":-0.0032850889518603685,"324":-0.039423759758674154,"325":0.034786639313787275,"326":-0.03092930340751584,"327":-0.05363714450386268,"328":-0.002336452865926477,"329":0.011901846272184645,"330":0.004327663519765871,"331":-0.002110644897631284,"332":0.010428363712725944,"333":-0.002120780150561382,"334":0.01269572480567658,"335":0.011936829600570985,"336":0.0208632363609329,"337":-0.04050806091599088,"338":0.019778716323380973,"339":0.0044640704117366245,"340":-0.029491615908487825,"341":0.005969172820541959,"342":0.009552832635655924,"343":0.0169510508654521,"344":0.006984556138569716,"345":-0.020988122826576125,"346":-0.016873026654181323,"347":0.03405659331928882,"348":0.031991325610669565,"349":0.012539813764508634,"350":-0.030633652289024888,"351":-0.012398245412233482,"352":-0.016502724736074253,"353":0.039217898055255884,"354":0.03173455028524824,"355":0.006182407281210804,"356":-0.010227582636323023,"357":-0.0015401260894987272,"358":-0.014869979325386735,"359":-0.03518183153965868,"360":-0.0528528604641335,"361":-0.013341538237607463,"362":-0.008230281981440081,"363":-0.013171568216295932,"364":0.012539199752425314,"365":-0.03498402714688083,"366":0.023579384403059376,"367":-0.0119479196421636,"368":-0.007358148137534229,"369":-0.00041243063476925916,"370":-0.006166692621020428,"371":-0.00995836000848859,"372":-0.004219790000683666,"373":0.030097182944468323,"374":0.014041515415190676,"375":-0.010423962428025067,"376":-0.009392824768856627,"377":-0.022347045802284762,"378":-0.010324551917197458,"379":0.04729638798349905,"380":-0.039755650552736346,"381":0.058831655801059514,"382":0.004789867078915321,"383":0.02640028631362091,"384":0.0033034181455738137,"385":-0.0016447940708912462,"386":-0.011560389118570586,"387":-0.0510789637245347,"388":0.01384188383582909,"389":-0.03821558194108341,"390":-0.0034312957412078256,"391":0.026884602478866627,"392":-0.008467812924218264,"393":-0.004412157122776288,"394":0.007497381539154008,"395":0.005525409653240564,"396":0.005686598672763399,"397":0.007044889524947346,"398":-0.0063004592896437365,"399":0.0025570110794898722,"400":0.001928951997860519,"401":0.02502523673922331,"402":-0.009673957949544051,"403":-0.04985682064701627,"404":-0.006310916736078458,"405":0.021408498861625224,"406":-0.03090807363869338,"407":0.03187802184797806,"408":0.01605614897113783,"409":0.01582542878927581,"410":-0.006623396284411669,"411":0.02707562498072818,"412":-0.019557056526321136,"413":0.01481462072659599,"414":-0.027950195671220146,"415":-0.029386561316436216,"416":0.0026756628065141316,"417":0.008406206447449212,"418":0.047576633363511374,"419":-0.010164324649504607,"420":-0.05335578060661144,"421":-0.027173230669719533,"422":0.04111656422774592,"423":0.046612344903360206,"424":-0.004780204403395436,"425":-0.017585211568228898,"426":-0.005007462683913062,"427":-0.02358679647454422,"428":-0.025812332890983645,"429":-0.04992489307467278,"430":-0.0036384797227603607,"431":0.018703844496348224,"432":-0.059370369292344856,"433":-0.010780080287085462,"434":-0.02418625273160291,"435":0.0014047542300125776,"436":0.025315722397947393,"437":0.03125421636564229,"438":-0.01953688057111747,"439":-0.02450275060716125,"440":0.03109359173570757,"441":-0.009764291312978035,"442":0.002743003585959048,"443":0.00613393911668886,"444":-0.021608874524676042,"445":-0.006705570891586451,"446":-0.013715100404569545,"447":-0.01960774465932497,"448":-0.010203716444228446,"449":-0.022712985695404024,"450":0.03091166617034188,"451":0.03417973654259784,"452":0.0021427193490562144,"453":0.008512652827692691,"454":0.032172535737811155,"455":-0.03602046767016768,"456":0.010826078509850567,"457":0.04235150437063821,"458":-0.01565923616829172,"459":-0.03646298470813981,"460":0.004962627998618219,"461":-0.03538012041422827,"462":0.03141090815451318,"463":0.023307582295274507,"464":-0.0332739269164295,"465":0.04657909547225308,"466":-0.003605761668011822,"467":-0.016401072727979322,"468":-0.0005434697487778282,"469":0.0012100940688466724,"470":0.00045823219242345856,"471":-0.013129235027606673,"472":0.034418582128782,"473":-0.015568550867387426,"474":0.007895593702213653,"475":-0.00545798022966873,"476":-0.05224495525223797,"477":0.013673024558593136,"478":0.01638060526006901,"479":0.021094936429688387,"480":-0.0003488297776082217,"481":0.02150995672584863,"482":0.002110139522343256,"483":0.023631844188914286,"484":0.008201632635348064,"485":-0.026643760455045244,"486":-0.019897176160988073,"487":-0.01905153190564106,"488":-0.02931307111353633,"489":0.03306459299117044,"490":0.0038260355971737434,"491":-0.014108032984526503,"492":-0.021121659619662076,"493":0.04702761897371597,"494":0.02382430948059842,"495":0.028357630890642815,"496":0.006570791970606757,"497":-0.02601711118992488,"498":0.004354191365207479,"499":-0.06776708024613323,"500":-0.00725546260378323,"501":0.0138183494960739,"502":0.05685246730697163,"503":0.026946983783595106,"504":0.006513047767781798,"505":-0.019318375737407502,"506":0.010442490097301502,"507":-0.036463126028742084,"508":0.04286441657929565,"509":-0.01880404331542681,"510":0.029225748544152528,"511":0.010849109993031075,"512":-0.007732302845982476,"513":0.0118861087885574,"514":-0.03191697679278588,"515":0.003794878174556699,"516":-0.04089146208124148,"517":0.04740679592709268,"518":0.009962175599888316,"519":-0.05222477295416371,"520":0.015361194747779071,"521":0.008248131452740101,"522":-0.017242902370792273,"523":-0.04577286419488398,"524":-0.020233575569728584,"525":-0.01957374974673391,"526":0.03614201642717319,"527":-0.01962094715267417,"528":-0.06104147256615687,"529":-0.002728135563519803,"530":0.0035727453824283906,"531":0.02042066515179945,"532":-0.010364051503188325,"533":0.005058029644310297,"534":0.01772817887224324,"535":0.009950322467946486,"536":-0.032983483383289255,"537":0.025159478425983955,"538":0.0129789338441849,"539":0.024644622656570383,"540":-0.010409424366910539,"541":0.025112963319080008,"542":0.03510833495289484,"543":-0.0330098057706818,"544":0.0008288624273211007,"545":0.0371665002419479,"546":-0.02239299862069506,"547":-0.009015899911133125,"548":0.0005887551796443375,"549":-0.007756640826885785,"550":-0.015018294292892663,"551":-0.012907132256569583,"552":-0.011052384597844246,"553":0.006625860120699871,"554":0.002148479874399465,"555":0.0020412635602662984,"556":0.028758633106281333,"557":-0.003485193913088821,"558":-0.020655387446398908,"559":-0.007106676341118073,"560":0.018497198801817136,"561":-0.006056934774626092,"562":-0.004031870957534473,"563":-0.02952335788920596,"564":-0.02536209763014617,"565":-0.01686018694378641,"566":0.013258864795325558,"567":0.009169496566670418,"568":0.032297813064111364,"569":0.00023277336056277576,"570":0.009148186693998597,"571":-0.02022651333230005,"572":-0.026050318836857274,"573":-0.04961603711706567,"574":-0.004127889590718928,"575":-0.008067676188517345,"576":0.0019509963545340447,"577":-0.0008040009107561444,"578":-0.02537551309618569,"579":0.0455605759868502,"580":-0.011623425793396362,"581":-0.017374486781644168,"582":-0.030512148231764312,"583":-0.006382759512780775,"584":0.006167139800311591,"585":-0.017438835090884196,"586":-0.013247079008975435,"587":0.0014496365667429744,"588":-0.006657379400804032,"589":-0.023017347677730036,"590":-0.029026202121393455,"591":0.0554552704693959,"592":0.02033961267729579,"593":0.0026858666317517103,"594":-0.03479863030118055,"595":-0.040950676343402985,"596":0.016224896642574666,"597":-0.0007654975371098546,"598":-0.02935386029781949,"599":0.028445687927279813,"600":0.03545476284363888,"601":-0.022240001472068026,"602":-0.0028409369523474054,"603":-0.01635395669947996,"604":-0.0009502174767143065,"605":0.052518156008850604,"606":-0.0026326003744512085,"607":-0.010207563535968163,"608":-0.016844245063930296,"609":0.03470144340376616,"610":-0.007267335834246118,"611":0.010425555837827546,"612":0.015176090576661999,"613":-0.009728534827697189,"614":-0.011122274922601287,"615":0.013585914368629198,"616":-0.004308875614539045,"617":-0.023318487192842272,"618":-0.034533583078665865,"619":-0.009789036342448798,"620":0.026955542140498587,"621":-0.009585079301996743,"622":-0.013320074174452684,"623":0.008664414205576045,"624":0.05795870059665688,"625":-0.02298232317061548,"626":-0.055585956657376874,"627":-0.0032076404322718003,"628":-0.0057003896039489865,"629":-0.04186185434412049,"630":0.019122092975077665,"631":-0.010822592620801283,"632":-0.02109743116656845,"633":-0.014392414520498407,"634":-0.0090161794020919,"635":-0.03051328256220179,"636":-0.024110723830556395,"637":0.012912996211481401,"638":0.008969432390492905,"639":0.020092526997169652,"640":-0.012205832022052568,"641":-0.012856930362279674,"642":0.00019350065353703212,"643":-0.03910796131296697,"644":0.02526944157390915,"645":-0.010363681871508235,"646":-0.0011069526284747469,"647":0.009143511503926435,"648":-0.00426020093822548,"649":-0.023233107573158007,"650":-0.015478429910781997,"651":0.06158726206902392,"652":-0.0015285138709705667,"653":-0.04937867432663596,"654":-0.024471685528741786,"655":-0.009600956408570081,"656":-0.017196348072672864,"657":-0.004983189856295724,"658":0.04865832905302416,"659":-0.03729942087046774,"660":0.016053038462650483,"661":-0.0073761524095571195,"662":-0.04046671343333658,"663":-0.02346632154060604,"664":-0.00452207942168376,"665":-0.03272471375539929,"666":0.025613514664174476,"667":-0.01684575834931811,"668":-0.01904509014126493,"669":0.015464981242612153,"670":-0.0009806609401328676,"671":0.00799769547610185,"672":-0.027143789307678336,"673":-0.005885849592180124,"674":0.016357934345320378,"675":-0.0013221768509888245,"676":0.06258585717552674,"677":0.011579738234609501,"678":0.00040550353848379595,"679":0.0101458899713231,"680":-0.025108837101263246,"681":0.02081312869934101,"682":0.0006099863643937086,"683":0.05752432802108677,"684":-0.01745759170694663,"685":-0.03826940931883627,"686":-0.025219712018572638,"687":0.04329173553469971,"688":0.011280414366597498,"689":-0.005080381780724916,"690":-0.0352452837766794,"691":-0.012233187354439533,"692":-0.007835818718860769,"693":0.017367140048622994,"694":-0.003642640083518983,"695":0.020689071329448576,"696":0.04161413895360682,"697":0.0012170940534115523,"698":-0.029724865479620593,"699":0.0008070177526046575,"700":-0.03526185443571224,"701":-0.029267508401537055,"702":-0.0034161278753040997,"703":-0.004023842852003272,"704":0.006080682156326501,"705":-0.0008261526645555156,"706":0.01653062482693815,"707":-0.0033642866054138785,"708":0.025604139550788083,"709":0.02420971331788079,"710":0.03803873163639714,"711":0.050203163155348514,"712":0.024610047510773597,"713":0.027471982949328077,"714":-0.0181771211679124,"715":0.0024804582793595616,"716":0.006460688508714175,"717":-0.02797633890543944,"718":-0.028403085823338833,"719":0.03304953605983375,"720":-0.03176978090867812,"721":0.0019090661611653988,"722":-0.02323691232251652,"723":-0.011329745377346337,"724":-0.02908203706391757,"725":-0.03192478888288397,"726":0.017367055446314,"727":-0.049501152446808014,"728":0.03677310977756419,"729":0.009228180999330662,"730":-0.01874202289242498,"731":0.0004379564270240441,"732":-0.0007124658383282156,"733":0.04370676822463479,"734":-0.03889406369253365,"735":0.020399199338745243,"736":-0.00419637193789263,"737":0.0007811815762026989,"738":-0.025606447347607076,"739":-0.006802814327755179,"740":-0.002013390740740603,"741":0.019597402087328523,"742":-0.041420609317494084,"743":-0.008229988792732278,"744":0.027392618611859754,"745":0.00045850130171515925,"746":-0.01923984755197151,"747":0.018687545464717095,"748":0.020166909660226585,"749":-0.0009933265837118264,"750":0.03170632815573438,"751":-0.006093003241064078,"752":0.042330641851422386,"753":-0.00377908824574154,"754":-0.01358448680105773,"755":-0.009968909769799505,"756":0.0011617558957807616,"757":-0.008370130681232352,"758":-0.0035471914382448583,"759":-0.00476607781769235,"760":0.02770096507053292,"761":-0.005060090291687846,"762":0.022784038072290493,"763":0.0019161981864684926,"764":-0.0018272955133854132,"765":-0.03599105970178725,"766":-0.018353286125348738,"767":0.021106255178065695,"768":0.0014880856837263812,"769":-0.005778780707926291,"770":0.054815232946946534,"771":-0.016307399695572246,"772":0.01793997488283255,"773":-0.012358795955834403,"774":0.011808960166414188,"775":-0.019812840676977313,"776":0.011685730298398917,"777":-0.005349955711268394,"778":0.027935111472915167,"779":-0.006359596160729259,"780":0.012692440823084648,"781":0.01607767106307827,"782":0.018469181317233088,"783":0.03755866740817918,"784":-0.046687163180199505,"785":-0.005977959530165849,"786":0.024933119116615436,"787":0.016412227494950183,"788":-0.03040658852506728,"789":-0.046799682316070935,"790":0.004539474259640932,"791":-0.019858220508052686,"792":-0.005255925994947039,"793":0.04356092449637202,"794":0.02745385155779304,"795":0.036378161880456485,"796":-0.009633382695663831,"797":-0.00011711930046171698,"798":0.020074932954070524,"799":-0.021398867083118157,"800":-0.029748010051213768,"801":0.002883478832091612,"802":-0.028987729708765075,"803":0.01474035879342663,"804":-0.0023489438988610507,"805":-0.00503094873910515,"806":-0.021483882954919452,"807":-0.011443502371200757,"808":-0.029052628575031637,"809":0.02548219055950657,"810":-0.01615030533943968,"811":0.002147703953380411,"812":0.019073750036123202,"813":-0.037743044495802916,"814":-0.016342539720169615,"815":0.027653976830051826,"816":0.010364044590429814,"817":0.0024034335889423345,"818":0.021830541220356416,"819":-0.027152467487866903,"820":-0.023802162379773235,"821":-0.027063392653487995,"822":0.011214838584897415,"823":-0.009214610284226422,"824":-0.013827226257091508,"825":0.029979197032462875,"826":-0.011956297786801563,"827":-0.004142415099085765,"828":0.05257804146110953,"829":0.015632175478487692,"830":-0.006917642123967027,"831":0.038829780916820475,"832":-0.02095381249168921,"833":-0.00248212767798635,"834":-0.028537409318671058,"835":-0.009815395104295535,"836":-0.010236351257997092,"837":-0.020120938707926358,"838":0.005819102288010638,"839":-0.03747054715298496,"840":-0.0013051728572510937,"841":-0.007315639218173692,"842":-0.0066081368403556945,"843":-0.047011779835225684,"844":0.025602281135786602,"845":0.005228391179466648,"846":0.024848595263420866,"847":-0.00390754057918969,"848":0.01368952147029221,"849":-0.015353517831728159,"850":-0.01626491284698626,"851":-0.009616530140209432,"852":-0.05965329552454841,"853":-0.02509980905287758,"854":0.042124866153381624,"855":0.010240549272765952,"856":0.0003917806046005562,"857":0.02051729269047131,"858":0.05160509028750288,"859":-0.009104068031315905,"860":-0.027659886743925655,"861":0.03742478985417491,"862":-0.023017388348340617,"863":-0.0032608723779370863,"864":-0.03989617261541466,"865":-0.015513156189800094,"866":-0.02382109975277524,"867":-0.01667356662649813,"868":0.012494899266487574,"869":-0.02215662197268504,"870":-0.028322716474557516,"871":-0.01422371119679372,"872":-0.008756453274540867,"873":-0.001954212709731185,"874":0.003489273555943199,"875":-0.014550271158168471,"876":-0.02334283344137683,"877":0.015505498698380558,"878":0.004695722294898757,"879":-0.04072091921341347,"880":-0.04916342106637981,"881":-0.008633483403091693,"882":0.02351454289923918,"883":-0.02097379404951777,"884":0.0461051447619878,"885":-0.0520057852213873,"886":0.003851858083642267,"887":0.006930404328520078,"888":0.01890944231121537,"889":-0.011139458727999645,"890":-0.03331940874922997,"891":0.014808386415411165,"892":-0.03271913343665751,"893":0.002201502365148109,"894":-0.008164954758074945,"895":0.0232373804991117,"896":0.0031071715377881024,"897":0.02785452270681021,"898":-0.017594744189689464,"899":-0.005155229826631955,"900":-0.007510578425611442,"901":-0.013606038371165816,"902":-0.02062807502973877,"903":0.024590200601946832,"904":-0.01985251994048788,"905":0.02452881153225739,"906":0.020465202892737865,"907":-0.0111764229462251,"908":0.032373142596460534,"909":-0.004133804911137596,"910":-0.004309652170169152,"911":-0.0015707857544270706,"912":0.004611220955783205,"913":-0.039129014368235515,"914":-0.009241816362738754,"915":0.004286665219646561,"916":-0.0043553765322278774,"917":0.020830028370925492,"918":0.005943061954588,"919":-0.00474426710921957,"920":-0.0211376538943854,"921":-0.023094749682273145,"922":-0.00011141399040800535,"923":0.023486584395256086,"924":0.034939323864485256,"925":-0.010643955586850665,"926":0.00041035200153362685,"927":-0.021827603963241182,"928":0.01632666886452077,"929":0.018390993938828343,"930":0.009669940735876122,"931":0.03929410212216239,"932":-0.00502973539171619,"933":-0.04332473891335074,"934":0.0076635178245924316,"935":-0.03136269198554142,"936":0.0008938250156840898,"937":-0.007955352162419103,"938":-0.01686174873751992,"939":-0.014947988837737116,"940":0.0025482635327190827,"941":-0.008574603082831861,"942":0.03959208194637693,"943":0.006589698508604735,"944":-0.024011549218943197,"945":-0.010717765289570594,"946":0.04266980142403106,"947":-0.0002636351900346101,"948":-0.009771878806384304,"949":-0.006834494696106543,"950":-0.0013690644600549396,"951":-0.013582088702401691,"952":-0.02667357288482514,"953":-0.012836861181418925,"954":-0.027294999055046558,"955":0.00681845605801398,"956":-0.010091271733841445,"957":-0.013291270783498628,"958":-0.0009681738350691881,"959":0.0019658540492869686,"960":-0.013714435276588173,"961":0.04557179205941228,"962":-0.001203600936218738,"963":-0.02705676994835599,"964":-0.010442098739195802,"965":-0.014919350342777242,"966":0.014261034634175062,"967":-0.011823517468620169,"968":-0.032725281529417755,"969":-0.029451492509081342,"970":-0.004679445212623189,"971":-0.027228595633348274,"972":-0.01068765760585903,"973":0.01836903726675206,"974":0.003874620470641286,"975":0.06360795199236327,"976":-0.021383145926365914,"977":0.005337703206351199,"978":0.004351352386294568,"979":-0.03531005326143762,"980":-0.005319937556206418,"981":0.02899220530976917,"982":-0.01438342342465837,"983":-0.015925076160718615,"984":-0.02096828791176009,"985":0.017212808449593397,"986":0.024766815901966523,"987":0.058134346288757,"988":0.001563579207093629,"989":-0.0011703699508967239,"990":-0.003604740069957028,"991":-0.021096648898440373,"992":0.07033271722134882,"993":0.029842761535090644,"994":-0.014466669902242069,"995":-0.006174618638574625,"996":0.011284785646565414,"997":0.010147023859837605,"998":-0.02699010199926965,"999":0.01683376791816787,"1000":-0.01943588745473935,"1001":-0.0036816899851253373,"1002":-0.019522489187925575,"1003":0.0023254297463492597,"1004":0.024306787518316886,"1005":0.012795102355373835,"1006":0.019726425430142837,"1007":-0.0339318179107361,"1008":-0.015622978784206551,"1009":0.007104483263884834,"1010":0.005381102752539021,"1011":0.019870655255786504,"1012":-0.023355382366917057,"1013":0.02855722593064534,"1014":0.03070731050164784,"1015":0.0016668631020975004,"1016":0.02424899570657223,"1017":0.001982832577854634,"1018":-0.030016248142510644,"1019":0.00043242460825714766,"1020":-0.006535149925299237,"1021":0.0038677462569412916,"1022":0.009635254329602948,"1023":-0.035427574871934306,"1024":-0.02385932831776909,"1025":0.007730488166864571,"1026":-0.030266717487583337,"1027":-0.008251296353096838,"1028":0.00370996201031583,"1029":-0.046932724646348366,"1030":-0.007979083610168611,"1031":-0.024081043467683517,"1032":0.010158031294498946,"1033":0.031744095231240735,"1034":0.011651494260248895,"1035":-0.024710513084261834,"1036":0.020747156421985033,"1037":-0.024669148935019883,"1038":-0.004334023799304357,"1039":0.0008964490558200326,"1040":0.014027083397177325,"1041":-0.023352311704876113,"1042":0.01601221098281352,"1043":0.01423813153240372,"1044":0.013645261371584588,"1045":-0.030624134132678362,"1046":-0.014430432618394974,"1047":-0.037974396238099735,"1048":0.0032777340697945174,"1049":0.04170474359515965,"1050":-0.001233463168334408,"1051":-0.0044416466136988604,"1052":0.041650038311167856,"1053":0.03556050216289758,"1054":0.012924906157504072,"1055":0.0027719623161935798,"1056":-0.05205916558555016,"1057":0.02324702893443713,"1058":-0.01956714762943267,"1059":-0.023222222703240356,"1060":0.04334369012356154,"1061":-0.011600774629029934,"1062":-0.017801437617858032,"1063":0.006519335803856405,"1064":-0.03702407382220293,"1065":-0.02832381126606139,"1066":-0.004477988036938996,"1067":-0.02095281613228221,"1068":-0.0009256052874518606,"1069":0.010126458088578448,"1070":-0.03084287445146738,"1071":0.00018914962647073128,"1072":0.009109895487522258,"1073":-0.011028248445531949,"1074":-0.016855701978943018,"1075":-0.02824012780601864,"1076":-0.03043534628064426,"1077":-0.010186585783957366,"1078":0.011191103426363806,"1079":0.0033605377824595423,"1080":-0.0318196046182057,"1081":-0.0058855634521654075,"1082":0.02775205952330071,"1083":0.019307892863908768,"1084":0.001433779104933341,"1085":0.009634213219402261,"1086":0.06789884402416567,"1087":0.00515764630034979,"1088":-0.026001761428180555,"1089":-0.03845668660149413,"1090":-0.03752098947861714,"1091":-0.007197411239202055,"1092":0.05731667096281072,"1093":0.0075417577843046885,"1094":-0.023685441256038494,"1095":-0.021632478273160626,"1096":0.021895854242231966,"1097":0.01680411611097162,"1098":0.016545253279139603,"1099":-0.025549984897585813,"1100":0.011128193828280546,"1101":-0.04582081425352876,"1102":0.010557691811968362,"1103":0.009742005606421938,"1104":-0.012447745638889587,"1105":0.018083374674575,"1106":-0.007664537678549125,"1107":0.029909588560847973,"1108":0.014318628308421021,"1109":-0.04742493640634516,"1110":0.005884054197738839,"1111":-0.009299541590681689,"1112":0.0030806862461395784,"1113":0.026788388107415698,"1114":0.017657729193750343,"1115":0.00018669000548526487,"1116":-0.003083087442880466,"1117":-0.020301222342159975,"1118":-0.017508859099574295,"1119":0.00488628820555602,"1120":-0.025212089662958143,"1121":-0.01081497642061561,"1122":-0.02632039762019143,"1123":0.004851052436619734,"1124":-0.000531099316116816,"1125":0.016392402606396506,"1126":0.03619293310739559,"1127":-0.0008190022686194661,"1128":-0.0035784930818271565,"1129":-0.01318226367423991,"1130":-0.001981148727350252,"1131":0.020406250249014653,"1132":0.014635154854583462,"1133":0.01155645574292104,"1134":0.03903506604174917,"1135":-0.007143822456737937,"1136":0.002432659338666632,"1137":-0.0013398286198828715,"1138":-0.014839225488654276,"1139":0.008188108968713692,"1140":-0.009010001045690228,"1141":-0.05249680106250261,"1142":-0.009337138545246468,"1143":-0.02881580932293899,"1144":-0.00837126111647877,"1145":0.021116468410219223,"1146":-0.009459309214012028,"1147":0.008643649331417098,"1148":0.019250687663553638,"1149":0.004763323603001071,"1150":0.012912634730811952,"1151":-0.004124551027671583,"1152":-0.010185308954807574,"1153":0.01586330529468406,"1154":0.024612180848982427,"1155":0.0044562495192351104,"1156":0.02246264667632354,"1157":-0.003598911927023261,"1158":0.004819690399479676,"1159":0.040867861446472475,"1160":-0.01828060198042367,"1161":-0.017322801999351368,"1162":0.01101666205843707,"1163":-0.004305286793400106,"1164":0.0206327557380063,"1165":0.010534492791757064,"1166":0.01865773066906612,"1167":-0.013908979159270448,"1168":0.0023916070006540805,"1169":0.006504776997773672,"1170":-0.06404188370971076,"1171":0.0008424185982949344,"1172":0.0030760461233494715,"1173":-0.04457929271914084,"1174":-0.04074241163195298,"1175":-0.03474002344845976,"1176":0.011268158217659046,"1177":-0.019078083835545122,"1178":0.02706633523069096,"1179":0.013088586735577494,"1180":-0.03426394831865809,"1181":0.0448661977132424,"1182":-0.015314980164315546,"1183":0.03808564719842359,"1184":0.004073004293865523,"1185":-0.00969702258479153,"1186":0.00982893890865116,"1187":0.013107510355112968,"1188":0.007513881799536157,"1189":-0.024576599739047786,"1190":0.023974027753281762,"1191":-0.037012245112372576,"1192":0.011416816331153474,"1193":-0.009801910813301852,"1194":-0.01377164929975373,"1195":-0.00018091130362945048,"1196":0.009158428425121424,"1197":0.0003831573979792093,"1198":-0.019204752342679966,"1199":-0.014356468894000126,"1200":0.005747798462757404,"1201":-0.024045034481349876,"1202":-0.036246316425427694,"1203":-0.04222035543823245,"1204":-0.012187216679978874,"1205":-0.04738940728368997,"1206":-0.0017285596837572216,"1207":0.010774182540459868,"1208":0.009999408458472074,"1209":-0.014614487736974326,"1210":-0.01111502556517609,"1211":-0.003927235284982212,"1212":-0.0032396289386367755,"1213":-0.02379748393372499,"1214":0.0032957505739100146,"1215":-0.04077099481556133,"1216":0.0022843746410541868,"1217":-0.024733893494741192,"1218":0.01667600073345261,"1219":0.020574211184342075,"1220":-0.0030266839444207704,"1221":0.006574775736088645,"1222":-0.0029448882258124543,"1223":-0.007938648372381413,"1224":-0.010031261968972319,"1225":-0.013539793485583002,"1226":-0.015282417434858387,"1227":-0.018869765294166698,"1228":-0.0111765838930547,"1229":-0.014272220798560937,"1230":0.010027509920397958,"1231":-0.020704287887635724,"1232":-0.014732369625339543,"1233":-0.012098529898614312,"1234":0.02709608920896488,"1235":0.018896963348925374,"1236":-0.0011938260249064602,"1237":0.03596545415302573,"1238":-0.030817127962665225,"1239":-0.015969730744731233,"1240":0.007358316185423639,"1241":0.04170112714609373,"1242":0.002260721048207032,"1243":-0.03552338340544538,"1244":0.018239076927394033,"1245":-0.02522228545586751,"1246":0.027380302768733,"1247":0.03671912442928697,"1248":0.01209807574405838,"1249":0.00791774491219907,"1250":-0.027672465884571285,"1251":0.005790714589090911,"1252":-0.023892021314142198,"1253":0.010556981953932648,"1254":-0.024569898669565115,"1255":0.010154128977578628,"1256":0.025150437026128493,"1257":-0.02357058544665683,"1258":0.04427226672278135,"1259":-0.009628220089705151,"1260":0.0291625740936217,"1261":-0.006707935327938456,"1262":0.020177267446023914,"1263":-0.05080436597651314,"1264":-0.009953336679541276,"1265":-0.0020919421346451473,"1266":-0.00664794204076946,"1267":0.008444532560488577,"1268":-0.03910907908853837,"1269":0.009413551451839327,"1270":0.014215855606458036,"1271":0.011965894543399483,"1272":-0.021778905763243664,"1273":0.009245987981191929,"1274":0.005264132354397435,"1275":0.01993550210541188,"1276":-0.010308146604247188,"1277":0.0435346729382263,"1278":-0.03159211633773091,"1279":0.011132724798474646,"1280":-0.027173507071939464,"1281":-0.05312616978878249,"1282":0.000511915663520353,"1283":0.01175964260338948,"1284":0.056177104965898075,"1285":0.0071058262752252965,"1286":0.011468712221295575,"1287":-0.02201809346885968,"1288":0.028214651458313585,"1289":-0.03749707519251722,"1290":-0.03881285249588944,"1291":-0.008553164312648397,"1292":-0.035460520253532565,"1293":0.016487129364097724,"1294":0.002278671157143893,"1295":-0.03716313186573224,"1296":0.027302758771666453,"1297":0.06271591884688511,"1298":-0.016433579767184077,"1299":-0.004947707032811641,"1300":-0.01681944450672467,"1301":0.037503217018111795,"1302":-0.012293287581449753,"1303":0.0008958807641960008,"1304":0.009246648332324373,"1305":0.008780963562713216,"1306":0.008215125383975501,"1307":-0.01935503609565913,"1308":-0.020335283681709046,"1309":0.021980828816742976,"1310":0.022567537338844087,"1311":-0.01929826580669647,"1312":-0.04215239389355346,"1313":-0.01685356359041501,"1314":-0.006277102488898811,"1315":0.010171792775002134,"1316":0.015002054317477868,"1317":0.017696479079842453,"1318":-0.02422146249398792,"1319":0.0019906988997585133,"1320":-0.02276769408091642,"1321":-0.030533041255876147,"1322":-0.02370699581541221,"1323":-0.006840906000014564,"1324":0.01726677365907715,"1325":0.015399924772000848,"1326":-0.06487215173167982,"1327":-0.008197676031254139,"1328":-0.013837770629215165,"1329":-0.0225370529848595,"1330":-0.024314589993404686,"1331":-0.03304093773313846,"1332":-0.016418646908020505,"1333":-0.03835885092825408,"1334":0.010711315920423209,"1335":-0.015854885479184132,"1336":0.0077350217349969105,"1337":-0.013435408553109759,"1338":0.05466281273098323,"1339":-0.008010081436517456,"1340":0.007655086287840723,"1341":0.001544627677824428,"1342":0.014569926242342233,"1343":-0.007487109887372355,"1344":0.02341194521948817,"1345":-0.0390682751222816,"1346":0.004067105301056144,"1347":-0.01939810452706391,"1348":0.027161903702440253,"1349":-0.038542486325574006,"1350":0.023444355954024085,"1351":0.03028957212272464,"1352":0.0034122551034040756,"1353":0.010817476924727714,"1354":0.012082704373953325,"1355":0.005670413876176165,"1356":0.008415089383335057,"1357":0.05646640687096268,"1358":0.015316651892186907,"1359":0.026748490144171525,"1360":0.013999556575453837,"1361":0.033800122268072774,"1362":0.016387090709368352,"1363":0.046084569594532596,"1364":-0.02297783297170419,"1365":0.004598469379273893,"1366":0.006632452589223021,"1367":-0.004695203277033521,"1368":-0.0034598308983024638,"1369":-0.01602544924373867,"1370":0.03569312070437335,"1371":0.01734919294302296,"1372":0.0031763224146794194,"1373":-0.02010916972014343,"1374":-0.029219099971359692,"1375":-0.03697686847323882,"1376":-0.035073366581396155,"1377":0.00959074740458694,"1378":-0.035414286684271365,"1379":-0.02517298965915075,"1380":-0.014092664030681872,"1381":0.018805249036322608,"1382":0.017434424585966748,"1383":0.026596200146940856,"1384":0.04185610819495769,"1385":0.0014789407733571615,"1386":-0.014097248846449069,"1387":-0.017882716032904616,"1388":0.03642079181946613,"1389":0.01186550485657594,"1390":-0.009784290365992867,"1391":0.006071889740536215,"1392":0.01762430384491317,"1393":0.004892608905134777,"1394":-0.01217821489051415,"1395":-0.02788360284721776,"1396":-0.028014018547348148,"1397":0.010449582690554028,"1398":-0.0026829385145694996,"1399":-0.02224351124811389,"1400":0.01859784448597292,"1401":-0.011348820182205864,"1402":-0.006524488805373164,"1403":0.011095343531377633,"1404":0.019551850215097623,"1405":-0.054394642808231856,"1406":-0.021103281644661128,"1407":0.021267988803782334,"1408":0.006985837896137123,"1409":0.009909817903583574,"1410":-0.0392391713371895,"1411":0.005210868829497906,"1412":0.01565047342362003,"1413":-0.046961033707572125,"1414":0.006081961786371644,"1415":0.01486070398768104,"1416":-0.03640998063469985,"1417":-0.05015859041694246,"1418":0.023820347569517182,"1419":0.02603166467310673,"1420":-0.0036272863964364006,"1421":-0.009049388577788945,"1422":0.0007381648655712861,"1423":0.03313857250558739,"1424":-0.016467252993717665,"1425":-0.00444099264716257,"1426":0.022406736851013433,"1427":0.004347388223616118,"1428":-0.003993330359385773,"1429":-0.05105941698431442,"1430":-0.0009943944466052996,"1431":-0.026353802722879016,"1432":0.01056625569225372,"1433":0.050593757530914024,"1434":0.0006881765644301385,"1435":-0.010502671264675231,"1436":0.006230649898688321,"1437":-0.0003266742464996168,"1438":-0.03850047940580759,"1439":-0.000020873418300452373,"1440":0.013982767877470633,"1441":-0.04496586987686763,"1442":-0.0036486244398966214,"1443":-0.001565941679574117,"1444":0.01849759914823207,"1445":-0.028471775828065062,"1446":-0.008518933994186814,"1447":-0.027688675905109077,"1448":0.0073959462186978355,"1449":-0.03211987207541484,"1450":0.0075933776950361295,"1451":-0.02718249346951111,"1452":-0.032183178170247725,"1453":0.029851588561194787,"1454":-0.07660915794569362,"1455":-0.01097696318503779,"1456":-0.0013482554937419113,"1457":0.048591464040921815,"1458":0.008485058647091807,"1459":-0.002592630651867601,"1460":-0.0026019517168866567,"1461":0.018444054552600647,"1462":0.02318347716041506,"1463":0.024316671541503458,"1464":-0.04832297538716809,"1465":-0.013298110485494065,"1466":0.038230504371522235,"1467":-0.004166490790769085,"1468":-0.008962593818828428,"1469":0.035270362806893184,"1470":0.010197954604405608,"1471":-0.016180274305026006,"1472":0.020634138087589772,"1473":0.010086837801844462,"1474":-0.037990172062104595,"1475":0.002119159760193171,"1476":0.017800850292624258,"1477":-0.013435619745193118,"1478":-0.004659406417198108,"1479":-0.01626240845152092,"1480":-0.06358158761718198,"1481":0.03261102000368383,"1482":0.013706126179094886,"1483":-0.027385933943294114,"1484":-0.02442677288153187,"1485":0.0037982190048597916,"1486":-0.008861829969291727,"1487":-0.01996471639749534,"1488":-0.036079797456232784,"1489":0.027741944567543416,"1490":-0.038980059901179934,"1491":0.008666301430223435,"1492":-0.004810377875151405,"1493":0.027514958843954693,"1494":0.0390493909249283,"1495":-0.007027676312852495,"1496":0.005547386294644493,"1497":0.03132324362112348,"1498":-0.029458738603675656,"1499":0.015852921236292932,"1500":0.03123730335687174,"1501":0.014336872599349142,"1502":0.0029774677013439054,"1503":0.00962774476936038,"1504":0.018287952791881966,"1505":0.0023950977597404816,"1506":0.06395743160625345,"1507":-0.021809864267232176,"1508":-0.00929322213976174,"1509":-0.019555291626188787,"1510":0.03616631168206681,"1511":0.0032512121598484494,"1512":0.008853298557128363,"1513":-0.015609352118912564,"1514":0.005403604255284588,"1515":-0.0012620358416120367,"1516":-0.01643729572162794,"1517":-0.004885494090344933,"1518":0.007924041586334854,"1519":-0.0037725214032737603,"1520":0.01943595825661947,"1521":-0.03506204516661899,"1522":-0.009193962864800773,"1523":0.015457849550377751,"1524":-0.0179462159330945,"1525":-0.05043074993158095,"1526":-0.01491359245459884,"1527":-0.02135723276080632,"1528":-0.01235957114741499,"1529":0.017145539358146986,"1530":-0.05655366035994838,"1531":-0.04082508448620518,"1532":-0.02528667005234624,"1533":0.015051701746941669,"1534":-0.016351531614921897,"1535":-0.01440241845323466,"1536":0.016744652111543315,"1537":-0.026486660638258885,"1538":0.06232307278204261,"1539":-0.004964534306353271,"1540":-0.0620427939364615,"1541":0.02097789669065722,"1542":0.029956312278544978,"1543":0.007782551073081591,"1544":0.0012785398151276255,"1545":0.007617684205058284,"1546":-0.0185668812028479,"1547":-0.006952044985897412,"1548":-0.01571099709996782,"1549":-0.027280802865413623,"1550":-0.02040913470266675,"1551":0.02628479253676829,"1552":0.038767610973492815,"1553":-0.0011346074229209545,"1554":-0.034011303614088204,"1555":0.009059214176053154,"1556":0.0485310585437875,"1557":-0.04096083021765261,"1558":0.004883770750168733,"1559":0.004701881725634972,"1560":-0.010905974170224961,"1561":0.0021446976297471304,"1562":-0.014604153023186633,"1563":0.04158252459329788,"1564":0.0012737246224373297,"1565":0.0016182831279318416,"1566":-0.030277401051583778,"1567":0.03329801577863473,"1568":-0.0035480363358808406,"1569":0.022160672795646336,"1570":0.0026222536222985063,"1571":0.05050794674363299,"1572":0.02924416577218783,"1573":0.0016437088573472728,"1574":-0.004022019995391584,"1575":-0.020836826451533307,"1576":0.02941174930075796,"1577":0.012692654321633518,"1578":0.03376157469434672,"1579":-0.04350993245396588,"1580":-0.019011939918096903,"1581":-0.026373641643864236,"1582":-0.007589600009643117,"1583":0.01225284513863647,"1584":-0.011815204610561833,"1585":-0.04744839396428341,"1586":0.036617095466351945,"1587":0.0094179156934992,"1588":-0.02586217851517206,"1589":0.006375926162112376,"1590":0.011612950654672898,"1591":0.0045403254399737705,"1592":0.030552486718507077,"1593":-0.019053414068385642,"1594":0.001544616719361362,"1595":-0.007016436179948757,"1596":-0.005122824862076683,"1597":-0.048345443811445205,"1598":-0.03036187711709784,"1599":-0.0050485513469620035,"1600":-0.03143130323127319,"1601":0.002068661900005033,"1602":-0.0012367503381998657,"1603":-0.004111210272555468,"1604":-0.018461361728655035,"1605":-0.004868572633829777,"1606":-0.00019786350012107793,"1607":-0.0013475544786060096,"1608":0.014188349219362139,"1609":0.026975379077446036,"1610":-0.03235615249605643,"1611":-0.06330063312266178,"1612":-0.01306339868525112,"1613":-0.016637024750542434,"1614":-0.02149121046705889,"1615":-0.018120667880680827,"1616":-0.045628776763711854,"1617":-0.011758564301060911,"1618":-0.04475705272363144,"1619":0.045640532016973094,"1620":0.0076960577007886485,"1621":-0.016862244451812555,"1622":0.024292338789631777,"1623":0.022595483952040474,"1624":-0.017985565726400622,"1625":-0.006804375813902896,"1626":-0.017595854371318307,"1627":-0.00021228280648791475,"1628":0.013477398054248827,"1629":-0.026324803540836893,"1630":-0.019410804426777603,"1631":-0.0017544615131553712,"1632":-0.01608051799190844,"1633":0.0040116589355942275,"1634":-0.026210472501766908,"1635":0.003999281393518562,"1636":-0.009496671765102339,"1637":0.00180562138519427,"1638":0.04139910845304079,"1639":-0.010431448429302409,"1640":-0.0074897376343815,"1641":-0.007523844858124309,"1642":0.002939974296724248,"1643":-0.005803768577631531,"1644":-0.015260155125347188,"1645":0.017762043556705836,"1646":0.0013275417973932948,"1647":-0.01075652651562779,"1648":-0.003148522906420313,"1649":0.0001848160352979491,"1650":0.0374110069458583,"1651":0.02952382697681264,"1652":0.02263151370563987,"1653":-0.02692612942982245,"1654":0.004904789938843811,"1655":0.01644460619733072,"1656":-0.009608590704888974,"1657":0.04261390846575196,"1658":-0.04804638274364986,"1659":0.018294353641959464,"1660":-0.015428476935956274,"1661":-0.018794878234383035,"1662":-0.026474499318362196,"1663":0.0077221913365179825,"1664":-0.03540380927537095,"1665":0.0017155914687950306,"1666":0.0001732205935252153,"1667":-0.030367303120660306,"1668":-0.014975081214824168,"1669":-0.04765976001692713,"1670":-0.019123922518311832,"1671":0.008751783842519774,"1672":-0.0028014218491586424,"1673":-0.009481299516894403,"1674":-0.0028087138023411306,"1675":-0.02481926336665624,"1676":0.006225910074503329,"1677":0.004410091499200576,"1678":-0.016844574543848242,"1679":-0.027694559382801014,"1680":-0.027529072899279427,"1681":-0.009037056035046252,"1682":-0.02032129683689178,"1683":0.016173574502381348,"1684":-0.00446960200081002,"1685":0.011335337783395115,"1686":0.011786925719057933,"1687":-0.025121589706707047,"1688":0.01685302025801376,"1689":-0.014662733069511213,"1690":-0.041526527537575006,"1691":0.018409772775043777,"1692":0.017899059075447303,"1693":-0.027662078280227244,"1694":-0.036945166611109796,"1695":-0.01953643568903938,"1696":0.015042733397520667,"1697":-0.02557386445806573,"1698":0.040201470089367294,"1699":0.013110402344854236,"1700":-0.0094168587117884,"1701":0.009692084312181815,"1702":-0.028871823627703925,"1703":-0.00983895211430766,"1704":0.010041260627771602,"1705":0.006539188528606853,"1706":0.00633573623203717,"1707":0.02984921443831722,"1708":0.020293131393672854,"1709":0.009176840506006905,"1710":-0.030524596425709705,"1711":-0.019130309335963196,"1712":-0.0027032164877034107,"1713":-0.011686447268663379,"1714":-0.0072132571074684446,"1715":0.034055139375367326,"1716":-0.00008385491947787891,"1717":-0.006716548877862664,"1718":0.02549628294068633,"1719":-0.013887447846303996,"1720":0.016820414976525574,"1721":-0.00021257050922277078,"1722":-0.020417622369200954,"1723":0.011032726265019934,"1724":-0.0036971464587810202,"1725":-0.026299371976997988,"1726":-0.004381526179234135,"1727":0.013420689182522146,"1728":0.0003769752479396793,"1729":0.0022245039953025783,"1730":0.021426374335514167,"1731":0.02920876561218528,"1732":0.02182386545828953,"1733":-0.03680709117711497,"1734":-0.05658385701269136,"1735":-0.007931127850675873,"1736":-0.025609192129000903,"1737":-0.030407895432185573,"1738":0.0013845631032002354,"1739":0.008441883075445711,"1740":-0.005001580597155743,"1741":-0.037211784750726014,"1742":0.019066137622056056,"1743":0.007909430244754562,"1744":0.0019766064958092622,"1745":0.0054473477781419675,"1746":0.015281317631047833,"1747":-0.08900524786564747,"1748":0.012898762933433845,"1749":0.013162432893587673,"1750":-0.025327606328619776,"1751":-0.00808347181864198,"1752":-0.003182158511063463,"1753":-0.023469664625874007,"1754":0.018288347980361563,"1755":0.0303087467028553,"1756":-0.00003104928886035287,"1757":-0.000219353936661051,"1758":0.020124167295881734,"1759":0.03609527828657572,"1760":0.013347001478351248,"1761":-0.0081021713156973,"1762":-0.010760288948593348,"1763":0.0009246068501681257,"1764":-0.013872294563689512,"1765":0.015035050159354036,"1766":-0.04053800931832467,"1767":-0.020048411687635197,"1768":0.008607219350134948,"1769":-0.029508112539781306,"1770":-0.03398216699048158,"1771":-0.019230887664261394,"1772":0.021863494851283572,"1773":0.034234060676284296,"1774":-0.012356102947892545,"1775":0.00043097521257645476,"1776":0.007743286754546954,"1777":-0.015821369535786098,"1778":-0.02718851115099962,"1779":-0.013422942008051355,"1780":-0.015011083200335867,"1781":0.04455854154424427,"1782":-0.014371175719063134,"1783":-0.02222607330577196,"1784":-0.013203984393317743,"1785":-0.040010587803537646,"1786":0.009300327092263447,"1787":-0.023362879327607805,"1788":-0.012772613779620776,"1789":-0.011711944372725172,"1790":-0.0014801654985164177,"1791":-0.03347805360104767}},{"sx":1,"sy":1,"depth":1792,"w":{"0":-0.00896553351949125,"1":0.008028678364240016,"2":0.007209870476723942,"3":0.011894656682309162,"4":-0.02686340195522581,"5":0.006994016083889586,"6":0.01642326229225385,"7":-0.035316582332291034,"8":0.012421199082641375,"9":0.01896214069968993,"10":-0.05186456311735816,"11":0.011001585595222624,"12":0.034818177038901305,"13":0.016489349534470146,"14":0.037707965666872845,"15":0.0036656981745610564,"16":0.014169465831684394,"17":0.012300224363706026,"18":-0.015440132278323564,"19":-0.012972246666308364,"20":0.018569770007062125,"21":0.057802232527503876,"22":0.03975289403655825,"23":-0.0023386336982229522,"24":-0.004350404154316832,"25":0.07747809159187388,"26":0.012108835449080915,"27":-0.023675812954666108,"28":-0.01661699125352718,"29":-0.035946807668756506,"30":-0.010013182598083573,"31":-0.006862033818069401,"32":0.025542403767660475,"33":0.021232670648833905,"34":0.007500550874084029,"35":0.0051609839010723834,"36":0.010193811376274533,"37":-0.009688609318309966,"38":-0.006246184623084724,"39":-0.014609380224523183,"40":-0.02631474156300058,"41":0.021090931877566936,"42":0.022951940948976006,"43":0.014155325044549959,"44":-0.02227322250410247,"45":-0.046757189059548364,"46":0.019865073741157497,"47":0.02964676594860569,"48":0.003278037423693986,"49":0.004055494053689149,"50":-0.009380817329021232,"51":0.01200465113547363,"52":-0.013363707846440243,"53":0.03451908109045512,"54":0.014016600835230111,"55":-0.026348188748548326,"56":-0.03022416725094642,"57":-0.003456264245355171,"58":-0.016513515927440048,"59":0.01337011836476719,"60":0.015458147790661745,"61":0.02204633429563066,"62":0.028789982319879344,"63":0.02321782828973956,"64":-0.015412116079997387,"65":0.019185250560964137,"66":-0.05963865888427347,"67":0.020525872073977124,"68":0.0047069347197060424,"69":0.015822306241003392,"70":0.051649715268208794,"71":0.0037346486866790133,"72":0.0029697464216149327,"73":-0.002453720937337935,"74":-0.026398273638191427,"75":-0.0018263750911415345,"76":0.02305038488538249,"77":0.019516886624464783,"78":-0.04444659563512515,"79":0.030258332856188674,"80":0.02114289168329413,"81":0.03735666268667203,"82":0.019940772639118427,"83":0.05637809540429205,"84":-0.036839804337950845,"85":0.00478624984601115,"86":0.03937718643561205,"87":-0.043205856211635224,"88":0.020973549623047667,"89":-0.004810458500882471,"90":0.03194568042617842,"91":0.07917977690196602,"92":0.02900976812659977,"93":-0.012784391117623025,"94":0.004281598975013667,"95":-0.007201572295004317,"96":-0.013408766813273052,"97":-0.023061726758872112,"98":0.033502908575265805,"99":0.00755487082648625,"100":0.024201243522679793,"101":-0.011753005030436761,"102":0.02355939097849012,"103":0.008858933765938392,"104":-0.006671276660267278,"105":0.0009414932980449993,"106":-0.014287776918659695,"107":0.0006008020570175426,"108":0.03713487175154473,"109":-0.03161584752947951,"110":0.005160393421269541,"111":0.03108850184238975,"112":-0.022384215936598856,"113":-0.03049549212577271,"114":0.043829653841212714,"115":0.020636860845194605,"116":-0.005475157933039015,"117":-0.04555728963279404,"118":0.0066027473332967036,"119":-0.031757697358347534,"120":0.027633543157165014,"121":-0.009293351831025157,"122":-0.011523504641911398,"123":0.008162809117515157,"124":-0.06940023281653536,"125":-0.004898246270540603,"126":-0.023677202623785754,"127":0.04623281752680015,"128":-0.046885392037098204,"129":-0.0014996346822052874,"130":-0.01696569879015861,"131":-0.006362960716926509,"132":-0.10535192782738793,"133":-0.026439850624692677,"134":-0.024678241338859888,"135":0.055926578005281266,"136":-0.0038173105537941485,"137":0.04765197540728763,"138":0.0001524368291383022,"139":0.0108024756989153,"140":0.013600336391245903,"141":-0.04295239667526152,"142":0.00415444234246446,"143":-0.0349579580016204,"144":0.0018858290748877034,"145":0.0165098130611206,"146":0.01866813864501071,"147":0.054581209830910825,"148":-0.01775123431504838,"149":-0.030812848203428306,"150":0.029543253158369424,"151":0.02148712803569078,"152":0.009924160402455844,"153":0.02791349381755616,"154":-0.034662518563945525,"155":0.01562673429600317,"156":0.002003920225250063,"157":-0.06188147651886277,"158":-0.02739414423985321,"159":-0.0356062882185699,"160":-0.011388662234195542,"161":0.021187242664906618,"162":0.028627377785450128,"163":-0.017347470011944584,"164":-0.03985249389290088,"165":-0.02478208038776214,"166":-0.01818404888725271,"167":0.033304929959288465,"168":0.008659312776272918,"169":0.010253638504225112,"170":0.031164112838564,"171":-0.010680521188814648,"172":0.021859660752076838,"173":-0.0068378646342701415,"174":0.006271556150159026,"175":-0.03293615743353457,"176":-0.0009926503147718773,"177":0.03599340844121499,"178":-0.009505878440755637,"179":0.015134943482065353,"180":0.004706657921624913,"181":0.024459388454962903,"182":-0.04787942379128318,"183":0.019909367069865763,"184":-0.007745568445519415,"185":-0.036260448725985876,"186":-0.0313599019424273,"187":-0.014112971452863755,"188":-0.052220401073338016,"189":0.023760510178350215,"190":-0.013776556592490736,"191":-0.03309334028301112,"192":-0.020637658121811977,"193":0.01959309492668321,"194":-0.03613060387525863,"195":0.04466511811190213,"196":-0.03525561564264126,"197":0.02606158726949368,"198":-0.03863381038104336,"199":0.007369476992979011,"200":0.028646178546906775,"201":-0.013500607740373875,"202":-0.013859889934653693,"203":0.0021972885950242976,"204":-0.0027963852662928556,"205":-0.020638600060248858,"206":0.004939094590671229,"207":-0.0016798133700344664,"208":-0.026326481831860434,"209":0.008506191265206317,"210":-0.017078230212466797,"211":-0.035613305747844826,"212":-0.03879181329850252,"213":0.007846699852351906,"214":-0.024412042730316857,"215":-0.01850097318112529,"216":0.012611766335456081,"217":0.06620271515888582,"218":0.023535632038883907,"219":-0.030063760000192327,"220":-0.0016959021505493837,"221":-0.02383222598198869,"222":-0.03058788110740718,"223":0.029127692720698716,"224":0.020366130265318222,"225":0.00834668849567167,"226":0.010213988928726853,"227":-0.026511077936999684,"228":-0.01037075906388441,"229":-0.0013217326777610198,"230":-0.0038327598625324654,"231":-0.018678592370866613,"232":0.0005787512279203742,"233":-0.03223357955907558,"234":-0.018679575001149935,"235":-0.002877280786564658,"236":-0.024005330278985597,"237":-0.006956978652802917,"238":0.020094322767775244,"239":0.04374300966161883,"240":-0.0119548753540928,"241":-0.016926067854796143,"242":0.03323113108747327,"243":-0.016592840487337487,"244":0.01977964975014544,"245":-0.018257817923053487,"246":-0.0423555410775406,"247":-0.008940217039135032,"248":0.01569016198259333,"249":0.006892448988483001,"250":0.008503191536177896,"251":-0.010602784361290533,"252":-0.01740935189097038,"253":0.0016084963885173162,"254":0.009573990459778182,"255":-0.010143051642530715,"256":-0.053677676574075676,"257":-0.0025975552254244427,"258":0.011846026378233072,"259":0.012163178545782095,"260":-0.000710714703562191,"261":-0.010815430336734036,"262":0.02363028976119188,"263":-0.004666327359951738,"264":-0.0022344952145732745,"265":-0.014247366303799245,"266":-0.033188169654887335,"267":-0.008286561997821849,"268":-0.017028377894448696,"269":0.0015897576358645737,"270":0.028337412199399694,"271":0.0075416517551571164,"272":0.019998545140849873,"273":0.02642456903713802,"274":0.03422742392413599,"275":0.006998939764867261,"276":0.0020434281116079945,"277":-0.03622179397522844,"278":-0.005959018068844698,"279":-0.0019125738145280837,"280":0.026498168076717482,"281":-0.003611898806588019,"282":-0.004103382584388209,"283":0.020841588139778502,"284":-0.0070908149548267576,"285":-0.03824774200495758,"286":-0.011899852643082187,"287":0.012416044728561679,"288":-0.005054355061661487,"289":0.0130271103131948,"290":0.01298339430161705,"291":0.02938644554552237,"292":-0.025332500277440197,"293":-0.005216988505549503,"294":-0.01203480003457124,"295":-0.02336984672224235,"296":-0.038069684976805636,"297":0.013437863429090395,"298":0.05760926335860505,"299":-0.020857666360381128,"300":-0.026417994144069444,"301":0.03000412939849749,"302":0.025413284452442085,"303":0.018245082290334627,"304":0.036587389358995574,"305":0.03791854331273934,"306":-0.02539011477002279,"307":-0.012512400767184354,"308":-0.0023785276851525177,"309":0.003691795244876167,"310":0.005402004609657251,"311":-0.02699662850966214,"312":-0.017624398506919665,"313":0.005870079046956899,"314":0.00433739029560303,"315":0.03300890455384441,"316":0.0056521175685911975,"317":0.013343341318441103,"318":-0.0621758783858853,"319":-0.006192534759610109,"320":0.02783699708669351,"321":-0.023737877358759634,"322":0.022183785211479134,"323":-0.01211722065291149,"324":-0.04933966467736526,"325":-0.011036266385124439,"326":0.05189105676912768,"327":-0.007959557323234036,"328":-0.0035697116848448967,"329":0.005258646987365558,"330":0.019262738969706726,"331":-0.012527582747617895,"332":0.009025196950658279,"333":0.00989470858214592,"334":0.05151822396740502,"335":0.0006296316036470964,"336":-0.05142042895286879,"337":0.017126887921041396,"338":0.060114923345156425,"339":-0.012483547337789268,"340":0.006757643377026883,"341":0.008150478019670747,"342":-0.03606835896954895,"343":-0.0016085638861040592,"344":0.024424485306456703,"345":-0.0042390615943485865,"346":0.03149600607912209,"347":0.07016599175662432,"348":0.008769813977690239,"349":0.000020631808173620443,"350":0.009194404549390066,"351":-0.01767352063196325,"352":-0.0010360366233077302,"353":-0.003840696946075585,"354":-0.046529692973140024,"355":0.030139232258369397,"356":0.02907298556713234,"357":-0.027466555144582076,"358":-0.018593355793599428,"359":0.058971072597408226,"360":0.009823016825967267,"361":-0.0007413051142987392,"362":0.006566690397513827,"363":0.006214328556175414,"364":0.004655963873741884,"365":0.033883641594858877,"366":0.024231211278870096,"367":-0.004485679967903122,"368":0.001556806451230921,"369":0.034433376846029325,"370":0.052038085845111715,"371":0.003483737005024504,"372":-0.02631258256352836,"373":0.020455643914812503,"374":0.015048297340780621,"375":-0.007200070137009227,"376":0.03331732926693483,"377":-0.010569776966522825,"378":-0.011437395471429097,"379":-0.01207582966415417,"380":0.004962705438154936,"381":0.06310306717952344,"382":-0.013554065443036339,"383":0.011952789783925308,"384":0.0024174003207313253,"385":0.017533674246744343,"386":0.01279600837531532,"387":-0.020701698844310477,"388":0.0024495304230163517,"389":-0.003273916001772608,"390":0.03707726945204393,"391":0.0014712190879621393,"392":-0.023754646380118784,"393":-0.0038107402874103823,"394":0.012960957686516084,"395":0.03214393594597073,"396":-0.015382945268642425,"397":0.035232225155478546,"398":0.004808138944158829,"399":-0.00749252660472843,"400":0.03179404360452453,"401":0.0032840385481615404,"402":0.06749120518320643,"403":-0.010527604903349549,"404":-0.015903813125219796,"405":0.0030497561122750103,"406":-0.0028496195125509694,"407":0.030583910446196256,"408":-0.01616435971702211,"409":0.020176485711622064,"410":-0.04848729526322511,"411":0.02963901178830732,"412":-0.024552137628471804,"413":0.0028888789917460556,"414":-0.019239322750606698,"415":0.056076919530773005,"416":0.045198232319234435,"417":0.07476810628225061,"418":0.03028445725082694,"419":0.012660773490854487,"420":-0.01744445776929027,"421":-0.02376688467515039,"422":0.035792025865017035,"423":-0.012979113561950027,"424":0.013855223799440465,"425":0.028220595849781215,"426":-0.019313965796067784,"427":-0.025716005840000493,"428":0.046320878905092726,"429":-0.00830941377070021,"430":0.009460858673338882,"431":-0.01886750974719247,"432":-0.02880461661516397,"433":0.04560151065103305,"434":-0.01486919532041942,"435":0.0586187151245069,"436":-0.0053159180412481145,"437":0.010505708118560171,"438":-0.0037816923670866026,"439":-0.003928600157209909,"440":-0.014469843404676823,"441":-0.010848360187104627,"442":0.037688079361041626,"443":0.02686269286164526,"444":-0.0009383007896847488,"445":0.022879025724682624,"446":0.01526352472237231,"447":0.024202344330999794,"448":-0.0005024608189143755,"449":0.018957324562457162,"450":-0.02329052028551926,"451":-0.022986478719051604,"452":-0.019554391465352598,"453":-0.0017965739925159402,"454":0.028018602004072135,"455":-0.017356503622924086,"456":-0.03032793888531146,"457":0.04961357342363817,"458":0.009547145063308051,"459":-0.004705642430231816,"460":-0.03237074911459623,"461":0.00004309717484306229,"462":-0.008408315355737309,"463":0.0072781328321530276,"464":0.06153697541367313,"465":0.004405029610009022,"466":-0.0101168821114534,"467":0.04735274628679091,"468":-0.02831541006051806,"469":0.018442363216667968,"470":0.0018925474817015153,"471":0.01048617198810827,"472":0.008578086365896595,"473":-0.02782476011181415,"474":-0.026137187708396424,"475":-0.020618328429798733,"476":0.07415788934104788,"477":0.02765107903377982,"478":0.032575428319169035,"479":-0.02313547991160039,"480":0.02021583547644238,"481":-0.005201147985031521,"482":-0.0022134358484338272,"483":0.021130645577291253,"484":0.025268932251399267,"485":-0.0007356398700097177,"486":0.0006369655130629221,"487":0.007653611971941307,"488":-0.02043880386157955,"489":-0.020627599485248036,"490":-0.007707974023370541,"491":0.018944173269978753,"492":-0.00017263625698608177,"493":0.006913002082796502,"494":-0.022282323639289156,"495":-0.03699726969390981,"496":0.04548071921757599,"497":-0.06745998723497652,"498":0.0033803430684732744,"499":-0.0007417867814184248,"500":0.05981397084147017,"501":0.009823607146395468,"502":-0.0022518575945684326,"503":-0.03458324076665195,"504":0.010910842049102185,"505":0.004140015895302138,"506":0.03367889082251404,"507":-0.040774866235213585,"508":-0.00957575301494927,"509":0.001801054481552739,"510":0.06203449885699264,"511":0.01624912772303334,"512":0.03823971562744844,"513":-0.013384431158239946,"514":-0.014754882344314017,"515":-0.02220342585225104,"516":0.04371237050303499,"517":0.002103044732899182,"518":0.010745943380842072,"519":0.06640865407839569,"520":0.05686205321958314,"521":0.024172143714181995,"522":0.03557811681233694,"523":-0.013521569638108988,"524":0.012170041313581664,"525":0.005564427506034975,"526":0.006081100325345582,"527":0.022153063342826636,"528":-0.021316643866761627,"529":-0.016320218417501826,"530":0.025344473370135144,"531":-0.000013345953475884196,"532":-0.026426864205758696,"533":0.011762854521236793,"534":0.008217583580002746,"535":-0.00589146878511539,"536":0.0011751557141312847,"537":0.0413817237135431,"538":0.05271331018559463,"539":0.019329484982092148,"540":-0.002865482110559509,"541":-0.0032447097035429836,"542":-0.0009041943213709403,"543":0.0059907444370798785,"544":0.011455608711050452,"545":0.02228745411370728,"546":-0.0349187819151447,"547":-0.006385028514076139,"548":-0.030615116058862423,"549":-0.04596266141464963,"550":0.020629044713133305,"551":0.05046451299122758,"552":-0.03704764275992116,"553":-0.0009271190341657728,"554":-0.04200348956804465,"555":0.046313110752406954,"556":0.024952832607675716,"557":0.011981494048510122,"558":-0.03405845069971145,"559":-0.037898234355251276,"560":0.016802016218556756,"561":0.04132037752502562,"562":0.013980904806501196,"563":-0.0021740602380403073,"564":-0.024211469181996497,"565":0.03371066288250664,"566":0.01060010727829479,"567":0.03232532553087254,"568":0.04539661712304686,"569":0.012257586928345146,"570":0.030555938630981223,"571":0.027345874663493835,"572":-0.0300742368732011,"573":-0.018009224856694095,"574":0.0789283127613151,"575":-0.006668356776326132,"576":0.012009940840854997,"577":0.037831327268685926,"578":0.05608439068660145,"579":0.029178445404591836,"580":0.001205947478180128,"581":-0.01429563409360795,"582":-0.028257043325374105,"583":0.05038507492053314,"584":0.01705675173644101,"585":-0.013025398482284936,"586":0.0034674678384896806,"587":0.009895294412086841,"588":0.008790659188547562,"589":0.013471484831771458,"590":0.04118387840561495,"591":0.022502331102784972,"592":0.04321426516888179,"593":0.019779978973620195,"594":0.07052976354881053,"595":-0.013871484218500327,"596":-0.006421015393313015,"597":-0.025560022660259408,"598":-0.015132497254267642,"599":0.003982428261384208,"600":0.01751970538627529,"601":0.04017772691873105,"602":-0.04795010664508707,"603":-0.006334256688903008,"604":0.031835683396879075,"605":0.023474860639499655,"606":-0.012114254129829015,"607":0.023593321220457247,"608":0.07612277304471217,"609":0.02846400393913319,"610":0.011328472585771623,"611":0.0040500830842036825,"612":0.016839242230278596,"613":0.04159551502398299,"614":0.025645213767214504,"615":0.029996439129076125,"616":0.022631996059882042,"617":0.010337400122200064,"618":-0.03675412279774411,"619":0.0017882184170628966,"620":0.00724092758553965,"621":0.025718161468737663,"622":-0.007976183197815836,"623":-0.016938399399586707,"624":-0.017418379435151867,"625":-0.013887087634589464,"626":0.029579327142419315,"627":-0.009154924260159998,"628":-0.03447593714519768,"629":0.014046585293598174,"630":-0.02415452468915215,"631":0.010620256669710804,"632":-0.03195096350094594,"633":-0.05950421644862468,"634":-0.027068759978833498,"635":0.016348338166620503,"636":-0.006891355381224519,"637":0.043589935114484,"638":-0.03080710339258518,"639":-0.016941044059607797,"640":0.0201718972949291,"641":0.014368440349466507,"642":-0.040583348184161865,"643":0.014559276848024504,"644":0.028669792772456144,"645":0.05670147215688114,"646":-0.018656152884504458,"647":0.007715006736383164,"648":-0.019787339473964768,"649":0.02756822287854008,"650":-0.025030902382734574,"651":0.013777189206121265,"652":-0.03120871278133495,"653":0.006157811808898821,"654":0.05968880983558606,"655":-0.009521339506942476,"656":0.04536543228858284,"657":0.02167248269288296,"658":0.032533989139580895,"659":-0.00043671077977198563,"660":0.017666978544671603,"661":0.0053273849327398325,"662":0.02097051346042022,"663":0.010761647728546564,"664":-0.0060600238520401835,"665":-0.000183648818536465,"666":0.030602692015618348,"667":-0.013665215162807061,"668":0.01241095860373815,"669":0.05773835829650812,"670":0.02567235005547338,"671":-0.00041728955078795766,"672":0.03405867444430301,"673":0.01813198489264807,"674":0.0171048319785264,"675":-0.016729229115677098,"676":0.01201833997187027,"677":0.016306051068025518,"678":0.019100638694540602,"679":0.0014124851860903955,"680":-0.0402123007216199,"681":-0.0293233937448841,"682":0.012145220314280863,"683":0.008550451720582435,"684":0.00791585010746859,"685":-0.019300721227236372,"686":0.07158703422283308,"687":0.03464459463910245,"688":0.00004166680837763747,"689":0.029969817290471462,"690":0.026211388823306012,"691":-0.00037277289301152356,"692":-0.017355989755256707,"693":-0.01235508299331379,"694":-0.02862807978099219,"695":0.032030782877284704,"696":0.011991287339298926,"697":0.001647177653668433,"698":-0.04321695995197023,"699":0.029634728529617495,"700":-0.024120093071044003,"701":0.013499459729855742,"702":-0.043721938291766356,"703":-0.03468077804987216,"704":-0.04270642001194646,"705":-0.02765562926250055,"706":-0.008915700105028792,"707":-0.04916665579739256,"708":-0.024556793455973964,"709":0.031178527175214327,"710":-0.027214962281870748,"711":0.012900537521932527,"712":0.021848943323941362,"713":0.060534985511659485,"714":-0.023028323321170184,"715":0.009680886574574195,"716":0.01269117666493253,"717":-0.027469743137778873,"718":-0.01303946519394686,"719":0.03920031887152054,"720":-0.05335237621336713,"721":0.050177308552494145,"722":0.022514281627097413,"723":0.027314175691243007,"724":0.0485393883939401,"725":-0.0003636366862472195,"726":-0.013463491772014292,"727":-0.012470111779664079,"728":0.005210502045175999,"729":-0.02128804628118469,"730":-0.05631138027097996,"731":0.005853693167958761,"732":-0.0066632214925981675,"733":-0.047024392001376654,"734":0.03636318074666716,"735":-0.02603402715991207,"736":0.0013103264685967635,"737":0.024435965321284874,"738":-0.03433379951328277,"739":0.031109175835397695,"740":-0.009896180385751215,"741":-0.020518828112418914,"742":0.03294961473758409,"743":-0.01630214371052447,"744":0.02124445146196616,"745":0.013829985983936465,"746":0.03350684899572373,"747":-0.03180769697883557,"748":0.01635535719535969,"749":-0.04065045572450923,"750":0.009577370871968848,"751":-0.023561874515614457,"752":-0.0012020611769251433,"753":-0.002798235356228246,"754":-0.006235120612759883,"755":0.003543785280420212,"756":0.0350599174225905,"757":-0.0142200822090532,"758":-0.019152310141926726,"759":0.04505574397921331,"760":-0.03383587443684316,"761":0.006980367035379319,"762":-0.00839180368564848,"763":0.011447394684968087,"764":-0.06949374925110899,"765":0.01618749628277835,"766":-0.008314124920798334,"767":-0.004984091106710303,"768":0.010345006367434666,"769":0.017745582700302694,"770":-0.029797562998979878,"771":0.03857136306695723,"772":0.02398760021962343,"773":0.006338999594785392,"774":-0.032629354019477606,"775":0.03234207598218696,"776":0.014303539408245332,"777":0.005516038153223709,"778":0.005818486186186367,"779":-0.0002803432687252811,"780":0.0487440164737056,"781":-0.026883918225155994,"782":-0.015249179533977237,"783":-0.00771635217695421,"784":0.009310218121960687,"785":0.025472077628820717,"786":-0.014547673584331339,"787":0.011509420595760057,"788":0.04780305470628203,"789":-0.023443878433114407,"790":-0.029156379446632155,"791":-0.03652643392981684,"792":0.018035843618965937,"793":0.03387908014421887,"794":0.0568029522322693,"795":0.0105191978582809,"796":0.006035684240715676,"797":0.030761223506129174,"798":0.014140917099586751,"799":0.011719222508257165,"800":0.04796861319462179,"801":0.02430295366916065,"802":0.015602598999128092,"803":0.028124127057010954,"804":0.035648534035392754,"805":0.015922370900380085,"806":-0.011405521309202991,"807":0.04741275551696156,"808":0.015827176393632975,"809":-0.02272203685087844,"810":-0.05429136055543888,"811":0.0036349687871667117,"812":-0.002903918611106551,"813":0.055701399692370854,"814":0.008383485217058707,"815":0.010937704215470644,"816":-0.01853181713493546,"817":-0.013676821670166182,"818":0.03467847552815178,"819":-0.035898149017672576,"820":-0.0019727463167730553,