{"layers":[{"out_depth":2,"out_sx":7,"out_sy":6,"layer_type":"input"},{"sx":4,"sy":4,"stride":1,"in_depth":2,"out_depth":32,"out_sx":8,"out_sy":7,"layer_type":"conv","l1_decay_mul":0,"l2_decay_mul":1,"pad":2,"filters":[{"sx":4,"sy":4,"depth":2,"w":{"0":4.4185232872699975,"1":0.3883104971217696,"2":-0.4409656792828558,"3":-0.21783904341200236,"4":-0.46212380897326266,"5":0.209162229356375,"6":0.30945024315534797,"7":-1.3952173620953134,"8":0.4738977481342994,"9":0.49296816145728933,"10":-1.603889089791421,"11":0.07002151824528338,"12":0.3213468050749491,"13":0.2877462681930165,"14":-0.02030145420534439,"15":0.08919235943497406,"16":0.714138835507652,"17":0.8398452360236807,"18":-0.07427553934253096,"19":0.4187014018851767,"20":0.6675273205733218,"21":-0.8152909795512543,"22":-0.1795193090300218,"23":-0.1595803198385983,"24":-0.052135505895970075,"25":-0.3679562362495396,"26":-0.5548852874214705,"27":-1.2557092267405918,"28":-1.6691314534292834,"29":-1.8882811278500897,"30":-0.24465394117527237,"31":0.3382011693298983}},{"sx":4,"sy":4,"depth":2,"w":{"0":0.629879458560913,"1":0.08199651563167894,"2":0.42676674390564673,"3":-0.1257933804670217,"4":-0.04019908062780703,"5":0.5572152718350315,"6":0.6175813145270082,"7":-0.014342305584520428,"8":-0.20157038403944533,"9":0.021876630820314498,"10":0.07099309186412511,"11":-0.6058574344351036,"12":0.3777346038936041,"13":-1.3939925403989013,"14":-0.4416299920454648,"15":-0.22957091934085708,"16":3.0176225703002877,"17":-0.365624453186933,"18":0.43583115357473196,"19":0.566094858231424,"20":-0.3434961889279844,"21":0.0009370698936126938,"22":-0.6711382749732626,"23":2.4601581208030523,"24":-0.5938377645341885,"25":0.10027776363387612,"26":3.0343999075343557,"27":0.013777928175454882,"28":0.06414669458124837,"29":-0.3308007038833993,"30":-0.03504291462816937,"31":-0.16079919990159203}},{"sx":4,"sy":4,"depth":2,"w":{"0":0.1599811916558949,"1":-0.31471858793648566,"2":-0.22815058622333576,"3":-0.7071056485942628,"4":0.17827346321485643,"5":-2.198790446163492,"6":0.10151012623759074,"7":-0.7753159984318668,"8":-2.967101397554166,"9":-1.4029204950407168,"10":-0.3354098905491559,"11":-0.38598733106487,"12":-0.34214200439333925,"13":-0.21048519391809703,"14":0.22249351538531958,"15":-2.388231026020638,"16":0.20719995753102913,"17":0.5155906606736448,"18":-2.308091936321055,"19":2.424369223173611,"20":1.138681817495056,"21":0.3937221041821125,"22":-0.9699090419074383,"23":0.16263385913770173,"24":0.07837471638913512,"25":-0.17303720788268204,"26":-0.3461313817017392,"27":0.012751094739733855,"28":-0.20344234550716805,"29":0.38371996973925576,"30":0.05520531104839949,"31":0.7234663007037557}},{"sx":4,"sy":4,"depth":2,"w":{"0":-0.6649812740213206,"1":0.09238622749099698,"2":-0.1877197955641881,"3":-0.31129723084532684,"4":0.34890267484509424,"5":0.6165302921867332,"6":0.28524115901140024,"7":0.40637645221479063,"8":-1.362044234265572,"9":-0.46145701896158553,"10":-0.2664640810095361,"11":-2.3494157030792784,"12":-0.583682391657813,"13":-0.3948056249453172,"14":-0.00009750840507056576,"15":-2.800770086798385,"16":0.11741720202185721,"17":-1.174866748757468,"18":-3.465511850904391,"19":0.4336564923316555,"20":-0.1941216033800373,"21":-0.5827855759535521,"22":-0.047284245538080534,"23":-0.7766408932072317,"24":-2.2130369150774163,"25":0.7904270004653907,"26":2.2536935230459862,"27":3.2922917349779506,"28":-2.2627393065786223,"29":0.5603464885210571,"30":0.4448828303367687,"31":0.5209159560849915}},{"sx":4,"sy":4,"depth":2,"w":{"0":-0.3003470981546251,"1":0.1865983202778199,"2":0.12663190188882023,"3":-0.11664030853531145,"4":-0.44751806748735057,"5":0.013977270517033643,"6":-0.22769319978202915,"7":0.1853160205177262,"8":-0.04627682341911041,"9":-0.39761693138553805,"10":-0.22802937880097224,"11":0.19305850032527483,"12":0.3615630517294415,"13":-0.18921837703170918,"14":-0.6229158579365542,"15":-0.10138208832506301,"16":0.2109014926061377,"17":-0.6045876587590162,"18":0.23749624799174143,"19":-0.5444612094890461,"20":0.09612496102556715,"21":-0.07773443001154141,"22":-0.003886015304408409,"23":0.13180049631479748,"24":-0.07141561698048861,"25":-0.16189843032057566,"26":-0.12887556478335338,"27":-0.05546444370674849,"28":-0.2714180935220079,"29":-0.07382367756467796,"30":-0.22397371891086384,"31":-0.22088045002953965}},{"sx":4,"sy":4,"depth":2,"w":{"0":-0.3589577647290801,"1":-0.640031121836601,"2":0.1783865728850064,"3":-1.07186501076754,"4":-0.8736065551486604,"5":1.3969853298570405,"6":-0.11526285811117758,"7":0.11334525882824174,"8":0.49572074670808514,"9":-0.39199446779240726,"10":-0.5245750998500269,"11":-0.07396250687811032,"12":0.8898234253575147,"13":-2.897610689901489,"14":0.7703457517369678,"15":2.067689114776287,"16":-2.8647755948130986,"17":1.1808107072526661,"18":-0.10079807790740798,"19":-0.43504727124128384,"20":1.0082655321695948,"21":-0.7291343577111032,"22":0.7485203695171666,"23":-1.7720958202687882,"24":-0.06785589842976958,"25":1.075278646177197,"26":0.43831626392164635,"27":0.12722348735412098,"28":1.171934761483458,"29":0.6213316685813152,"30":0.6844714323152893,"31":0.9408434034865047}},{"sx":4,"sy":4,"depth":2,"w":{"0":-0.08986616361859028,"1":-0.4488100328232584,"2":-0.6633757386337038,"3":-0.20838614350901127,"4":-0.21084538943558565,"5":-0.2540222711942012,"6":-0.14479593228907323,"7":-0.4218392138447,"8":0.28026588587065654,"9":-1.0074837619432118,"10":-0.0015586891653747257,"11":-0.29548452881756765,"12":0.049822144724113004,"13":0.25575703249041887,"14":0.7494859564429279,"15":-0.25865168097709096,"16":1.35588837042956,"17":1.4729953520679713,"18":1.593636368513925,"19":-0.7858651512198598,"20":1.1569780409167916,"21":-0.26814866165943596,"22":-0.25314125440772334,"23":-0.14508764193704118,"24":-0.066606624759201,"25":0.23932353846583282,"26":-0.5069572153074078,"27":-0.03798864841634483,"28":0.2716476295884777,"29":0.5033458383849136,"30":0.29449882409164346,"31":0.1272219521834199}},{"sx":4,"sy":4,"depth":2,"w":{"0":0.16237968780210782,"1":-0.22159980013144817,"2":-0.18574567990956983,"3":0.015136460093208732,"4":0.006818117634897214,"5":-0.1901971517922373,"6":-0.31850427601636966,"7":-0.21401561319622792,"8":-0.09297247676212196,"9":-0.1395495033818468,"10":0.08015664943849743,"11":-0.334341743407838,"12":0.04048306306509833,"13":-0.07860468544028518,"14":0.07319767901317997,"15":-0.05337597798161559,"16":0.06427697046554103,"17":-0.1794085634325552,"18":0.1479626346941503,"19":-0.14616747292643617,"20":-0.21004612571738945,"21":-0.25918701081097795,"22":-0.12357184519318043,"23":-0.11681336460213211,"24":-0.13309020360830162,"25":-0.0033979954999841812,"26":-0.08861083755576166,"27":-0.08756679778163165,"28":-0.11427728197288282,"29":0.11274100641212473,"30":-0.06552567253519848,"31":0.04122348770368335}},{"sx":4,"sy":4,"depth":2,"w":{"0":-2.102597440256092,"1":-0.28073736822845974,"2":-0.5731910331513689,"3":-0.7076181824373746,"4":-0.7281360182126829,"5":1.1724184482734687,"6":-0.8666867303598733,"7":-2.5466905394086297,"8":1.2334728441286968,"9":3.903984210813592,"10":-1.59792296945571,"11":0.5990037418208591,"12":-0.11939552721835625,"13":-0.6868633814443734,"14":0.6803485532506991,"15":0.6331026716532262,"16":-0.3625090887267287,"17":0.6918692283285632,"18":-0.15156388674728946,"19":-0.8925373313595202,"20":1.0232334755522159,"21":1.0901807099856082,"22":-0.4027179232716343,"23":-0.4207842712780512,"24":-0.034568285427313335,"25":1.6054494469006844,"26":0.24948429317903592,"27":0.26493598434802024,"28":0.14846500298218387,"29":0.7308151647744232,"30":-0.4606669500697767,"31":-0.4987146333612268}},{"sx":4,"sy":4,"depth":2,"w":{"0":0.1117304926089167,"1":-1.2615644211920247,"2":0.040987851374079676,"3":-0.3127697635193566,"4":0.09851376786401762,"5":0.07009732308363141,"6":-1.2693415371692922,"7":-0.10907127647030981,"8":0.22630613400777197,"9":-0.911755912392061,"10":0.7082053159242966,"11":-1.5287694123859725,"12":-0.013238312204056047,"13":0.7825417318919067,"14":-1.0752509618613046,"15":-0.11210526727540342,"16":-0.5912381209496972,"17":-0.8240627492278321,"18":1.1431085267882064,"19":-0.6448119828766977,"20":0.36679794838338003,"21":2.269348257906675,"22":-0.7499865168107273,"23":-0.6642079538611974,"24":1.1821905756463933,"25":-0.811552600868635,"26":0.3927655520952044,"27":0.020284376319424494,"28":-0.5964776495801255,"29":-0.6645155380678881,"30":-0.0427063531749249,"31":1.0840669972096515}},{"sx":4,"sy":4,"depth":2,"w":{"0":-0.33385914351077944,"1":0.48261137201716214,"2":2.6754507192883574,"3":-0.2507171497330997,"4":-0.5035144721674173,"5":0.03967680709096761,"6":-0.8919015165334174,"7":-0.46419956038474874,"8":-0.08331520452381938,"9":-0.7080679984953101,"10":-0.5395586415660124,"11":0.011733755462028444,"12":0.5531283998365256,"13":0.014339341339378508,"14":-0.12834596138535398,"15":0.24878851638344276,"16":0.19161646237918728,"17":-0.4227286134826158,"18":-0.09678330529898675,"19":-0.1468471326462956,"20":-0.5348941221854494,"21":-0.574227642080216,"22":0.013099348910677806,"23":-0.44584232342755603,"24":-0.884287721643201,"25":2.1090007497310554,"26":0.3714347914598777,"27":0.2941730174506268,"28":1.1082036989605681,"29":-1.528807043570679,"30":-2.1574046422972075,"31":-1.9561739130664568}},{"sx":4,"sy":4,"depth":2,"w":{"0":0.017244123867129108,"1":-0.14203900729183283,"2":-0.07480762878530564,"3":0.00903804081998943,"4":-0.1338696895477332,"5":-0.22006715305078095,"6":0.1648839697026621,"7":-0.10356759601125017,"8":-0.09875512959292691,"9":-0.131330906521492,"10":-0.10679081818840819,"11":-0.20105672325123897,"12":-0.03560319786655008,"13":-0.01505044595206473,"14":-0.13353890371237365,"15":0.012629487983934718,"16":-0.11918487917407075,"17":0.0815538256580834,"18":0.010906421299078083,"19":-0.041656633239184705,"20":0.10911803946350469,"21":-0.19876598017194597,"22":-0.32622150521268034,"23":-0.08052631083798513,"24":-0.08153463567858994,"25":0.04577933729213781,"26":-0.24258877076501115,"27":0.2032868356831113,"28":-0.21806378101111565,"29":0.051354417478853116,"30":-0.3335735594413118,"31":-0.1505471000872266}},{"sx":4,"sy":4,"depth":2,"w":{"0":-0.45741409504446795,"1":0.21110031155199227,"2":-0.4487625979475821,"3":-1.8330505575700677,"4":-0.35868306815683043,"5":-0.2588835545744975,"6":-0.398513033805658,"7":-0.10846096426331879,"8":-0.330560140303572,"9":-0.5900401646947632,"10":-0.23910450700173708,"11":0.2658616159809239,"12":-0.4945978965714078,"13":3.4971839951991104,"14":-1.3772037739983816,"15":-0.8585663608522431,"16":2.3134835905518853,"17":-0.5103091171554028,"18":-0.801929965649672,"19":0.10393517302310169,"20":-0.10537626111572364,"21":0.3443062879584701,"22":-0.08460738134552413,"23":1.4770406473585465,"24":-0.05988617224393393,"25":-0.5396653671381331,"26":-0.19676200472433455,"27":-0.5716466011272275,"28":0.2693354069869935,"29":-0.39873013894559645,"30":0.22254788371887033,"31":0.010711901732655}},{"sx":4,"sy":4,"depth":2,"w":{"0":-0.9336025834948041,"1":-0.3235366585763963,"2":0.24900875722238675,"3":-0.10264376929984706,"4":-1.5422745903363313,"5":0.045916717309506715,"6":0.42770122124257537,"7":-0.28198530636495606,"8":-0.3806015072519392,"9":-0.46322216141269723,"10":-0.6755587691205471,"11":0.31918382165015036,"12":-0.4394507389421625,"13":0.029651490459354782,"14":-2.3238551333243156,"15":-1.14526234781944,"16":1.6303643871072582,"17":-1.7954714730407884,"18":2.7406604244585435,"19":1.5275930700938447,"20":0.6701607331875779,"21":0.28033046822733676,"22":0.3655929292941383,"23":0.3630888479128064,"24":-0.15712756136737227,"25":-0.43867646046575826,"26":0.6615715434442906,"27":-0.14935845462621325,"28":-0.21483380747317998,"29":0.3299030294991202,"30":0.07625851857305913,"31":0.5318881925666668}},{"sx":4,"sy":4,"depth":2,"w":{"0":-0.28302666908030477,"1":1.1665481641907902,"2":0.3347668288520562,"3":-0.6609720135024107,"4":-0.04665115683677121,"5":0.15383187914292665,"6":-0.07149338272463357,"7":-0.16395986446124308,"8":-0.6639934655795391,"9":1.6613401676455803,"10":-1.5368470432947028,"11":-0.5740963516885936,"12":-0.7930777581049433,"13":0.31018382169263964,"14":0.23896757621987028,"15":0.18632051289098667,"16":0.05722693645201251,"17":-0.2071616991114695,"18":0.5448421335357891,"19":-0.3838957437454372,"20":0.12330765860554899,"21":0.012866878698065003,"22":0.1007100685609647,"23":0.24403395940212735,"24":0.26062137832227344,"25":-0.6983564028071992,"26":0.11209663862626408,"27":-0.3260821376793643,"28":-1.2693102873579458,"29":2.4036359913391894,"30":-1.7095625553167237,"31":-0.12405947618083026}},{"sx":4,"sy":4,"depth":2,"w":{"0":0.21049483242756278,"1":-0.6493055473133366,"2":-1.3026723923103396,"3":-0.13255254545802952,"4":-0.2655425757764416,"5":0.08967755673500177,"6":-0.199775382689726,"7":-0.5784120893335813,"8":0.24125696452718928,"9":-0.24174167369629576,"10":-0.5448743146516537,"11":0.11280037056309353,"12":-1.2313677095761069,"13":0.0008438771875083328,"14":-0.8227918502830935,"15":-0.614142770689877,"16":0.19335119785076416,"17":-0.8852617707609011,"18":1.601968599516109,"19":-0.3103107721159163,"20":-0.9305606725779039,"21":-1.0374962058418766,"22":2.0959394905936324,"23":-0.7280168740502988,"24":-0.40166629691390743,"25":-0.536048778612664,"26":-1.6761279951071404,"27":-1.8620156869962379,"28":-1.5672519707956545,"29":-0.8068280437797182,"30":0.8769873931616001,"31":1.0411272493124675}},{"sx":4,"sy":4,"depth":2,"w":{"0":-0.059342703627298876,"1":0.7359253693759705,"2":-0.2448612334331764,"3":-0.6976270702071503,"4":0.4470090736982351,"5":-0.13207601065694705,"6":-0.8492283787550247,"7":0.3048786561622898,"8":-0.3098804878935196,"9":-0.08042825871942354,"10":-0.3182142654080076,"11":-0.020859566600167717,"12":-1.7818821088833012,"13":-1.6361635007314907,"14":0.18020281122063062,"15":0.2343817512377541,"16":-1.0183447492140285,"17":-0.002427399265625915,"18":-0.4775743789382275,"19":-1.8387827080308197,"20":0.1649818420236883,"21":-0.034338161915798,"22":1.3079048882398399,"23":-2.5061211593421717,"24":-0.21726877883778373,"25":-2.1450681448559927,"26":-0.34358814291715334,"27":1.4931438776394201,"28":-0.8833370884991315,"29":-0.6974901888430673,"30":-0.06944313692535325,"31":-0.5226078519894831}},{"sx":4,"sy":4,"depth":2,"w":{"0":0.9130010374088218,"1":0.4212784513651053,"2":0.4600308588242161,"3":0.45971150608044065,"4":-0.021601593174158194,"5":-2.948941416838041,"6":0.22604697169719498,"7":0.3424635673521309,"8":-3.1063479000585312,"9":0.35002651327846046,"10":0.13684827918675957,"11":0.44415535087158076,"12":0.28110879152951307,"13":0.06944264187637825,"14":-0.6090535932691621,"15":-1.3963780389117673,"16":-0.3199463109092579,"17":-0.2544275137762856,"18":-2.1101809100221858,"19":-0.4788022122046448,"20":-0.43256811006797957,"21":-0.7182923344109725,"22":0.027951345954728642,"23":-0.5139772542448932,"24":-0.4551111365283171,"25":-0.8252349091504722,"26":-0.02273379759757708,"27":-0.23586204955205808,"28":3.6173306098750686,"29":-1.162928971011578,"30":-0.43591841523695213,"31":-0.32552749729020425}},{"sx":4,"sy":4,"depth":2,"w":{"0":1.759417794042911,"1":0.7547820398786501,"2":0.9722700291931486,"3":-0.5676802391427911,"4":-0.7274873589717064,"5":-0.19322915670408397,"6":0.40155407785516534,"7":-0.7214544534503989,"8":0.1670679284510685,"9":-0.6450655052141457,"10":-0.7464902303035452,"11":-1.053910551473537,"12":2.389616263982667,"13":0.11147408355302527,"14":0.09928958107256289,"15":-0.2128937208572725,"16":0.23302180591428212,"17":-1.302740692010661,"18":-0.6909213915153365,"19":-0.3460298140587522,"20":0.914789816764853,"21":0.3334377895782694,"22":-1.1273321082299264,"23":-0.41263368631084035,"24":0.40539115838267764,"25":0.21719231505116088,"26":0.4316585812251016,"27":0.6848437874329355,"28":-0.4419160039052357,"29":-2.547631238448357,"30":-1.0580272756451239,"31":-1.9996073401287393}},{"sx":4,"sy":4,"depth":2,"w":{"0":-0.7019305373002744,"1":-0.8218131284487779,"2":-0.39441237725473144,"3":1.5129959072978942,"4":-0.5237836751353268,"5":0.2248013880522346,"6":-0.10243258192564776,"7":-0.3911915598011735,"8":-0.8681257363429552,"9":-0.4964666995608993,"10":-0.06725929535960475,"11":0.08255445889754438,"12":0.018224664549697372,"13":0.6154275968469645,"14":-0.06084708745602558,"15":-0.009876070121554606,"16":-1.1784552761944842,"17":-0.3658901599767344,"18":0.498490340932546,"19":-0.43909902001930373,"20":-0.0014301169789153376,"21":0.5757793289793535,"22":0.025771727875820966,"23":-1.1021368203863942,"24":-1.22755912120265,"25":-1.0520380725003866,"26":4.2313728978181055,"27":-1.306719384237256,"28":-0.8509211793710126,"29":-0.41678066145954834,"30":-0.5009540607799973,"31":0.13726141600877345}},{"sx":4,"sy":4,"depth":2,"w":{"0":0.11433912609503133,"1":0.26662918892047144,"2":-0.33988108717660837,"3":-1.8054043990931599,"4":-0.5034218695131965,"5":-0.37468210734273866,"6":-0.4107995769618037,"7":-0.17421448168657794,"8":-0.769768140049558,"9":-0.8012756483461767,"10":-0.6809917955300362,"11":-0.009047590548387602,"12":-0.44419711894874037,"13":5.149268238579763,"14":-0.35302032654203114,"15":-0.5088429912978565,"16":-3.028029205342399,"17":-0.16653093465928012,"18":0.05773438763532878,"19":0.6701638057858523,"20":0.17192468228584018,"21":0.3486618708426415,"22":0.7612032030684006,"23":-0.6572596438935121,"24":0.5816924013801188,"25":0.6048952439706565,"26":-1.2340536129133601,"27":0.5374079071393947,"28":0.2371258260061517,"29":-0.049626155746558806,"30":0.6209914439113413,"31":0.1732892353436869}},{"sx":4,"sy":4,"depth":2,"w":{"0":-0.011774527757052313,"1":-0.09233655086264579,"2":0.15460028001945753,"3":0.26080645848507755,"4":0.4236938909093235,"5":0.8850776146190087,"6":-2.0308946706266626,"7":0.8584165857936463,"8":-0.1813649804743082,"9":-2.050687803374451,"10":0.2752767776224711,"11":0.014609653789284848,"12":0.0016106852807572175,"13":-0.892393353769609,"14":0.08907636997283994,"15":0.39893996532596765,"16":-0.6021553737812068,"17":1.4953445705188608,"18":0.23366681166495315,"19":-1.1087227839570641,"20":-0.6026373469903423,"21":2.4896637496852034,"22":-0.19010306869591434,"23":-0.8061130120222092,"24":-0.5837169748835994,"25":1.3776476765410552,"26":0.31574516500694055,"27":-0.5396264517988286,"28":-0.0845892794282599,"29":-0.9716911464000892,"30":-0.12473752569271947,"31":-0.43357296455888983}},{"sx":4,"sy":4,"depth":2,"w":{"0":0.5163300966601023,"1":-1.0768208704285347,"2":1.6099340275095135,"3":1.7840510974836958,"4":0.8415076377459773,"5":-0.7549631426288133,"6":-0.31029917695648546,"7":0.279042092554109,"8":0.12297919642476786,"9":0.019698968439149676,"10":-0.04616787460985365,"11":-1.1849550668124835,"12":1.360087715741764,"13":-0.2700034281763454,"14":-0.15855429745903749,"15":0.659165359436739,"16":0.2215999799307717,"17":0.6414874330065391,"18":-0.020819099441168665,"19":0.15846851313028684,"20":0.8194211998238375,"21":-0.46428175871928534,"22":-0.22603030180748115,"23":0.23948590945017073,"24":-0.5329729805441602,"25":0.5169200983146934,"26":0.0651921455009371,"27":0.2486826332479403,"28":0.06370860569298954,"29":0.20289510506587027,"30":-0.12817273697668144,"31":-2.1637005241876914}},{"sx":4,"sy":4,"depth":2,"w":{"0":0.050491828078647265,"1":0.1842566822308405,"2":-0.3029536390914264,"3":-0.27581246459802344,"4":-1.313223503788355,"5":-0.30882514804301503,"6":-0.23962145841174307,"7":-0.07715940843784524,"8":-0.08915284658563477,"9":-0.727192324555662,"10":-0.8224612692994028,"11":-1.021902633554875,"12":-0.24259121082149213,"13":-0.11239467697401691,"14":-2.439189435622459,"15":-0.341462547122825,"16":-0.01654917861602469,"17":-1.7668120353208134,"18":3.0228717493377166,"19":2.245863972848389,"20":1.7720179756297083,"21":-1.7755512678194465,"22":-0.4113587120803219,"23":-0.22178246368395088,"24":-0.4977109484442923,"25":-0.4058712683078828,"26":0.3087276017339495,"27":-0.023777659780267545,"28":0.5509561136078616,"29":-0.2867140938836373,"30":0.33951600466885856,"31":-0.15836509785307032}},{"sx":4,"sy":4,"depth":2,"w":{"0":-0.15364075036667812,"1":-0.33038734781785917,"2":-0.08424714006177977,"3":-0.7136132941530448,"4":-1.9918765481524696,"5":-0.6891595068156118,"6":-0.37673303207988534,"7":-0.14927141624621554,"8":-0.7267402147300076,"9":0.566188558668057,"10":0.1700090658678453,"11":-0.3279956108557322,"12":-0.3436771849742845,"13":-0.24615256120282278,"14":3.0584645757721938,"15":0.1385810415825513,"16":-0.9347575053011039,"17":2.9931346427884105,"18":-0.7902729592554932,"19":0.04961690870488821,"20":-0.402407755988124,"21":-0.5403314352502189,"22":-0.46536132495347154,"23":-0.5760007948375431,"24":-0.30289834170870134,"25":0.21291554434256074,"26":0.3607403318616801,"27":-2.0672606446513853,"28":0.3377116468417876,"29":0.11964990399833064,"30":-0.6287138684241104,"31":0.2501406599814756}},{"sx":4,"sy":4,"depth":2,"w":{"0":1.2650747317786082,"1":0.29312397144824426,"2":-0.09832470001587121,"3":-0.4120720403635916,"4":-0.34096608938062845,"5":-0.43828654716010507,"6":0.14986850608073873,"7":4.076469769403065,"8":-0.08568279649547478,"9":-0.5441446261243437,"10":2.380805133658959,"11":0.09942010454057609,"12":-0.040559988317587566,"13":-0.02438815656854804,"14":0.2225425225259541,"15":0.32332333330857943,"16":0.03995911796984857,"17":-0.04131011801927073,"18":0.09671235731891165,"19":-0.5175983246964665,"20":-2.5253315895897983,"21":-0.3440764772389037,"22":-0.36206625138120885,"23":0.5603719134402206,"24":0.5423783408881168,"25":0.2205111322041078,"26":0.6767381660000543,"27":0.4705389385058885,"28":0.4902001466582003,"29":-0.14840129991333284,"30":-3.510983911626545,"31":0.7191232733173287}},{"sx":4,"sy":4,"depth":2,"w":{"0":-0.10980064968025637,"1":0.023926993186988082,"2":0.010535238786188707,"3":0.34552082887816254,"4":-0.17121990627660427,"5":-0.1333676193079225,"6":-0.2413657927769312,"7":-0.26970727305079323,"8":0.28842762969986996,"9":0.289978434251225,"10":-0.013626586465959562,"11":0.2597592515485785,"12":0.018051438240883053,"13":-0.026434099965439353,"14":-0.22566254218775392,"15":-0.15211336605559736,"16":0.08190066220100549,"17":-0.12634826105908,"18":-0.07385913305675093,"19":-0.11091624830200732,"20":-0.4962059881803767,"21":-0.37456152577265767,"22":-0.10250976065891786,"23":0.13910248457046084,"24":-0.2039919684213049,"25":-0.41573340673197895,"26":-0.39699609073958025,"27":-0.026887302304286605,"28":-0.24020069457594012,"29":0.2504481565613988,"30":-0.2896041807615378,"31":-0.16215998317135052}},{"sx":4,"sy":4,"depth":2,"w":{"0":-1.7099650013758603,"1":2.446235305773918,"2":0.37989870172693563,"3":-0.301559815133865,"4":-1.1204962327453503,"5":0.2711225784430972,"6":-0.7509291361034441,"7":-1.4720176242498466,"8":0.5567740278869782,"9":3.1449910085420787,"10":0.17212789145747687,"11":-0.06975424133752389,"12":0.40111128888679615,"13":0.605702586991195,"14":0.8900522756734137,"15":1.1895849258978641,"16":-0.1165400488799162,"17":0.7562960745016744,"18":-0.6938281467662616,"19":-0.9012874668837042,"20":0.9448490751131043,"21":0.9027148816577252,"22":0.876983643034375,"23":0.4187976876529436,"24":0.4440434089291981,"25":-0.05138305272526263,"26":-0.2099304227615621,"27":0.23863292577827624,"28":-0.06751909220539848,"29":-0.09940474133181854,"30":-1.5410289450513814,"31":1.2299191183358074}},{"sx":4,"sy":4,"depth":2,"w":{"0":2.5665510051269966,"1":-2.0004985517606353,"2":1.5934460959458063,"3":0.742720416654942,"4":-0.2612482321840212,"5":-0.6048856110502924,"6":-0.6463475391324369,"7":-0.385132495524106,"8":0.021620432642666696,"9":-0.050267657975858936,"10":-0.2924828021197272,"11":0.18252543858924666,"12":-0.601218571339145,"13":-0.11026872384337964,"14":-0.0182949042759809,"15":0.1299327883710381,"16":-0.5214071217529942,"17":-0.1291617633593665,"18":-0.09810867700464568,"19":0.292916852669577,"20":0.10847438005703584,"21":-0.5416078465385729,"22":-0.13429574814230574,"23":-0.1015868933814762,"24":-0.7696358520265373,"25":-0.4394553198286852,"26":0.27428256197186635,"27":1.3696073401094193,"28":-0.1571619765259048,"29":-1.6882361264914338,"30":-1.1751896459017706,"31":-3.4239788929726758}},{"sx":4,"sy":4,"depth":2,"w":{"0":-0.07323869996395911,"1":-0.7139155702699858,"2":-0.5420360011700516,"3":-0.3118558071870978,"4":0.08051486579441958,"5":0.7690042922185719,"6":-0.6264694678088397,"7":-0.12121400037415579,"8":-0.3805824710934923,"9":1.6350154612865362,"10":-0.7997304446254158,"11":-1.1087317548537583,"12":-0.48932646054712475,"13":0.006083520115482699,"14":-0.5213294659741043,"15":-0.3780845142169199,"16":-0.3548137417705525,"17":-0.7740685161389107,"18":-0.4348916210598871,"19":-0.9405747384243789,"20":-0.22549374384617035,"21":-0.790595957928102,"22":-0.8340752178789133,"23":-0.6651000742151256,"24":0.4135232228307065,"25":2.1515257278550974,"26":2.1208105393965084,"27":0.4101379469492102,"28":0.29326236117218407,"29":-0.6085179413745327,"30":-0.050727976748227224,"31":-0.3517691094985257}},{"sx":4,"sy":4,"depth":2,"w":{"0":-0.1045524015564483,"1":-0.9776621275515213,"2":0.09802622038941614,"3":0.34416838373554753,"4":0.35588596939034783,"5":-0.5140725282420457,"6":-0.1916203940657542,"7":0.9149953278851021,"8":0.0780298024711056,"9":0.04577913475879318,"10":-0.01700395062584817,"11":0.6240531930560111,"12":0.8395179106590303,"13":0.3966878334747203,"14":-1.3813515434305312,"15":-0.5139979895809762,"16":1.0634124415703035,"17":-1.5047984738191627,"18":-0.2532237140566247,"19":-0.3640211588573057,"20":1.861584175197961,"21":0.002090959402084888,"22":0.5289640424748637,"23":0.12490353026751488,"24":0.3603376748406862,"25":0.33125617347901837,"26":0.21934633501070896,"27":-0.6496547439868781,"28":1.7679567912930032,"29":0.5203330786225763,"30":0.729227022822532,"31":0.1889615713926136}},{"sx":4,"sy":4,"depth":2,"w":{"0":0.40522897475124736,"1":0.875857018437297,"2":0.08041081121524418,"3":-2.9448756765342923,"4":0.10356215349492344,"5":0.3996108004094221,"6":0.7504672192349198,"7":0.6811659720885516,"8":0.12173143970109362,"9":0.5068918017079229,"10":0.5021801024509848,"11":0.341212769101801,"12":-0.6480587128240779,"13":-1.792634967432762,"14":-0.05313828064001545,"15":-0.06923845237640983,"16":0.8335096546590263,"17":-1.0444564874315463,"18":-0.6585108643575416,"19":-0.6203490076990072,"20":-0.8203004840214321,"21":-0.41838632790159164,"22":-0.8443146633827788,"23":2.1134066501738116,"24":-0.879426837012502,"25":-1.722193630670764,"26":2.5492390606597484,"27":-0.16751954516017575,"28":-0.5735614596367754,"29":-0.7088885512787195,"30":-0.3891234978556646,"31":-0.28408142260177005}}],"biases":{"sx":1,"sy":1,"depth":32,"w":{"0":-2.7562399488511606,"1":-4.583219290175695,"2":-1.901937134229363,"3":-3.4591336755355053,"4":-0.9467595396708098,"5":-3.2329229723555444,"6":-2.7620284867064733,"7":-0.28945779218316176,"8":-4.482692326691754,"9":-2.700239015673625,"10":-2.710173464587307,"11":-0.4191351036863819,"12":-4.553409338109178,"13":-3.501726088924658,"14":-0.9884702612522673,"15":-1.0246248435909118,"16":-0.45351487710525434,"17":-2.2696964971498295,"18":-1.386435010388623,"19":-1.9954608181604205,"20":-2.7969063657665507,"21":-2.5395438053603083,"22":-2.792375343566176,"23":-4.232812746254668,"24":-2.6730741958528434,"25":-4.142759242339836,"26":-0.8297552086092551,"27":-4.145273009237641,"28":-1.7622057160039954,"29":-2.548878207991464,"30":-2.625737121590551,"31":-3.22081625461723}}},{"out_depth":32,"out_sx":8,"out_sy":7,"layer_type":"relu"},{"out_depth":60,"out_sx":1,"out_sy":1,"layer_type":"fc","num_inputs":1792,"l1_decay_mul":0,"l2_decay_mul":1,"filters":[{"sx":1,"sy":1,"depth":1792,"w":{"0":-0.02519284774296792,"1":-0.003671373307420049,"2":-0.041096254095340415,"3":0.00917413687133403,"4":0.007010877981939519,"5":0.05666989554722544,"6":0.0015377014724685116,"7":0.013921417347248503,"8":0.007370878353042235,"9":0.034851600225650675,"10":0.012972039613223256,"11":-0.022829718568214637,"12":-0.05251082708296856,"13":0.01973171610172317,"14":-0.004951809347147622,"15":0.3626863120095811,"16":0.317557140070953,"17":-0.070539034800094,"18":-0.008751860022529808,"19":0.06962624139213583,"20":-0.028571064254003478,"21":-0.011803491693644618,"22":0.01026428542764224,"23":-0.05171886409873925,"24":0.011304265958171604,"25":-0.003204375692887266,"26":0.00022091781083483151,"27":0.009611885903826875,"28":-0.03573445508339006,"29":-0.002060422800870828,"30":0.049318775435191954,"31":-0.0056815486215398715,"32":0.020544431887766734,"33":0.08759918403992963,"34":-0.1504320317488042,"35":-0.06163274940873404,"36":0.01252818961476844,"37":0.13585090700860347,"38":0.024934406591482376,"39":0.024756183969173604,"40":0.020080201517285987,"41":-0.2948643151717049,"42":-0.037593115023725567,"43":0.023283798056003464,"44":-0.1254935335073643,"45":-0.03796623637116204,"46":0.048375220524423945,"47":0.07146070548736143,"48":0.3749640533902455,"49":0.16662704002204012,"50":0.02290029994522868,"51":-0.1644987449990669,"52":0.02963072008863952,"53":-0.047205716854097794,"54":-0.004311083225531516,"55":0.14563414213563655,"56":0.006683527825278549,"57":-0.021864829694299523,"58":0.02258007629903805,"59":-0.004122333338384876,"60":-0.04045843565267407,"61":-0.025957185138310846,"62":0.18127476700011808,"63":-0.05470113110173792,"64":-0.03572443848145301,"65":-0.18706911850822214,"66":-0.6078194320161053,"67":-0.08679167122548229,"68":0.015845155388069684,"69":0.025810837546533398,"70":0.07640946068518178,"71":0.002929561176057577,"72":-0.06307473707559257,"73":0.14475556503585424,"74":-0.003628815458490239,"75":0.030420264975888154,"76":-0.048074612334609,"77":-0.08911645860214261,"78":-0.25298617912656707,"79":-0.039456066370357944,"80":-0.12400029628784791,"81":0.2560638843081399,"82":0.02436617359282168,"83":0.20422817419146702,"84":0.06540212061492524,"85":0.04132868357327783,"86":0.001774624534897255,"87":-0.23984125648769467,"88":0.04904170967538115,"89":-0.013929909813443702,"90":0.028651907462737783,"91":0.0580010083647672,"92":-0.012387721101212423,"93":0.11175534276600894,"94":0.03481094536014514,"95":0.05186015803811719,"96":0.03368012928942657,"97":0.2019051942597795,"98":-0.07540376846104149,"99":-0.6631969435383978,"100":-0.014979063816138642,"101":-0.11998746153028048,"102":-0.08839732689628993,"103":0.0311416528042365,"104":-0.055698670271572534,"105":0.0004988910131045282,"106":-0.05167366652184069,"107":-0.009591715377382078,"108":0.06575154457175637,"109":0.20049527273311554,"110":-0.08453239829016573,"111":-0.10064767727117203,"112":-0.9122187076316888,"113":0.04739090195218503,"114":-0.020117450137114013,"115":0.24174767139610498,"116":-0.03133080720524965,"117":-0.01247955409267351,"118":-0.05317580970475961,"119":0.1918032517918503,"120":-0.10202703531409385,"121":-0.06460871896201772,"122":-0.03227291700391633,"123":0.01914616529473684,"124":-0.013891893571122442,"125":0.044437578688259045,"126":0.07064664945598753,"127":0.3493400244548465,"128":0.00487765403589994,"129":0.11747344557128646,"130":0.14868681357783406,"131":-0.10958591277659462,"132":-0.04336819729945888,"133":-0.12417910209954597,"134":0.032574368748904126,"135":-0.014448229446388839,"136":-0.2327590477161799,"137":0.11721832644745236,"138":-0.003221263562034482,"139":-0.02097413548763189,"140":0.012353754532731201,"141":-0.08182194212873879,"142":-0.12611277876372518,"143":-0.5309053449756171,"144":-0.5195862043038941,"145":-0.25666184951812787,"146":-0.01462855896059362,"147":0.08174672748320844,"148":0.008232590667036275,"149":-0.07758095703343088,"150":-0.052457257538588146,"151":0.026278288973615282,"152":-0.06252076353998812,"153":0.14819268618170264,"154":0.01927597979712813,"155":-0.06528044776173392,"156":0.01764675725116219,"157":-0.22487078318361903,"158":-0.12082292567651128,"159":0.04621086779542111,"160":0.05030728398291674,"161":0.1785361784739289,"162":0.17272338048987862,"163":-0.4768679402320939,"164":-0.026361062606718142,"165":0.005756965320223729,"166":-0.04695408351898752,"167":0.01749888504377531,"168":0.0928028053518492,"169":-0.04893029774251925,"170":0.06244766787768366,"171":-0.03330448346748388,"172":-0.006015060995146173,"173":-0.022127976370219234,"174":0.09490646718267048,"175":-0.061925048830964426,"176":-0.30468157169390137,"177":0.14262131003873627,"178":-0.09059319844160828,"179":-0.3779719358638567,"180":-0.04331326291845185,"181":0.020790062777424997,"182":0.0024043722178717143,"183":-0.11503670597033823,"184":-0.14821429103066,"185":0.045941106525790865,"186":-0.03572225685966734,"187":0.019939174177413744,"188":0.019869336173673147,"189":-0.027732869208506372,"190":-0.06874834433522604,"191":-0.017472845831884746,"192":0.028107723796140044,"193":-0.1895313083452424,"194":0.14900966779510064,"195":0.7779397730014126,"196":-0.003150150191797412,"197":0.030548028303215773,"198":-0.04109088418987569,"199":-0.05388499008764154,"200":0.06314882059563008,"201":-0.06629968729282987,"202":-0.020708731903073454,"203":-0.019951817707463886,"204":0.06028327900572386,"205":-0.1583442463293089,"206":-0.016306748265241467,"207":-0.07588498141048523,"208":0.16363792914573544,"209":-0.004186116444762496,"210":0.048551336346590195,"211":-0.010876881425152788,"212":0.07236482321782102,"213":-0.014991737134157614,"214":-0.03948538210896285,"215":-0.1409460151331376,"216":0.11646200072295776,"217":-0.01816584526037545,"218":0.0034831616872571997,"219":0.011413371034601381,"220":0.04243226506958559,"221":0.125168542465833,"222":0.017820627879575678,"223":-0.14236822009296562,"224":-0.0516095591234249,"225":0.013547280996895103,"226":-0.0081042278948751,"227":-0.023974666626894462,"228":0.03132946591578588,"229":-0.013645908219589867,"230":-0.22098855379655466,"231":-0.03271615151206682,"232":0.03641378903109324,"233":-0.023118529191974175,"234":-0.05259099850822662,"235":0.04029723986775782,"236":-0.03531683091616863,"237":0.0033157193743990105,"238":0.014250205482529038,"239":-0.023802848511103376,"240":-0.0019404714956006237,"241":-0.0008859386403993557,"242":0.03167165596644207,"243":0.01205161665734803,"244":0.023004508759433908,"245":0.05873105163394328,"246":0.056978867372960186,"247":0.004964012471167023,"248":0.027155260546261786,"249":-0.008076200553745654,"250":-0.028168293175164567,"251":0.0072561523517317905,"252":0.051698243112472196,"253":0.03196920622593635,"254":0.011834475415780121,"255":-0.0024130445453706467,"256":0.0008061970480819977,"257":-0.012455924258292853,"258":0.019175216044741417,"259":0.17328662701718278,"260":0.026056820227478163,"261":-0.4411665701056482,"262":0.010255576112787919,"263":-0.009599232737899957,"264":-0.12107391034262742,"265":0.03081925961808513,"266":-0.012122067794285752,"267":-0.0028529642913547202,"268":-0.05149767344105233,"269":-0.012098545169224336,"270":-0.1079746254810507,"271":0.3417989456635403,"272":0.0902725657531705,"273":-0.35745730822049326,"274":0.017457998070397857,"275":0.058043560520371844,"276":0.049838941204559985,"277":-0.1111574430625146,"278":-0.00565844180821314,"279":-0.03222987900778776,"280":-0.09182627484046278,"281":-0.03146553794462508,"282":-0.0015756947149415136,"283":0.03859525503763182,"284":0.006223397224440683,"285":-0.012005669455095678,"286":-0.13299513011959374,"287":0.0197153296154765,"288":0.012154935968118766,"289":0.10144188771914465,"290":-0.07356880933216109,"291":-0.02667463889976614,"292":0.014828812575519415,"293":0.5485811313012561,"294":0.014893608985113185,"295":0.056747215906071666,"296":0.029213729921044065,"297":0.12706069773455642,"298":-0.008442284578294343,"299":-0.009008818553392643,"300":-0.3582421772119804,"301":0.08078952785177575,"302":-0.09074185279702275,"303":0.41003709443314684,"304":0.5213104381868485,"305":-0.042837893884466495,"306":0.04114821117623062,"307":-0.43056508006488503,"308":-0.7472750998654398,"309":0.06995942763856153,"310":-0.005636692621615441,"311":0.04924960846685956,"312":0.021164718174798546,"313":0.07637272906053294,"314":0.0033696876830759505,"315":0.04020160378645984,"316":-0.010560431089696535,"317":-0.038039732941732726,"318":-0.09406250246041802,"319":-0.12426809566749955,"320":0.00009937334536357393,"321":-0.3829293566789683,"322":-0.12756529820236928,"323":0.48490679966464717,"324":0.010790448061274115,"325":0.27370977784997663,"326":0.06857061841771195,"327":0.03266861055312201,"328":0.11024447162163033,"329":-0.07045847830410816,"330":0.029110258378526155,"331":0.06218641510525308,"332":-0.22568723259161502,"333":0.044248401771444866,"334":0.12930568828544842,"335":0.08054297540331866,"336":0.04133866455351064,"337":-0.472928464013753,"338":-0.029509278468487152,"339":0.31188870530203255,"340":-0.11327578805700997,"341":-0.4432710537264613,"342":0.18905399903636455,"343":0.2751578398799059,"344":0.03463668761045563,"345":-0.08069379137116521,"346":-0.01754396025459163,"347":0.3015949787803187,"348":0.027920459719619373,"349":0.334678581812782,"350":0.18152095948414954,"351":0.05717877876824296,"352":-0.01690184208887933,"353":0.14496694282966024,"354":-0.5335469740778231,"355":-0.2101217748592887,"356":0.00041667471445179315,"357":0.4278169760846488,"358":0.18929156230347746,"359":0.011202723970204165,"360":-0.48605109166943655,"361":-0.19995825170471748,"362":-0.01338184285460725,"363":-0.034951197864676556,"364":0.18694985825637497,"365":-0.13044730327321655,"366":-0.1480798675102321,"367":0.15899246595659927,"368":0.18901077298869842,"369":-0.2515068332843819,"370":0.08916712537648952,"371":-0.4266916247105048,"372":0.06910559375595006,"373":0.28091544071994656,"374":0.03314500405719236,"375":-0.1368467614560017,"376":-0.08392954040715539,"377":0.035872192865552835,"378":-0.021959446565877623,"379":-0.38856685610372943,"380":-0.08595138922506189,"381":0.11581441006992607,"382":0.2247401460366708,"383":0.03628220651970323,"384":-0.005939014889999606,"385":0.19658330780491506,"386":-0.21447384751504153,"387":-0.7072884468068877,"388":0.052750112253194696,"389":0.08224356264835878,"390":-0.37479231241168076,"391":-0.047083488897683434,"392":-0.04568231732328796,"393":-0.12737539381663732,"394":0.16329153699639898,"395":0.012190504357052987,"396":0.10974568303998442,"397":0.29188421925494384,"398":0.04090072860325925,"399":-0.2242503301497138,"400":-0.010597232919164278,"401":-0.26520387084426644,"402":-0.018853166211041775,"403":-0.1352084552946626,"404":0.013450290449839817,"405":-0.30360560768947065,"406":-0.011030176873581522,"407":0.21336677271722274,"408":-0.5408977393573348,"409":-0.07395551135301043,"410":-0.009687765398137288,"411":0.4258277161179714,"412":-0.0014618891728433085,"413":-0.14145235324703806,"414":0.2440763405087176,"415":-0.514165255795011,"416":-0.01845128541507166,"417":-0.31515090376767,"418":-0.02592540866633089,"419":0.040728206421800674,"420":-0.044399059115224425,"421":-0.41886234649753973,"422":-0.01349378021646211,"423":0.017975561425286946,"424":-0.05325092915090734,"425":0.10473951157255923,"426":-0.30975541606870116,"427":-0.07499414970489084,"428":0.11016316200084478,"429":-0.2641123822442463,"430":-0.16116459594002253,"431":0.06443881972776754,"432":-0.0070149512074812286,"433":0.10980598428493135,"434":-0.4295316188118497,"435":0.20872502474346538,"436":0.09431249050885167,"437":-0.07732181591821724,"438":-0.12504306285552547,"439":-0.24664871544191538,"440":-0.22854716166660807,"441":0.020541194752626092,"442":-0.06039436602836647,"443":-0.1180862842038138,"444":-0.02525221848743201,"445":-0.4089188743712215,"446":0.014236420117530369,"447":-0.19611614335681118,"448":-0.02379819405488605,"449":-0.15736961335985014,"450":-0.29192205410158595,"451":0.005163180576244191,"452":-0.019768559831154393,"453":0.03174986363769207,"454":-0.04325490059726927,"455":0.0028183098207072693,"456":0.4352422630530291,"457":-0.06404603718085708,"458":-0.24881669332297845,"459":0.042351271871533196,"460":0.007052213625524676,"461":0.25009432148199984,"462":0.11475890375623649,"463":-0.24090228479531875,"464":-0.32795453578000433,"465":0.006495622445022551,"466":0.11405458226216908,"467":-0.3036162050684279,"468":0.21052005761233647,"469":-0.03186504887759425,"470":0.06029103199137086,"471":0.025138727640778367,"472":-0.16592731622377072,"473":-0.21449546172421974,"474":0.057713569121365216,"475":-0.0036884549230255482,"476":0.008894555896053431,"477":-0.027192174027842783,"478":-0.0417306088590053,"479":-0.020424123955447144,"480":0.10623243670747032,"481":0.029993008769221802,"482":0.00841367301052992,"483":0.04517013073742022,"484":0.026438784651363043,"485":-0.05155109099083742,"486":0.1878359707953147,"487":-0.00200413458497019,"488":-0.380265599336221,"489":0.01791531094432619,"490":-0.04857713975177722,"491":-0.018622456538974177,"492":0.010997415892323297,"493":0.025730031255674947,"494":0.18771244790558775,"495":-0.025271092235850254,"496":-0.03876197784005305,"497":-0.014098648307882886,"498":-0.07892566578031407,"499":0.050323933013692396,"500":-0.036567325930429606,"501":-0.062426999500289966,"502":0.06065954084645105,"503":-0.09649167011385233,"504":0.015642912250438883,"505":0.02766828781125295,"506":-0.01335701811033473,"507":-0.07784452910176184,"508":-0.002178860620109683,"509":0.16355531479203572,"510":-0.007785192614541642,"511":0.03702093323542437,"512":0.0420153910838838,"513":-0.009562243168219454,"514":0.025974286232835493,"515":-0.051908857416037034,"516":0.011921077822002257,"517":-0.22833693012832065,"518":-0.038711330808052447,"519":0.05482729157507296,"520":0.059603521951200035,"521":-0.11417126735294708,"522":0.019545069903155493,"523":-0.011752991340132605,"524":-0.03355670155890516,"525":0.04823502027610926,"526":0.1785311110798702,"527":-0.3067027984342378,"528":0.012684863602066556,"529":-0.18423450422906604,"530":-0.03576935156549819,"531":0.06849290751898003,"532":-0.23502002113634254,"533":-0.12282931221179387,"534":-0.019726628567093358,"535":-0.0020179785018826515,"536":0.05129560894063909,"537":-0.050998223378313334,"538":-0.03665854172019435,"539":-0.04141872014215194,"540":0.018962313918472515,"541":-0.015202383732008032,"542":-0.7821940745724288,"543":-0.07482456854626111,"544":-0.0026045965334249204,"545":0.14430497713459606,"546":0.4902766661472636,"547":0.6148165362971163,"548":-0.0903395181574868,"549":-0.5920064759428724,"550":0.019581127160464614,"551":-0.07837662294490619,"552":-0.1054406981380889,"553":0.10882827243148278,"554":0.01849369735107352,"555":-0.014530300320661505,"556":-0.03932050984369939,"557":-0.23925158428338617,"558":-0.12532320765471414,"559":-0.5652794623874071,"560":-0.47621430833727596,"561":0.3256655368894951,"562":0.2358326702546224,"563":-0.137662735311519,"564":0.6046746002849346,"565":-0.28086133751048575,"566":-0.029975062623651013,"567":-0.18519803701207294,"568":0.035835241518264956,"569":0.07027593992003928,"570":-0.010907054748772885,"571":-0.11136127945716601,"572":-0.019095228681533183,"573":0.028209074352372538,"574":0.15023878404250737,"575":0.42417080248966393,"576":-0.039604280602557135,"577":-0.27744183298628244,"578":-0.3555748192168138,"579":-0.19863895152606123,"580":-0.04182069461257924,"581":0.544260762237174,"582":-0.3795628128189536,"583":-0.057118925985138014,"584":0.612240459926878,"585":-0.17690555279762735,"586":-0.30384638111142126,"587":0.025555881975946423,"588":-0.14889096656146342,"589":-0.20947296833137652,"590":-0.11214951342502134,"591":-0.26343185228747185,"592":0.07588585250546785,"593":0.19801089213957393,"594":0.28004636932318483,"595":-0.23703716690907772,"596":-1.2659050169223092,"597":0.19342663926780415,"598":-0.28891161975144025,"599":-0.13620002252510946,"600":-0.36301919311354264,"601":-0.18476296281632887,"602":0.034554602709725366,"603":-0.05554079355087147,"604":-0.006773608809583,"605":-0.45493056661346104,"606":0.10702825323240292,"607":0.29089060381849235,"608":-0.044671520359958326,"609":0.20890801125909184,"610":0.05852185858823551,"611":0.2229564956642147,"612":0.017304133602307547,"613":0.24650645035608065,"614":-0.062049664059473104,"615":0.006189509240006469,"616":-0.14632325630260679,"617":-0.15397713394053117,"618":0.34402792146081285,"619":0.045649604583408464,"620":-0.691806497184123,"621":-0.05530634086841989,"622":0.08186183554680605,"623":-0.3884935018122657,"624":-0.10152890558911519,"625":0.04130673433781946,"626":0.6210300624823332,"627":-0.2731510510761827,"628":0.05981745134451737,"629":-0.16573528205339202,"630":0.7768860559899874,"631":0.4512536667910746,"632":-0.32750104640683914,"633":-0.43094685415527145,"634":0.02419166965564949,"635":-0.2662492718488521,"636":0.43541538930039725,"637":0.09064095408389478,"638":0.3818267051629198,"639":0.040221858982376436,"640":0.2513386649018484,"641":0.2715678292377058,"642":-0.6932803939623333,"643":-0.016838183957130354,"644":0.18654961582346416,"645":0.04429424130314487,"646":0.14561782222550285,"647":0.029236315189066737,"648":-0.881719547155061,"649":0.49706771735523303,"650":-0.007400294302854073,"651":-0.021099830771321295,"652":-0.16973333890767836,"653":-0.3122384266852395,"654":-0.23636353743900143,"655":0.045396265205409514,"656":0.16011617365952657,"657":0.004570048335224387,"658":-0.08517648575509446,"659":0.13418498194156148,"660":-0.02353934798014659,"661":0.7258486052327385,"662":-0.1223865084566541,"663":-0.39593764850629476,"664":-0.1951608428151115,"665":0.39629587471838773,"666":0.023396783129273627,"667":-0.5462476194423852,"668":-0.09069185326900615,"669":-0.09780488300699733,"670":-0.28226777060653935,"671":-0.03273047125367126,"672":-0.1745993704980475,"673":0.056871357281102174,"674":-0.12804666701968379,"675":-0.05768133248369019,"676":0.04051633982390092,"677":0.034781163301958656,"678":-0.351253765922589,"679":0.014744161010888225,"680":0.11246894289207997,"681":0.23034244078141727,"682":0.05708850020626139,"683":-0.018211050906626475,"684":0.16205118484822703,"685":0.42991224960677565,"686":0.14565206202674122,"687":0.04852897611161923,"688":-0.00738814935015285,"689":0.030387381847813477,"690":0.08398721747222979,"691":0.45545334169273266,"692":0.22901636937474945,"693":0.19217919037190956,"694":-0.2459814924233346,"695":0.3342462209091218,"696":0.08617046764843496,"697":-0.07246384650920075,"698":-0.031683312768966965,"699":-0.0801647218465963,"700":-0.11279578125803334,"701":-0.10912244136044615,"702":-0.07249428611614023,"703":0.05617110868139532,"704":-0.23379600037422968,"705":0.08855403384870053,"706":-0.20427458311252308,"707":-0.07675089015436036,"708":0.023835064034010738,"709":-0.025200064903466806,"710":0.14914589182462093,"711":-0.022516291082777702,"712":0.09052345735904599,"713":0.12422931951187628,"714":-0.7381968889233873,"715":-0.010418338161827159,"716":0.04538707253246562,"717":-0.11594888486600907,"718":0.03573971641613748,"719":0.07599834505960808,"720":-0.07508730964060342,"721":0.05513684965755127,"722":0.00006662320625817185,"723":-0.16358704081927353,"724":0.037076161679566594,"725":0.0025919186022568637,"726":-0.18786637020442404,"727":-0.019772283344858217,"728":0.10321610808164147,"729":0.28533945285133633,"730":0.07364218069751631,"731":-0.03393843014672944,"732":-0.20963161614986356,"733":0.07478437078473263,"734":0.006520527786896597,"735":0.23706175303766977,"736":-1.1519564795504271,"737":0.01056561118355817,"738":-0.017118843086653023,"739":-0.058732163897924634,"740":0.013207537143495459,"741":-0.05628523932484818,"742":-0.026262364842958904,"743":-0.03790551077231475,"744":0.4769552085934267,"745":0.009180316505701525,"746":-0.027796407914163792,"747":-0.034085663855122565,"748":0.020458054500224587,"749":-0.017699054796645415,"750":0.11164369661216801,"751":-0.008855659572703473,"752":0.00646943812829824,"753":-0.015815875600024613,"754":0.02259239383214114,"755":0.048832103515320885,"756":-0.0008716797293536012,"757":-0.00898704943698851,"758":0.033327075598354836,"759":0.11026772982106543,"760":-0.19817088442459443,"761":-0.05789952179556784,"762":0.051238829936665356,"763":0.21436491170788075,"764":-0.27573873711155605,"765":0.09785001506701832,"766":-0.014291757658484854,"767":-0.061342759688645124,"768":0.030661544876526933,"769":0.03937023873553977,"770":0.0625016775882652,"771":-0.08862740526028404,"772":-0.250589054278644,"773":0.2603186028197002,"774":0.03547516600222881,"775":-0.04140177199767817,"776":0.13855394395446857,"777":0.21545001561800808,"778":-0.029576291938732402,"779":0.03322147623339989,"780":0.12219471585745136,"781":-0.017621684626883256,"782":0.07896246403071089,"783":0.10871018402174189,"784":0.5716948609702772,"785":0.0014268526819144198,"786":-0.019686544928086608,"787":0.1169326609828602,"788":-0.2068053458930507,"789":-0.38830439786147763,"790":-0.03507752377915657,"791":0.03339473684616054,"792":-0.09476331893200998,"793":0.05352425938912166,"794":-0.0350204677201691,"795":-0.1343008025596443,"796":-0.014688161347930714,"797":-0.021331178401277878,"798":-0.371649255999618,"799":0.07505140132520538,"800":-0.04718460688620879,"801":-0.07612983603466823,"802":-0.1470617278067388,"803":-0.13603006941421716,"804":0.11617057569263102,"805":0.3494748496556878,"806":0.020314992229143906,"807":0.01018874442016365,"808":0.15519170194316637,"809":0.3243825040363691,"810":0.030911594876982605,"811":-0.03215007993563346,"812":0.3327691641094341,"813":0.06905767504728189,"814":0.04499108403683565,"815":-0.10289027477005115,"816":-0.4780025762650928,"817":-0.009947776865991189,"818":0.3510514512129931,"819":-0.12863896389612178,"820":0.12593294455574777,"821":-0.3179853118921128,"822":-0.09261270221595719,"823":0.4536920657873287,"824":-0.000029351902905049562,"825":-0.02128638036997127,"826":0.026662778916794683,"827":0.2105736193812832,"828":0.0015886514744586323,"829":0.011036963950959117,"830":-0.20934146950917917,"831":0.009614029131542072,"832":0.1669701725408239,"833":-0.23297150502171066,"834":0.08564634151295562,"835":0.07636254280663993,"836":0.022740969580032657,"837":-0.2298511957806109,"838":0.134012625942341,"839":0.029684350635867045,"840":0.18249055092423325,"841":-0.14170954741505956,"842":-0.14181991119874543,"843":0.002855217407750114,"844":0.2777225690613406,"845":0.05399258948595335,"846":-0.12237482550775738,"847":-0.05462793542592506,"848":0.16320762635477215,"849":-0.06816605560017705,"850":-0.08076557066249254,"851":0.3191440419994797,"852":-0.009373778387662528,"853":-0.5510713412796351,"854":0.16329239541720827,"855":0.2701094069888606,"856":-0.7868283627871239,"857":-0.18971716355342377,"858":0.09624143258810788,"859":-0.020935154740536144,"860":0.062252596964592476,"861":0.005049194659647643,"862":-0.23501912465878547,"863":-0.012783450913230326,"864":0.13791265142916914,"865":-0.30874058880619615,"866":-0.24613718620335995,"867":-0.23234467434032838,"868":-0.06460564824902745,"869":-0.019009889381835326,"870":-0.5312528595933927,"871":-0.027574226086409276,"872":0.6529700530646163,"873":-0.17271330693569556,"874":-0.15238336197197047,"875":0.028907614297621426,"876":0.21424952413632906,"877":-0.2059845265979859,"878":-0.11843158129121961,"879":0.20476751061905396,"880":-0.027204494688888362,"881":0.22253791592053693,"882":0.0031783066171142934,"883":-0.26352190345621945,"884":-0.160374052861294,"885":0.08257766329442236,"886":-0.3292416019934237,"887":-0.022154387957532412,"888":-0.4737399495953708,"889":-0.2156228646645547,"890":0.055728996774419004,"891":0.4373197230483086,"892":-0.15906019838370658,"893":-0.18600521177190235,"894":-0.14556433262015445,"895":-0.002639424878285976,"896":0.8055334454209754,"897":-0.08148779835363902,"898":-0.0027394019177401437,"899":0.1839976559238118,"900":-0.1353279213510958,"901":-0.09514243859573247,"902":-0.024036879985854638,"903":-0.012753293909142163,"904":-0.3655943464466879,"905":-0.1917159015817134,"906":-0.024501939994215294,"907":0.004236117918040509,"908":0.007836253749063778,"909":0.08268116472636367,"910":0.268763236778428,"911":-0.011908210604220806,"912":-0.03636395793305226,"913":0.042211178936577456,"914":0.07928216315683537,"915":-0.03575509369865901,"916":-0.0003847682256936326,"917":-0.2333200923678428,"918":0.3240339051417139,"919":-0.039453996992605884,"920":-0.13922683345632386,"921":-1.1370036503624605,"922":0.0282500179343675,"923":-0.7368312519750503,"924":0.034241900328968615,"925":-0.032261935706517336,"926":0.35543641988140806,"927":0.022318776588857975,"928":0.4830865682889291,"929":0.019546983380952575,"930":-0.053025695290064,"931":0.1965558234050063,"932":0.04278213835462962,"933":0.1186816065745005,"934":-0.026597635153450157,"935":0.025299910527272845,"936":-0.3690908318803827,"937":0.026978964097322027,"938":-0.22986763846760863,"939":0.015045571690963343,"940":0.07339580852000444,"941":-0.04892235491834742,"942":-0.9942787123403746,"943":-0.012829257338825412,"944":-0.21920317411674556,"945":-0.35737781803816365,"946":0.35077608472510907,"947":-0.3409479682565579,"948":-0.01956698457595573,"949":0.006636273790031049,"950":-0.37706506454183203,"951":-0.10337127243702995,"952":0.067328678503762,"953":0.06683350324785851,"954":-0.07056753392893025,"955":-0.4782805685101702,"956":0.13653444864357872,"957":-0.030973633132510687,"958":0.04857567385510031,"959":-0.20245389548517123,"960":-0.4914195528243907,"961":0.33194562037093295,"962":0.04992189774771781,"963":-0.09283088143060512,"964":-0.02040465778608904,"965":-0.09063719549101293,"966":-0.018136565047717216,"967":0.04922818509438355,"968":-0.12427998929120597,"969":0.09507145061219889,"970":0.1123024518102243,"971":-0.05337931643764831,"972":0.03548894418397162,"973":0.09435847106874222,"974":0.1383623806291878,"975":0.09019743711984449,"976":-0.45733312546458793,"977":-0.04318946018113105,"978":-0.20470668270178327,"979":0.510056880090799,"980":-0.14248529102888832,"981":-0.005694044147945054,"982":0.07806853383298988,"983":0.03991409756718854,"984":-0.1634881875726016,"985":0.0902358467703425,"986":0.05455490165114852,"987":-0.04870326835282889,"988":-0.18957866173012058,"989":0.3018353741695633,"990":-0.013296210437836626,"991":0.15903179011646892,"992":0.10704458085481977,"993":-0.0361883904077164,"994":-0.0064756462476130506,"995":-0.023219093941935914,"996":0.02802165290928764,"997":-0.10009270254649008,"998":-0.003452240960789333,"999":0.026492360607395744,"1000":-0.5045864670586924,"1001":-0.022552495129620518,"1002":-0.22276159166711942,"1003":-0.056404887854432116,"1004":0.012049990458284629,"1005":-0.012782364261554638,"1006":0.185033623973233,"1007":-0.050915211082529596,"1008":0.04833517264978576,"1009":0.046280346547693,"1010":-0.25362178400781327,"1011":0.07981776611062559,"1012":-0.025238596984617515,"1013":-0.00903429928702199,"1014":0.017806990029697316,"1015":0.01035919115994002,"1016":-0.13142766017090024,"1017":0.07146742882235102,"1018":-0.006277269579932679,"1019":0.5924767835646108,"1020":0.05807414099673447,"1021":-0.5734166453167661,"1022":0.00919020704038399,"1023":-0.03813674946645803,"1024":0.025996781187757556,"1025":0.07003462401229153,"1026":-0.042724458321936755,"1027":0.0006841228350017502,"1028":0.0810372862287593,"1029":0.4819794579120779,"1030":-0.04665667928680372,"1031":-0.02059678546771077,"1032":0.07922063796820189,"1033":-0.023636529429973168,"1034":0.049842192982630144,"1035":0.002681421787599497,"1036":0.09682801208430486,"1037":-0.03546246162715042,"1038":-0.23743701583797064,"1039":-0.04260738312432374,"1040":0.05579702435738241,"1041":-0.15587687478356468,"1042":0.10400695782277584,"1043":0.07935245243126468,"1044":-0.16455017713097816,"1045":-0.06565628265448056,"1046":0.048477608067435916,"1047":-0.04352721268093787,"1048":0.11924558409233181,"1049":0.17121734539740455,"1050":0.012106538980304218,"1051":0.02700180074128034,"1052":0.004523829033268893,"1053":-0.01239403015601482,"1054":0.29515973353064767,"1055":-0.030326478170684974,"1056":0.00798998257906664,"1057":0.034195627798534356,"1058":0.023196202610149885,"1059":0.243442944126011,"1060":0.027800749455321624,"1061":0.030669244995770124,"1062":-0.031100902324448985,"1063":-0.006698616647184406,"1064":-0.221359241389955,"1065":-0.06595111399464633,"1066":-0.02775460252652292,"1067":-0.025174891560967725,"1068":-0.015996093967640193,"1069":-0.09053886906391831,"1070":-0.004236889594172558,"1071":-0.01770341959321256,"1072":-0.12300431567872484,"1073":0.1385951383722541,"1074":-0.050592741868205796,"1075":1.097499832202678,"1076":0.06664762168242867,"1077":0.18189969297834602,"1078":-0.20742886383964595,"1079":-0.004742365208387338,"1080":0.17122587259248276,"1081":-0.12983907153293375,"1082":-0.03882081891707876,"1083":-0.03871538160431351,"1084":0.03628297108868236,"1085":0.03720872410356265,"1086":-0.06599408846135375,"1087":-0.11189194091052333,"1088":-0.2685564545676796,"1089":-0.4828928783148259,"1090":-0.03687563711257166,"1091":0.08383135616215379,"1092":-0.1391702614643056,"1093":-0.005863175886188937,"1094":-0.03468241438304862,"1095":-0.023475792818132682,"1096":-0.09421612855471619,"1097":-0.10024565696636871,"1098":0.3367777670452802,"1099":0.00738188650557464,"1100":-0.2018563570629626,"1101":-0.05828218786006668,"1102":0.37442941021484544,"1103":-0.02969044070101795,"1104":-0.2258686277026404,"1105":-0.6778823489027946,"1106":-0.2817296412839642,"1107":-0.07810307296356554,"1108":0.17410682184489829,"1109":-0.24870565705457115,"1110":0.035188729614350704,"1111":0.08404181415316446,"1112":0.16215631344167555,"1113":1.037474656464952,"1114":0.032414945663132855,"1115":0.5117677471904858,"1116":-0.4585180049710533,"1117":0.1029436691189079,"1118":-0.27908233373884167,"1119":-0.07056761762350104,"1120":0.28715072704418326,"1121":0.13663665093049182,"1122":-0.04698413647947316,"1123":0.6415731692347468,"1124":-0.012437974882976533,"1125":-0.533295184018535,"1126":0.008021137358354781,"1127":-0.04851730520668813,"1128":-0.332546180081481,"1129":0.15692020209639568,"1130":-0.4470896928189889,"1131":0.055840841895866446,"1132":-0.027746516483988903,"1133":-0.053445756639976666,"1134":0.34572535531879,"1135":-0.09721697127820754,"1136":0.031860191350121796,"1137":-0.0980019708773729,"1138":-0.026943893909378666,"1139":0.27063458883586544,"1140":0.04770641516811794,"1141":0.06132460856852367,"1142":0.0548564746865904,"1143":-0.1062558428155901,"1144":0.13901216086680768,"1145":-0.16919063971445816,"1146":0.0009666308870110581,"1147":0.33595140665961765,"1148":0.009351804414275793,"1149":0.036275225855727955,"1150":-0.4956329941347846,"1151":0.1818142416220232,"1152":-0.03988077094779675,"1153":-0.3500568409948195,"1154":-0.07779899436699045,"1155":-0.3409293906581861,"1156":0.014465484126591625,"1157":0.29547361091105445,"1158":-0.0024526070681422235,"1159":0.010298779222851674,"1160":0.08680036518266622,"1161":0.061193010011374636,"1162":-0.061124343808595175,"1163":-0.0010786408198127906,"1164":-0.16628137296454937,"1165":-0.04240398704818419,"1166":0.06651287696603932,"1167":-0.2119178819012782,"1168":0.604094889456095,"1169":-0.29995932330155056,"1170":-0.5038300574588793,"1171":-0.8842457841175587,"1172":-0.20050907107027705,"1173":0.010530440059349909,"1174":0.021336504051542513,"1175":0.01892957639392103,"1176":0.05725491028640444,"1177":0.47958554291823957,"1178":-0.06181851029122048,"1179":-0.27887505665402806,"1180":0.21874120782606146,"1181":-0.07695425626444248,"1182":-0.32018266939851653,"1183":0.19836917575429583,"1184":-0.004607035206329701,"1185":0.05093081460814344,"1186":-0.001560122219406742,"1187":0.4009319819327559,"1188":0.008047992364401837,"1189":0.2874898167445691,"1190":-0.0338561678941458,"1191":0.00782668631332615,"1192":0.0005219438362802029,"1193":-0.09061718880814762,"1194":0.5386473537147384,"1195":-0.01087086515401228,"1196":-0.10816965612183499,"1197":0.0313855989180053,"1198":0.034680057237416864,"1199":-0.03218590185370548,"1200":0.27919317455446235,"1201":0.10860749258220724,"1202":-0.3373803644515848,"1203":0.41382438510507125,"1204":-0.20200146077685013,"1205":-0.382862035373796,"1206":0.20629993629294827,"1207":0.09823465890287741,"1208":-0.11181662699253685,"1209":-0.12278894326254663,"1210":-0.04401544420373254,"1211":-0.07617394365444342,"1212":0.5833086493083656,"1213":0.1657412251760637,"1214":0.09579207981916446,"1215":-0.12281702475934218,"1216":0.21471906990827455,"1217":-0.03133437296402812,"1218":-0.4449665086569743,"1219":-0.28355291359086476,"1220":-0.03276986195030045,"1221":0.03811606021505447,"1222":0.0763326439075276,"1223":0.030220384992343072,"1224":-0.100990907753236,"1225":0.06968099871481598,"1226":0.20964172009500406,"1227":-0.013491322497879803,"1228":0.007838673356405843,"1229":-0.2148752876884015,"1230":-0.006538447830025496,"1231":-0.14872627328928542,"1232":0.28774110019886007,"1233":-0.019266957787195647,"1234":0.28944162080238756,"1235":0.021537360619597122,"1236":-0.10931907393045849,"1237":0.06167157749323565,"1238":0.1680515489106384,"1239":-0.3685737996889922,"1240":-0.18039265045331723,"1241":-0.4370529418597943,"1242":-0.014481663024614799,"1243":-0.2338637336867266,"1244":0.035504226336883965,"1245":-0.1554263725924496,"1246":-0.010445807631504761,"1247":-0.33720659678790665,"1248":0.03284588407008333,"1249":0.008779136720470256,"1250":0.006674162379621081,"1251":0.026868414763361912,"1252":0.0405170019202136,"1253":-0.03806164086449873,"1254":-0.2736971417649272,"1255":-0.013088486321556422,"1256":0.005964856401028618,"1257":-0.01892143448015393,"1258":0.01409547142030204,"1259":-0.0005546343423585904,"1260":-0.0420471236176646,"1261":0.020179402434284927,"1262":-0.015817074983291594,"1263":0.10702311213558685,"1264":-0.006041812033918283,"1265":0.0035702391355768117,"1266":0.06307314341655301,"1267":0.03732025645785093,"1268":-0.03210548795464132,"1269":-0.022716758748820932,"1270":-0.0057044439858662845,"1271":0.019082248038197986,"1272":-0.37758440393285475,"1273":-0.1125812311808022,"1274":-0.000021824523802004713,"1275":-0.2184683134461262,"1276":0.05095312069808392,"1277":0.05378959274247781,"1278":-0.014191216668317703,"1279":-0.050605991867311996,"1280":0.04868077078180814,"1281":0.04657953213815011,"1282":-0.11446191055533868,"1283":0.02690172812720988,"1284":-0.01829466949830164,"1285":0.3571512999620776,"1286":-0.023640537929576808,"1287":-0.011675618896456161,"1288":-0.27886651029428977,"1289":0.13367056605780492,"1290":-0.003777094964173383,"1291":0.011544823690819377,"1292":0.10188009787657666,"1293":0.024379531270946237,"1294":-0.3278562482222718,"1295":0.1578300738875412,"1296":-0.2508167631314944,"1297":-0.3437603202016598,"1298":0.0039031232985282274,"1299":0.05052282050550792,"1300":0.2137797029635784,"1301":-0.1557909694240335,"1302":-0.023427060205693174,"1303":0.033988045232184204,"1304":0.02954208783587457,"1305":-0.20662420300345574,"1306":0.005868853901875332,"1307":-0.05738239146393098,"1308":0.01044507080321366,"1309":-0.035560809295920794,"1310":0.9333398255165439,"1311":-0.08740914496649298,"1312":0.02874883198941782,"1313":0.030976717544927354,"1314":0.008217483115703793,"1315":-0.9897149590549894,"1316":0.0657679045119769,"1317":0.1959260959988082,"1318":-0.0044192634449697,"1319":0.02841984802603035,"1320":-0.03894919748651102,"1321":-0.030360140730582335,"1322":0.17733506410545077,"1323":-0.019394752463516313,"1324":-0.09749262736782106,"1325":0.603972664906192,"1326":-0.0894549963063378,"1327":-0.13111938479920282,"1328":-0.7475463163973164,"1329":0.02398505508612656,"1330":-0.0489337695436276,"1331":-0.033891419391195984,"1332":0.27146098081578646,"1333":0.13065007001303036,"1334":0.06893337332238963,"1335":0.3277800429991618,"1336":-0.06654396981936447,"1337":-0.13540328625396686,"1338":-0.01829037479372463,"1339":0.09828111088620274,"1340":-0.28500274995272235,"1341":0.12947028132278113,"1342":-0.030149651361693338,"1343":-0.5053913261521856,"1344":-0.4706589182147393,"1345":-0.781234137466667,"1346":0.0457054890033702,"1347":-0.29993251327650244,"1348":0.00470593900186857,"1349":-0.15100319297932513,"1350":0.4246490545219517,"1351":-0.048169925531137706,"1352":-0.14409556116545277,"1353":0.050682026941555616,"1354":-0.6670082163755074,"1355":0.059194490484739425,"1356":-0.08218154992944281,"1357":0.4330308471778074,"1358":0.6843862510173092,"1359":-0.3439425551504731,"1360":-0.6194785039476624,"1361":-0.5361223325750143,"1362":-0.28826482724995367,"1363":-0.1419229085385805,"1364":-0.21791262717154347,"1365":-0.19200924124833155,"1366":-0.16868648845720965,"1367":0.16616583623973624,"1368":-0.22081692325862604,"1369":-0.13508094941445753,"1370":-0.006157717182376823,"1371":-0.10579618581757999,"1372":-0.8181125305533131,"1373":-0.06071810184266789,"1374":-0.33883425212310925,"1375":-0.4820401576324132,"1376":-0.6447692898175857,"1377":-0.13203269556375222,"1378":-0.6367729534286006,"1379":-0.25427298525078845,"1380":0.017734987301008462,"1381":-0.06961599689965886,"1382":0.040583294802965186,"1383":0.055089690146793206,"1384":0.5968322305514101,"1385":-0.24575388878721452,"1386":-0.5472693150066535,"1387":-0.005444463288683431,"1388":0.2809313210906514,"1389":0.10020748577146572,"1390":0.23805152559873935,"1391":-0.45510646355603823,"1392":-0.061379115997607876,"1393":-0.05454043184812256,"1394":-0.46560250794570124,"1395":0.23773925333990228,"1396":0.2588648035305848,"1397":-0.10897717614376658,"1398":0.2705934644248671,"1399":-0.4395790551913981,"1400":-0.19078483698919152,"1401":-0.4400758979531168,"1402":-0.0030618447680434563,"1403":0.40481550478406864,"1404":-1.276505227349877,"1405":0.039851417088196735,"1406":-0.7102788397093548,"1407":-0.5994887550314322,"1408":0.14138987229165653,"1409":-0.26206366512890306,"1410":0.14699250434761477,"1411":0.3679114086544081,"1412":0.04985678862363243,"1413":-0.8532262673940352,"1414":-0.2284741592018324,"1415":-0.005957670239284994,"1416":-0.04165053959982184,"1417":-0.3809046655717168,"1418":-0.09011649553943232,"1419":0.019410577614561858,"1420":0.09585733863629571,"1421":-0.18613582767853085,"1422":0.17476726531299025,"1423":-0.7168416176924327,"1424":0.3061184988875588,"1425":0.07088308712517995,"1426":-0.20093291336096017,"1427":0.3358621014876736,"1428":-0.1362567811539526,"1429":-0.3172923789854919,"1430":-0.23382505410923848,"1431":-0.14496465480567075,"1432":-0.6840480299578401,"1433":-0.12707976835546864,"1434":0.049186293477896895,"1435":-0.37928483784070915,"1436":0.04680078694656682,"1437":0.12458236397099587,"1438":-0.30932696892114236,"1439":0.3349633535455177,"1440":-0.13341453625101418,"1441":-0.07907537578917452,"1442":0.05655324329743014,"1443":-0.20796354241704046,"1444":0.048399347314325464,"1445":0.6702184530213566,"1446":-0.3592715602908408,"1447":-0.06155494491043713,"1448":0.07138742576722558,"1449":0.1739112278920168,"1450":-0.06586939549801665,"1451":0.08920333240222994,"1452":-0.3431968226029393,"1453":-0.07354959629069953,"1454":-0.34318565645189736,"1455":-0.07200157959664255,"1456":-0.08157305528155112,"1457":0.011222853919089998,"1458":0.2538833840948006,"1459":-0.37791868112623334,"1460":-1.6746388678186588,"1461":0.10188408487047704,"1462":-0.3175242387906856,"1463":-0.0393338663247919,"1464":-0.010891026777513788,"1465":0.20264953800025942,"1466":-0.027788906584070034,"1467":0.08008185640379933,"1468":0.05659426393163783,"1469":-0.4170179703760319,"1470":-0.421904481687413,"1471":0.37654468824289644,"1472":0.1041125730486535,"1473":-0.30727589891540197,"1474":0.1817984316803972,"1475":0.5074470931718299,"1476":-0.023281286718547033,"1477":-0.03999894381937855,"1478":0.10887935876977899,"1479":0.027891981370511913,"1480":0.5052451967773496,"1481":0.032682700686086016,"1482":0.15900118558640963,"1483":-0.050097494001697176,"1484":0.023946778644944405,"1485":-0.21279987796200417,"1486":-0.09295097494738129,"1487":-0.03407604991020107,"1488":-0.21165998351239734,"1489":0.02962722532367447,"1490":0.17584175746925904,"1491":0.256367707437569,"1492":0.11749455108633748,"1493":-0.05633085064901969,"1494":0.21223435354139658,"1495":-0.24471121717738034,"1496":-0.025656364832181137,"1497":-0.10708044534796421,"1498":0.012397350463556304,"1499":0.01775357255469642,"1500":0.2525182201960254,"1501":0.1617705515643651,"1502":0.012986186102562825,"1503":-0.26394275015634805,"1504":-0.1451912731197609,"1505":0.009558860051681647,"1506":-0.005896687873596814,"1507":0.05496124300511207,"1508":0.03398738614931299,"1509":0.0100371598557673,"1510":-0.03177912325871869,"1511":0.028660206276510593,"1512":-0.880765350497539,"1513":0.05197737026271537,"1514":0.035658563839316045,"1515":0.059872464432738325,"1516":-0.06775868441986031,"1517":0.002440342327967353,"1518":-0.14861885737535308,"1519":-0.1220282359632029,"1520":-0.003179823716849662,"1521":-0.022489591902167445,"1522":0.1314116661126476,"1523":-0.014495215494558244,"1524":0.01288599186802977,"1525":0.01640281743825173,"1526":0.004686857092753876,"1527":0.018982362605709263,"1528":-0.10913708016535767,"1529":0.06217093513497416,"1530":-0.0077709609287851976,"1531":-0.3978758285079229,"1532":-0.04578415206893262,"1533":-0.6256426058739379,"1534":0.009119390587844936,"1535":0.0005831600634867762,"1536":0.013880295128438625,"1537":-0.05784950818860028,"1538":0.017349991327234117,"1539":0.001841481352732018,"1540":0.01849466283559758,"1541":0.026049064062777256,"1542":-0.032399349011830926,"1543":0.009705130996989504,"1544":0.056128475879660245,"1545":-0.24519264214781858,"1546":-0.03811711590562357,"1547":-0.008604486583597297,"1548":-0.238789441451691,"1549":-0.02319021323364547,"1550":-0.0000559293542530436,"1551":0.00972138719692441,"1552":0.02787376680127876,"1553":0.004242928825985439,"1554":1.0645688913489437,"1555":0.15872449521138207,"1556":-0.1973130522237411,"1557":0.04301799263655687,"1558":-0.003926652042662179,"1559":-0.026548538647014102,"1560":-0.06482446327600298,"1561":0.0434675992024524,"1562":-0.0029022686636916237,"1563":-0.0053786021453280115,"1564":-0.004767317156715952,"1565":0.016210179472087433,"1566":0.2827691722048067,"1567":-0.0500356032805872,"1568":-0.00864515213791307,"1569":0.04197225538458848,"1570":-0.5978329422017331,"1571":-0.0552160596521278,"1572":0.20318818624365217,"1573":0.050129759834387784,"1574":0.014588338179121396,"1575":0.032436272248003585,"1576":-0.053173982719587676,"1577":0.5487136972083752,"1578":-0.013730191620265456,"1579":-0.023533716969657798,"1580":-0.3303676453877787,"1581":-1.0646329985636187,"1582":-0.021469665097837175,"1583":-0.15693433250251826,"1584":0.2623289516929276,"1585":0.002597955635234015,"1586":0.355284820536996,"1587":-0.07423506056160495,"1588":-0.1457665482657101,"1589":0.44342605673719265,"1590":0.06284196900264523,"1591":-0.7154719373976391,"1592":0.13296281928081718,"1593":0.21744973387284974,"1594":0.04036164487930332,"1595":0.048734861753464476,"1596":0.08054651791416088,"1597":0.048585751611805235,"1598":0.06104421437150598,"1599":0.00007881369334798702,"1600":-0.1317031225599147,"1601":0.28289643710105156,"1602":-0.30672224311699325,"1603":-0.01016109128101355,"1604":0.2447805982338707,"1605":-0.26841955922686495,"1606":-0.04241612528815092,"1607":-0.012175077239604712,"1608":0.09584142635533655,"1609":0.4650183193540714,"1610":0.18773960227926545,"1611":-0.009561853497982397,"1612":-0.692071806308492,"1613":0.7785905174595441,"1614":0.09386280447365634,"1615":0.5402037343405707,"1616":-0.024855696150664994,"1617":-0.002756519718858506,"1618":0.016054683577979116,"1619":0.07990010771496034,"1620":-0.12839544303292483,"1621":0.04357329833725651,"1622":0.12579871937577533,"1623":0.9155770094767434,"1624":0.08067562776217205,"1625":0.5433808139734816,"1626":-0.001021843291278362,"1627":0.2777351610379791,"1628":0.09321089106798988,"1629":0.015325775056206614,"1630":0.08305735856629158,"1631":-0.01595730523588506,"1632":-0.022248563268340075,"1633":0.291938670654347,"1634":0.2078098598308227,"1635":0.11801349146896489,"1636":-0.06384932131290286,"1637":-0.01589901284423394,"1638":0.07481790101936606,"1639":0.027499896420681486,"1640":0.22427101303981814,"1641":0.10848256491161666,"1642":-0.095873857378727,"1643":0.0491743686817518,"1644":-0.7500255741959793,"1645":0.2625219752552321,"1646":-0.04887111550318653,"1647":-0.04842444781803491,"1648":-0.4092655404965289,"1649":0.05954621049743219,"1650":-0.7107134337771706,"1651":-0.06363373259947448,"1652":0.6764109587795943,"1653":-0.3862881771575612,"1654":-0.4212036400335128,"1655":-0.16820193051091642,"1656":-0.5142024653269244,"1657":0.2441600202176358,"1658":0.016937597029624826,"1659":0.01891753802019354,"1660":-0.34772512737781297,"1661":-0.019661880018900974,"1662":-0.11514033328682038,"1663":0.04240114672477551,"1664":-0.879589110958492,"1665":0.21926086724510038,"1666":0.3114254721880122,"1667":0.08673063927965886,"1668":0.10161427430223041,"1669":-0.4299705940293591,"1670":-0.21793018090419625,"1671":0.032297952526954665,"1672":0.7854584443825251,"1673":-0.2302360480997173,"1674":-0.01842304234151943,"1675":0.014330550897464345,"1676":0.27819584972357897,"1677":0.35409683325711294,"1678":0.0314773678902514,"1679":0.25914758039965824,"1680":-0.554027973272623,"1681":-0.02460583277587055,"1682":-0.09951199630864123,"1683":0.024790282828712155,"1684":0.14267929098088436,"1685":0.0000015580895996646115,"1686":-0.10320065170919358,"1687":-0.1413608803109979,"1688":0.006359068813085493,"1689":-0.5985269924730111,"1690":0.029524882404524465,"1691":0.44100276074822753,"1692":-0.061651449705860395,"1693":0.05151847323003531,"1694":-0.02880311529800599,"1695":0.04125495776201028,"1696":-0.05708277366387431,"1697":-0.08852607625355045,"1698":0.840410863103121,"1699":0.01781251703692966,"1700":0.09257375714758859,"1701":-0.11600199585153492,"1702":-0.17239719692431268,"1703":-0.012637780344340124,"1704":0.05510462604601703,"1705":-0.3690105355877077,"1706":0.06484765393561925,"1707":0.038011119649621526,"1708":0.2408015823056474,"1709":-0.7713204026521817,"1710":0.08040351138438662,"1711":0.012067341517982942,"1712":-0.11385763326706982,"1713":0.04228040008286709,"1714":-0.052541418134988215,"1715":-0.06764288321869139,"1716":-0.12494716660371322,"1717":-0.3723941722781783,"1718":0.01810588872525133,"1719":-0.07505429669568661,"1720":0.05300569463631839,"1721":0.02024030444965511,"1722":0.008840216585871646,"1723":0.1388598067914286,"1724":0.24925247913805193,"1725":0.04716406757991151,"1726":-0.11948852202419803,"1727":-0.06797387030618014,"1728":0.43057485784334953,"1729":-0.03730433283187984,"1730":0.06589398678424166,"1731":-0.03490067967274711,"1732":-0.015185656530343723,"1733":0.03953336014722387,"1734":-0.24143724010921147,"1735":-0.010411703597919948,"1736":0.20406571441916127,"1737":-0.04773570412128385,"1738":0.14215989203483098,"1739":-0.022107530329207144,"1740":0.026396291638934925,"1741":-0.3429268005775742,"1742":0.1262750927181112,"1743":-0.03529091073395281,"1744":0.029048862093495213,"1745":-0.03291392242576795,"1746":-0.05351608160346948,"1747":0.04359450861275326,"1748":-0.051361434776635684,"1749":-0.003735811235135885,"1750":-0.1923184313473577,"1751":-0.09798564061168286,"1752":0.10577518820791439,"1753":-0.035860926218075975,"1754":-0.05337851065077468,"1755":0.05585709702507093,"1756":-0.2789751861210085,"1757":0.03053621319907379,"1758":-0.014628641097505536,"1759":0.037880443164476765,"1760":0.20995493972313437,"1761":0.0282778861748932,"1762":0.021810984042549945,"1763":-0.01458052086232289,"1764":-0.057263699864493464,"1765":0.032645451958427885,"1766":-0.254942968612861,"1767":-0.004577453727569485,"1768":0.059862986017711665,"1769":0.005050180473301242,"1770":0.049995555087376915,"1771":-0.026242534613833315,"1772":-0.022722236501841932,"1773":0.025258726624053957,"1774":0.03565168250557105,"1775":0.011503252439811443,"1776":-0.032515281861592346,"1777":0.00639493008553997,"1778":0.0008747606349148702,"1779":0.05644907942375315,"1780":-0.015092464479811284,"1781":-0.06564103018446903,"1782":0.009211443089805356,"1783":-0.10221945671189007,"1784":0.013225131370405895,"1785":-0.1463660634748753,"1786":0.0447101574549418,"1787":-0.742302253215563,"1788":-0.1950682671677728,"1789":0.07417717100902281,"1790":0.04255343378376794,"1791":-0.1635513078804791}},{"sx":1,"sy":1,"depth":1792,"w":{"0":0.01981734240913311,"1":-0.021279326180136268,"2":-0.006358185563336651,"3":-0.011113089550261848,"4":0.01644674060162988,"5":-0.046820741221438214,"6":0.011163393670047551,"7":-0.027010675459266678,"8":0.01235507627018341,"9":0.013081040049999824,"10":0.01672338759793932,"11":-0.004643344302021147,"12":-0.04717449926012787,"13":0.014526072664899798,"14":-0.0035694516071985644,"15":-0.0822010907616416,"16":0.018732782566834773,"17":-0.05319369289582301,"18":-0.03526166349411669,"19":0.03917433920182398,"20":0.002053294201093152,"21":0.02963355673518219,"22":-0.018748503161023205,"23":0.021364715372125764,"24":0.04490566701392156,"25":0.01184428360853731,"26":-0.0016292848381931062,"27":0.04900717629034997,"28":0.0020052568841655116,"29":-0.007571668713527485,"30":0.034109816994156966,"31":-0.0041821178990752725,"32":-0.014299769627085214,"33":0.03680597698008419,"34":-0.12874122668905497,"35":0.0372182372734913,"36":0.00013856249589724406,"37":0.0012785059156332128,"38":-0.029312634933358877,"39":-0.0060254158015860685,"40":-0.0022542623652001743,"41":-0.051011459417823715,"42":0.016083382090364896,"43":-0.009902039707821622,"44":-0.04666252800079026,"45":-0.002854432648387694,"46":-0.08384695601797147,"47":-0.08766795039454035,"48":-0.08461185459685755,"49":0.02747138906293566,"50":0.03945159638961001,"51":0.03710150415628452,"52":-0.046821052376295365,"53":-0.0064096137304534805,"54":0.004905067896926057,"55":0.03681994949579621,"56":-0.024078117029583,"57":-0.002163782163178757,"58":0.03060311291660849,"59":-0.004916839760214298,"60":0.004029073884591835,"61":-0.024139762142172318,"62":0.06438867996605192,"63":-0.027297107025449498,"64":-0.012519438855538002,"65":-0.036887927044919826,"66":-0.12196378478412301,"67":-0.08101340621459573,"68":0.03684963914545011,"69":-0.007824232365689002,"70":-0.0005941810133162764,"71":0.025208991221049262,"72":0.01341020467877653,"73":0.043065553377012254,"74":0.013285924979490537,"75":0.03288675381085312,"76":0.0066819840404289225,"77":-0.012660504655021672,"78":-0.07185013175423086,"79":-0.0015473261304493986,"80":-0.1142568258612072,"81":0.1936728377156041,"82":-0.014009497099500346,"83":0.07375199404242797,"84":-0.011358702516821815,"85":-0.013061787972992891,"86":-0.03028752517156121,"87":-0.016554478940618657,"88":0.007613716344750216,"89":-0.02510352847772956,"90":-0.02026550826786723,"91":0.026883881104243192,"92":0.0015538365331745397,"93":0.04101968681357329,"94":0.059979239880402456,"95":-0.1219306592506228,"96":-0.04220284428386724,"97":-0.04485761572616665,"98":-0.06048751663645814,"99":-0.2458026552056423,"100":0.026647568068996146,"101":-0.055310333994700145,"102":-0.01688851041300482,"103":-0.05163363071453238,"104":-0.05822105121881211,"105":-0.011349030389006334,"106":-0.022996464518639063,"107":0.00010597265964665926,"108":0.03230253036329867,"109":0.044484141009333365,"110":0.042084500832898976,"111":-0.21613262398926864,"112":-0.21766720830251157,"113":-0.02068995521532221,"114":-0.0200589851480155,"115":0.3040736174832758,"116":-0.011605341155982263,"117":0.036681140008148684,"118":-0.028482117495036822,"119":0.03132592409079996,"120":-0.04115198919195777,"121":0.03309942156242444,"122":0.0036134604651866784,"123":-0.022393044948355735,"124":-0.021791562916703266,"125":0.11875197403827784,"126":-0.04018787358096672,"127":-0.05514566289456719,"128":-0.027248439120147634,"129":0.15115560751117768,"130":0.23635017424237312,"131":-0.19194700898694192,"132":-0.023479404280518597,"133":-0.13576882024612497,"134":0.023514001076572328,"135":-0.01454426701933217,"136":-0.09105307573714867,"137":-0.05363999988713831,"138":-0.053660965969065104,"139":-0.0005752543240410967,"140":-0.0936682744674063,"141":0.03752407014137413,"142":-0.023676067273082753,"143":-0.07762675602213258,"144":-0.15888357959974916,"145":-0.0407540414518851,"146":-0.03722064860826741,"147":-0.025966453272412288,"148":-0.02806135260670353,"149":-0.053072481271778986,"150":-0.03817890197847789,"151":0.005622915921524379,"152":-0.06234180152060377,"153":0.0488625716047785,"154":-0.023552651134754254,"155":-0.01692639678952367,"156":0.006298531283026667,"157":-0.08829476845394862,"158":-0.044000611461955164,"159":0.18967243985799315,"160":-0.005174876140273405,"161":0.0693998936724538,"162":-0.1353799320919351,"163":0.05383557401903281,"164":-0.0008793395906127182,"165":-0.03055058727976151,"166":0.019243539741985744,"167":-0.0016993553805877836,"168":0.013672238198745747,"169":-0.06308055274425332,"170":-0.03941193556790629,"171":0.0037480465659482107,"172":-0.0020408756902536916,"173":0.0024300054360185622,"174":0.026623173537368955,"175":-0.06342314558405729,"176":-0.0143833995672199,"177":0.14184561940551038,"178":0.04337324875443025,"179":-0.1564882974674685,"180":-0.09165898026012657,"181":0.010182407240425986,"182":-0.03886329257229138,"183":-0.07789304202334751,"184":0.0383030810932965,"185":-0.009699338459792662,"186":0.02569287532911355,"187":-0.009896118485896756,"188":0.01498785696105248,"189":-0.018448698746203106,"190":-0.03630498678132934,"191":-0.05589078011146822,"192":0.024579996191558845,"193":-0.07364707693987738,"194":0.1250357570101951,"195":-0.1478611462723789,"196":-0.019908606258779025,"197":-0.02554456540872924,"198":-0.049980788614197906,"199":-0.051449130774060874,"200":-0.008513442422098755,"201":-0.09089193660442389,"202":-0.04909404329961412,"203":0.034646789376610754,"204":0.009350403802917722,"205":-0.08894529527205966,"206":0.0033724227952764843,"207":-0.058300311927083674,"208":0.0341833161164925,"209":-0.016315435013294056,"210":0.0036004085447817686,"211":0.20348695226726882,"212":-0.044002758703247324,"213":0.005755545205256352,"214":-0.019299318191462776,"215":-0.09635976028797337,"216":0.09639643733276998,"217":0.03152732968220565,"218":0.006838519599042772,"219":0.0288530233456317,"220":0.015835348079256382,"221":-0.0702591156492124,"222":-0.0412523922022936,"223":0.009166191837338859,"224":-0.009423828243128232,"225":0.027363245934965575,"226":-0.005407485809058039,"227":-0.018804531730827065,"228":0.012989485785637278,"229":-0.03898328362467327,"230":-0.04539688091535508,"231":0.011057872073436796,"232":-0.011181944834770164,"233":-0.040558494914480006,"234":0.023053289969779924,"235":-0.031761181936830085,"236":0.010078552611009269,"237":0.005042151028225399,"238":-0.02086017163813195,"239":0.026476865163336683,"240":-0.054640230835754644,"241":-0.021184700532474125,"242":-0.004253742934520078,"243":-0.055443103254654416,"244":-0.01867101911727194,"245":0.010435487599611996,"246":0.027429274840412448,"247":-0.014791229524547025,"248":0.007490972425451885,"249":0.02825452268219502,"250":-0.02513606524919321,"251":-0.05339417144066207,"252":0.008112710956171654,"253":0.011979081242094819,"254":-0.008041978517415768,"255":-0.0254034380170773,"256":-0.028733485325172434,"257":-0.04840640834197102,"258":-0.002985722242545913,"259":0.03710394939939374,"260":0.05745249967203117,"261":-0.16432841486446897,"262":0.006497464897718051,"263":0.03409546036315337,"264":-0.010904641137302898,"265":-0.0009511152748691717,"266":-0.02612984930230522,"267":-0.01296864478965423,"268":0.0005811783895767891,"269":0.034370001547082196,"270":0.053035960200608794,"271":0.008368966580944484,"272":0.0300852405931028,"273":-0.27711846315688576,"274":0.04080500750173556,"275":-0.006388327655950793,"276":-0.0220912911955251,"277":-0.04100428457944695,"278":0.030737703595743494,"279":0.021387829136630076,"280":0.02062612950737716,"281":0.02999798350510367,"282":-0.032723733758632446,"283":-0.007039215032677203,"284":-0.027958200693097884,"285":-0.0029161863788967905,"286":-0.0764080302453752,"287":0.02543294059365057,"288":-0.018365785870299724,"289":-0.018859701164029463,"290":-0.12398769954533279,"291":-0.05207163911731472,"292":0.0492534409146969,"293":-0.045538156278552476,"294":0.01979690340721259,"295":-0.0382110431129637,"296":0.01627835276006346,"297":-0.10851050710194488,"298":-0.015305675962143259,"299":0.01688705655421184,"300":-0.0972098208132178,"301":-0.03656816664062461,"302":-0.06233951697715034,"303":0.24581674513082588,"304":0.3368795344312345,"305":0.24826780117192046,"306":-0.05598214054217266,"307":-0.27027778896738686,"308":-0.3317550333997236,"309":-0.01326063678537544,"310":-0.024295150085543685,"311":-0.06129248240165746,"312":-0.0633375654430058,"313":-0.08953734604737124,"314":-0.007489565204553939,"315":0.03625233790411006,"316":0.008935243675341124,"317":0.009620425704692598,"318":-0.13641514265860608,"319":-0.25564756714782205,"320":0.029560556706374586,"321":-0.13934319577174262,"322":0.07189312094542562,"323":-0.18640657683123055,"324":0.017171747355158713,"325":0.105649458701418,"326":0.025574301480098056,"327":0.04385831441425327,"328":-0.08716420934019001,"329":-0.20178399029899863,"330":-0.09241739009721005,"331":0.0053640072208500185,"332":-0.20077271084900494,"333":-0.025992868681446367,"334":-0.07764259024969425,"335":0.1717289818926526,"336":-0.07727753812743879,"337":-0.05001514126428218,"338":-0.005750744495152726,"339":0.14849552186253995,"340":-0.12597864415036458,"341":-0.04596910880292824,"342":0.045453747414237154,"343":0.08910466323889553,"344":-0.03184347641508636,"345":-0.014797142953095536,"346":-0.020453591562496078,"347":0.0004193113243056609,"348":0.008605880716448603,"349":0.2249415778620014,"350":0.19640079552695244,"351":0.113682934040535,"352":-0.013008994962992732,"353":-0.1924250426199628,"354":-0.2539241246082177,"355":-0.4045628142161704,"356":0.018845700516084644,"357":0.20966730051111812,"358":0.07358954384195181,"359":0.018766081031002017,"360":-0.09558751145025579,"361":-0.08108704367904528,"362":0.039713008725758,"363":-0.02091459778791673,"364":-0.04021714303865026,"365":-0.028049711210123163,"366":-0.018107801267807356,"367":0.06026029518133057,"368":-0.20217667001869263,"369":0.11224713779266082,"370":0.0234904504091149,"371":0.2130624773368745,"372":0.08354365545001037,"373":-0.008604235193802925,"374":0.034743403430710286,"375":-0.08514612193961708,"376":-0.05453350310434306,"377":0.031902676329586065,"378":-0.03398364815706589,"379":-0.1290506187125664,"380":-0.02088543727752842,"381":-0.0002261820632917772,"382":0.030542410323622367,"383":-0.2591379717356266,"384":0.01456054553394579,"385":0.0005120259179749359,"386":-0.10985451667860281,"387":-0.11127879035718141,"388":0.07476772962819003,"389":0.256902618246875,"390":-0.1164501376716879,"391":0.00914657756355722,"392":-0.06419780228501677,"393":-0.0954713954636266,"394":0.13098720579946999,"395":-0.010795280145209984,"396":-0.15404564603431006,"397":0.1285160080609659,"398":0.03105179671888548,"399":0.04910908990492663,"400":0.2210501101912583,"401":0.04652032429161604,"402":-0.15812752030171506,"403":0.20824303531091087,"404":-0.05202486792486053,"405":0.10999096546761042,"406":0.001997577699457437,"407":0.11126983656048771,"408":-0.2500410291615284,"409":-0.034834605459671555,"410":0.009942277547626555,"411":-0.017923978742388838,"412":-0.034294631096606736,"413":-0.008065909359197609,"414":-0.010156936228987449,"415":-0.14635023629256735,"416":-0.003889680722789465,"417":-0.0766144567189473,"418":0.010274041191881191,"419":-0.2549791768278444,"420":0.02604751377091551,"421":-0.13730935574930636,"422":0.018898230285923693,"423":-0.028110498689595472,"424":-0.08243370073483561,"425":0.08486565849860551,"426":-0.35105670051569887,"427":-0.00914537731933324,"428":0.10986918631314498,"429":-0.10489373549658097,"430":-0.09469277909338805,"431":0.017520904981357648,"432":-0.004034466017818386,"433":0.03489706721062155,"434":-0.23871910328033713,"435":-0.08331180282761287,"436":-0.019542220482200473,"437":-0.016199380000511774,"438":-0.07410424439776539,"439":-0.054875002539819646,"440":-0.024159817204064134,"441":-0.003712571177373937,"442":0.031671200651622766,"443":-0.0034291179339261436,"444":-0.03731495834401047,"445":-0.13321768403672646,"446":0.027328988952291168,"447":-0.042286434333266835,"448":0.026867285551295195,"449":0.036206511636766886,"450":-0.024578579079611446,"451":-0.09592580958741379,"452":0.004864899231357654,"453":-0.009876241716865686,"454":-0.0033865168558266726,"455":0.019799586283418567,"456":0.21023737101038167,"457":-0.007301660067420939,"458":-0.05459895707661094,"459":-0.01593904965272759,"460":0.017899935592937215,"461":0.13091034316739938,"462":-0.053212618749939294,"463":0.18130177621398288,"464":-0.14001220422969674,"465":-0.018505656113879384,"466":0.0054898867122899625,"467":0.04510666019855324,"468":0.014276020645340342,"469":0.014564092053279316,"470":-0.02359461613897982,"471":0.028217116929192865,"472":0.07438507700594836,"473":-0.00632753877897537,"474":0.036736193020472936,"475":0.053604915519086964,"476":-0.031008695151135943,"477":-0.23448307130273302,"478":0.026637001156623773,"479":0.08580120077735891,"480":0.014135084130645063,"481":0.0021476708107729093,"482":-0.005341569275817412,"483":-0.029239274389538373,"484":-0.004369711433866576,"485":-0.0000402086793537719,"486":0.010874445562445798,"487":-0.014120636873251586,"488":-0.10168358354125846,"489":-0.015321415605497367,"490":-0.006806572876831231,"491":0.035272661687633634,"492":0.007452897365838063,"493":-0.001049362053470617,"494":0.09613848845624119,"495":-0.039662670590536055,"496":-0.043253082833867584,"497":-0.015284390117192634,"498":-0.07318246392881096,"499":0.042470386833917344,"500":0.004767909099204685,"501":0.02429875620666556,"502":0.009688941695533035,"503":-0.003692650446366954,"504":-0.030462042917233745,"505":0.04461605297535844,"506":-0.01124814780213487,"507":-0.04585511743374581,"508":0.013569809234285966,"509":-0.013567637907893117,"510":0.0022508387092121124,"511":-0.03427767420322125,"512":-0.01570468073604341,"513":-0.030988304135147617,"514":0.029018054104771627,"515":0.02519013624833028,"516":-0.04220434603994659,"517":-0.08067191424376072,"518":-0.025572105348750564,"519":0.011532328555369951,"520":0.021921911825923183,"521":-0.014534673514889997,"522":0.01496321412786385,"523":0.0004856429029291949,"524":-0.03147913291824102,"525":0.03925736629226729,"526":0.0666958346683011,"527":-0.18883772131220583,"528":0.035864302528954006,"529":-0.07408478131545113,"530":-0.018622750670723658,"531":0.002797186288314662,"532":-0.06720918805005417,"533":-0.13246017759013495,"534":0.020680737636499257,"535":-0.01838464729211813,"536":0.007726128785586476,"537":-0.08475313656751039,"538":0.010524756188721006,"539":-0.04339388194011221,"540":-0.03287288206174762,"541":-0.03301448253432219,"542":-0.2168484077417265,"543":-0.002464708813289869,"544":-0.0443193330295692,"545":-0.08552624404736257,"546":0.06401424096054394,"547":0.1158085258774182,"548":0.03487329173632154,"549":-0.32995778539516685,"550":-0.028732876277264868,"551":0.011263067574110754,"552":-0.11828545019482842,"553":-0.22362306139122065,"554":0.013360811474072582,"555":0.015258108450842573,"556":0.02198471861693378,"557":-0.13603802865721562,"558":0.05127014154783228,"559":-0.1467301668566267,"560":0.09673669642834133,"561":-0.07929720970474287,"562":-0.05046702361727617,"563":0.1856731905643265,"564":0.044438917793245644,"565":-0.05308097219108573,"566":0.0029198910841361472,"567":-0.13887829688751457,"568":0.03927756942505644,"569":0.0606601339305131,"570":0.02356507122409203,"571":-0.050590739118181016,"572":0.033718955072088705,"573":-0.03313471783304783,"574":0.09024185286927988,"575":-0.14841512365553733,"576":0.024526677490640213,"577":-0.328223335266339,"578":-0.025191015477844796,"579":0.29008441709874977,"580":-0.00497534811677131,"581":0.04617150064234557,"582":-0.07056554012045181,"583":0.028457512696950512,"584":0.031171246564604547,"585":-0.049696263617699535,"586":-0.025283501426315327,"587":0.03364683926018863,"588":-0.049800285862043325,"589":-0.18542068054698993,"590":-0.025656768418600824,"591":-0.13936308465291225,"592":0.14802446883483708,"593":-0.13501335096437259,"594":0.3654638989653408,"595":-0.09078568984199589,"596":-0.28452574529129987,"597":-0.029253035239372494,"598":-0.06545887011631192,"599":-0.062133110936953256,"600":-0.17248895636019515,"601":-0.1411966949110287,"602":0.0257413063932982,"603":0.09697967780123094,"604":0.0017943500881445157,"605":0.022326933797828047,"606":-0.005625075727245391,"607":0.10736907695791884,"608":-0.04751088262601302,"609":-0.01667299799136421,"610":-0.0945842488216809,"611":0.05202211868806734,"612":-0.052037340742730274,"613":0.5202118022063003,"614":0.013806959711237996,"615":0.010807661754670033,"616":-0.3035752862937859,"617":-0.1370205139114019,"618":-0.03069476909912661,"619":0.010177067420175049,"620":-0.025654058107347912,"621":-0.06690107815956378,"622":-0.01374317935719626,"623":-0.035748875548581326,"624":0.1426137978780862,"625":0.0017257574154293286,"626":0.26642147614246353,"627":-0.15184045507598792,"628":0.3517452520469454,"629":-0.003220548944553713,"630":-0.0960786155291677,"631":0.20322628778267104,"632":0.03940472154458077,"633":0.1703949915652412,"634":-0.007396869950247824,"635":-0.16937899128096293,"636":0.009264488606664952,"637":-0.14376754005654088,"638":0.026141475889318103,"639":-0.0469218087551551,"640":-0.018058184929592342,"641":-0.10246531743657583,"642":-0.4655428661971974,"643":-0.08758512957349618,"644":-0.02491657843987963,"645":0.01841400204068789,"646":0.06705782434708198,"647":0.0022801751118663553,"648":-0.44679031763348004,"649":0.0029628412076239423,"650":0.0007110590251559707,"651":0.025683575605222005,"652":-0.2541791898624868,"653":0.297150822699077,"654":-0.08399355268028127,"655":0.1652728763176181,"656":0.01735569230479791,"657":-0.031205807024675777,"658":0.014780752268592788,"659":-0.00039346111201118446,"660":0.1893201419751721,"661":0.25347105932760733,"662":0.06045551879180082,"663":-0.25114057427264985,"664":-0.29841435835710967,"665":0.10494710660469993,"666":0.005549173602985699,"667":-0.30217451671386936,"668":0.015810430884483164,"669":-0.05827200025293099,"670":-0.045101172446000884,"671":0.03596702771986281,"672":0.03318976325718913,"673":0.026875357245198673,"674":0.11207492733440765,"675":-0.00641131998772694,"676":0.02700768002041916,"677":-0.020908078894418945,"678":-0.15037652867719237,"679":-0.016515423519974155,"680":-0.07030622063763008,"681":0.028358419891857327,"682":-0.17343284834076367,"683":0.009069354826279078,"684":-0.048992958412265274,"685":0.3618210579476641,"686":0.08751525538582436,"687":0.2153013777652288,"688":0.007464946730460266,"689":0.023934200848439172,"690":-0.046129700800228914,"691":0.06271346459747963,"692":0.08316592804249495,"693":-0.037403759963551615,"694":-0.1335648041230254,"695":0.031739236387669637,"696":0.0198108337390503,"697":0.08921360485918588,"698":-0.015486981479363912,"699":0.035658959708151104,"700":-0.07245772780159516,"701":-0.013866137418587688,"702":-0.03530398637321184,"703":0.002949677429562748,"704":-0.06961462485411775,"705":-0.0695154760873561,"706":-0.2639771130182259,"707":-0.07111050069941174,"708":0.005579761515689595,"709":-0.03551562164308494,"710":-0.06930548597208279,"711":-0.014113399616381406,"712":0.060411651022186805,"713":0.0012430744040099393,"714":-0.19857782908490873,"715":0.01718045905974216,"716":-0.02162148070989328,"717":-0.034918307001151776,"718":0.018219269485531566,"719":0.10331126801447306,"720":0.04513596755917358,"721":-0.04421927856730789,"722":-0.06623747981251882,"723":0.09736990610391834,"724":0.002494082330893441,"725":-0.0017084861917640904,"726":-0.06181215895200205,"727":0.019456506207263448,"728":0.11753048170759793,"729":0.02378694781196524,"730":-0.019243349741059804,"731":0.06444412122666034,"732":-0.2539063483805994,"733":-0.03728200873402155,"734":0.004435584504757782,"735":-0.01901654755955509,"736":-0.4986852850575159,"737":0.007212979559554725,"738":0.026528826534214903,"739":-0.0036184573891936385,"740":-0.0028606687895689946,"741":-0.05681361404922557,"742":0.027452070203058277,"743":-0.03985463630668661,"744":-0.07970321484526566,"745":0.04378631429813335,"746":-0.020070389756656076,"747":-0.0022492318954510757,"748":-0.025935412747812022,"749":-0.01693628727432724,"750":-0.013426897039336437,"751":0.00595982970484208,"752":-0.024941083016327272,"753":0.011292291646890008,"754":-0.04037897561351788,"755":0.02608134624306769,"756":0.03249799424033661,"757":0.03268847833664633,"758":0.004046967450464588,"759":0.003038729733112059,"760":-0.06219205414435455,"761":0.030309033931255135,"762":0.007952920471689632,"763":-0.04489347672073183,"764":-0.10754825800923275,"765":0.014151042585753962,"766":0.019195547379455287,"767":0.017660571277961553,"768":0.01701398942452355,"769":-0.017609303620702517,"770":-0.044112317550637485,"771":-0.0514166060895737,"772":-0.06798711590869291,"773":-0.16710033151949638,"774":0.017819087137654836,"775":0.005372381493163635,"776":-0.05470098619999609,"777":0.17577356852038875,"778":-0.0329350112344628,"779":-0.022958724554334474,"780":-0.070663396421793,"781":-0.01365024100294469,"782":-0.06995458286617762,"783":0.09953127276070006,"784":0.4102867667443018,"785":-0.0537911596102515,"786":-0.27063865183257474,"787":0.02437840816137986,"788":-0.07765657852308691,"789":-0.08779485928425503,"790":-0.06164761323481734,"791":-0.026656656464736573,"792":-0.019931882073915965,"793":0.008038672613139638,"794":-0.0054164178695275495,"795":0.010476652633430759,"796":0.006915955130332276,"797":0.0083235789706798,"798":-0.03932106108532572,"799":-0.044925329111336544,"800":0.01717191978551053,"801":-0.03204055907017018,"802":0.013500061432188615,"803":-0.05189641319324672,"804":-0.030047609771147236,"805":0.09200652819855683,"806":-0.02131053991055374,"807":0.0035815673385039136,"808":0.10115878483890395,"809":-0.03494266748603414,"810":-0.01710716202132173,"811":-0.02008053277613066,"812":-0.012476784384403746,"813":-0.12912281951706597,"814":-0.035599748266918876,"815":0.020924198162257945,"816":-0.20249687528966737,"817":-0.050306686223014256,"818":0.08406992684135967,"819":0.04423951245680961,"820":0.09602645259479343,"821":-0.1721048804166949,"822":0.08420265071467303,"823":-0.01600867841892217,"824":0.007750556390086271,"825":-0.09709773478373758,"826":0.019946669323289208,"827":-0.02890602003624838,"828":0.10037694892893104,"829":-0.00962737841088187,"830":-0.1558675103697954,"831":0.005907030618904461,"832":-0.01894831027333176,"833":0.019611240779608772,"834":0.024948365040272612,"835":0.037145531976147526,"836":-0.025458518380199455,"837":-0.08303491328528995,"838":-0.1876030466925466,"839":-0.012672140324616726,"840":0.25878970208760765,"841":-0.13531303199414124,"842":0.04167365804275686,"843":0.001618787943910134,"844":-0.08303129868127374,"845":0.1022859249229539,"846":-0.01285637693008708,"847":-0.0432444324674085,"848":0.015156844739955327,"849":-0.005371944851490362,"850":-0.16959541173556714,"851":0.1865512593673281,"852":-0.22340122905821286,"853":-0.02916282999303509,"854":0.08862239058666772,"855":-0.22726903682681235,"856":0.29660098743286606,"857":-0.07083199556384882,"858":0.01798488906789439,"859":0.1609143899495089,"860":-0.030615463051612543,"861":-0.022390281665757322,"862":-0.08348796803576446,"863":0.008480358200671737,"864":0.11878509913301136,"865":-0.04566942620531591,"866":0.0513609200940598,"867":-0.14429894066990243,"868":-0.009011755892337013,"869":0.09085410497852879,"870":0.10397394485233218,"871":-0.031067059862938784,"872":0.029034006787137655,"873":0.08395913698496796,"874":0.06484860993097967,"875":0.025712054683337513,"876":0.12651622526153572,"877":-0.1866046585243218,"878":0.1173748205673264,"879":0.1388783717189577,"880":0.03686513319526084,"881":-0.0036861138084545242,"882":-0.1243732239625177,"883":-0.048175279433974864,"884":-0.021866668546304074,"885":-0.04971536755993183,"886":-0.16436831817875347,"887":-0.09068673351387531,"888":-0.20780976350594782,"889":-0.16487405834325985,"890":-0.007768330508998579,"891":0.16411028705879777,"892":0.012860473992112216,"893":0.00453487249626337,"894":-0.0337255391144008,"895":-0.07144793973883551,"896":0.22027796896805488,"897":0.03180700279699629,"898":-0.024654748889265984,